genomestart  4
trait 1 0.0 0.0 0.0 0.0 0.0 0.0 0.0 0.0 
node 1 1 1 1
node 2 1 1 1
node 3 1 1 1
node 4 1 1 1
node 5 1 1 1
node 6 1 1 1
node 7 1 1 1
node 8 1 1 1
node 9 1 1 1
node 10 1 1 1
node 11 1 1 1
node 12 1 1 1
node 13 1 1 1
node 14 1 1 1
node 15 1 1 1
node 16 1 1 1
node 17 1 1 1
node 18 1 1 1
node 19 1 1 1
node 20 1 1 1
node 21 1 1 1
node 22 1 1 1
node 23 1 1 1
node 24 1 1 1
node 25 1 1 1
node 26 1 1 1
node 27 1 1 1
node 28 1 1 3
node 29 1 0 0
node 30 1 0 0
node 31 1 0 0
node 39 1 0 2
node 40 1 0 2
node 41 1 0 2
node 42 1 0 2
node 43 1 0 2
node 44 1 0 2
gene  1 1 29 -0.8693479289807513 0 1232.0 -0.8693479289807513 1
gene  1 13 29 -0.9960519486927367 0 1244.0 -0.9960519486927367 1
gene  1 16 29 -0.8274322753784131 0 1247.0 -0.8274322753784131 1
gene  1 18 29 0.3394992587946212 0 1249.0 0.3394992587946212 1
gene  1 19 29 0.25651349950666846 0 1250.0 0.25651349950666846 1
gene  1 22 29 -0.3948530644425049 0 1253.0 -0.3948530644425049 1
gene  1 23 29 -0.6518140104672188 0 1254.0 -0.6518140104672188 1
gene  1 26 29 0.7100453697655391 0 1257.0 0.7100453697655391 1
gene  1 28 29 0.3556950688768997 0 1259.0 0.3556950688768997 1
gene  1 29 29 0.343649207193895 1 1260.0 0.343649207193895 1
gene  1 30 29 -0.7437141333313861 1 1261.0 -0.7437141333313861 1
gene  1 39 29 0.24879905351477116 1 1270.0 0.24879905351477116 1
gene  1 40 29 -0.7368548379953277 1 1271.0 -0.7368548379953277 1
gene  1 42 29 -0.15173267545765634 1 1273.0 -0.15173267545765634 1
gene  1 43 29 0.38495375230008133 1 1274.0 0.38495375230008133 1
gene  1 1 30 -0.5493572938456187 0 1276.0 -0.5493572938456187 1
gene  1 2 30 -0.24923614646007253 0 1277.0 -0.24923614646007253 1
gene  1 3 30 0.6800054687978284 0 1278.0 0.6800054687978284 1
gene  1 6 30 0.6604452721360938 0 1281.0 0.6604452721360938 1
gene  1 8 30 0.9055019804969308 0 1283.0 0.9055019804969308 1
gene  1 9 30 -0.7000126215105797 0 1284.0 -0.7000126215105797 1
gene  1 10 30 -0.5714331517807979 0 1285.0 -0.5714331517807979 1
gene  1 11 30 0.19070198088877643 0 1286.0 0.19070198088877643 1
gene  1 12 30 -0.558387426244961 0 1287.0 -0.558387426244961 1
gene  1 13 30 0.8726912834838488 0 1288.0 0.8726912834838488 1
gene  1 16 30 -0.9473968102486383 0 1291.0 -0.9473968102486383 1
gene  1 17 30 0.2898110074107585 0 1292.0 0.2898110074107585 1
gene  1 19 30 0.6908947358572183 0 1294.0 0.6908947358572183 1
gene  1 20 30 0.25358422143222803 0 1295.0 0.25358422143222803 1
gene  1 23 30 -0.3772024581231118 0 1298.0 -0.3772024581231118 1
gene  1 24 30 0.17525735493306627 0 1299.0 0.17525735493306627 1
gene  1 29 30 0.04909991029115646 0 1304.0 0.04909991029115646 1
gene  1 31 30 0.6495018098686803 1 1306.0 0.6495018098686803 1
gene  1 39 30 0.24579038100517192 1 1314.0 0.24579038100517192 1
gene  1 40 30 0.9724312575107571 1 1315.0 0.9724312575107571 1
gene  1 41 30 0.322880698713621 1 1316.0 0.322880698713621 1
gene  1 42 30 0.3225272586725553 1 1317.0 0.3225272586725553 1
gene  1 1 31 -0.5441967226070896 0 1320.0 -0.5441967226070896 1
gene  1 2 31 0.3530140599481064 0 1321.0 0.3530140599481064 1
gene  1 5 31 0.4726843747488152 0 1324.0 0.4726843747488152 1
gene  1 6 31 0.22600372383097944 0 1325.0 0.22600372383097944 1
gene  1 7 31 -0.2614062611569705 0 1326.0 -0.2614062611569705 1
gene  1 12 31 0.5088523758263093 0 1331.0 0.5088523758263093 1
gene  1 16 31 -0.33743170047619764 0 1335.0 -0.33743170047619764 1
gene  1 19 31 -0.8967702533473326 0 1338.0 -0.8967702533473326 1
gene  1 22 31 -0.9346272581802366 0 1341.0 -0.9346272581802366 1
gene  1 23 31 0.3119069307036024 0 1342.0 0.3119069307036024 1
gene  1 26 31 0.31135515529459845 0 1345.0 0.31135515529459845 1
gene  1 29 31 -0.8986673843162789 0 1348.0 -0.8986673843162789 1
gene  1 42 31 0.034315160326700234 1 1361.0 0.034315160326700234 1
gene  1 43 31 0.4512794346073501 1 1362.0 0.4512794346073501 1
gene  1 44 31 -0.019053766713846843 1 1363.0 -0.019053766713846843 1
gene  1 1 39 0.8872191250554856 0 1672.0 0.8872191250554856 1
gene  1 4 39 -0.033952600573009084 0 1675.0 -0.033952600573009084 1
gene  1 5 39 0.8094407210472089 0 1676.0 0.8094407210472089 1
gene  1 12 39 -0.5538536734274616 0 1683.0 -0.5538536734274616 1
gene  1 13 39 -0.20037652692489805 0 1684.0 -0.20037652692489805 1
gene  1 14 39 -0.6030055180252376 0 1685.0 -0.6030055180252376 1
gene  1 15 39 -0.5652352498038032 0 1686.0 -0.5652352498038032 1
gene  1 16 39 -0.45223267853820726 0 1687.0 -0.45223267853820726 1
gene  1 17 39 -0.809855047031995 0 1688.0 -0.809855047031995 1
gene  1 18 39 -0.021849004372061165 0 1689.0 -0.021849004372061165 1
gene  1 19 39 -0.4490311230269133 0 1690.0 -0.4490311230269133 1
gene  1 21 39 -0.5560149448756072 0 1692.0 -0.5560149448756072 1
gene  1 24 39 -0.7858531878299077 0 1695.0 -0.7858531878299077 1
gene  1 27 39 -0.8538924736659647 0 1698.0 -0.8538924736659647 1
gene  1 29 39 -0.1679024237760346 0 1700.0 -0.1679024237760346 1
gene  1 30 39 -0.8355533678032259 0 1701.0 -0.8355533678032259 1
gene  1 41 39 -0.5381280090763196 1 1712.0 -0.5381280090763196 1
gene  1 42 39 0.12360802033671026 1 1713.0 0.12360802033671026 1
gene  1 43 39 -0.4427305220356166 1 1714.0 -0.4427305220356166 1
gene  1 1 40 -0.1043608162792552 0 1716.0 -0.1043608162792552 1
gene  1 5 40 0.7612171881093354 0 1720.0 0.7612171881093354 1
gene  1 7 40 -0.7875297278169665 0 1722.0 -0.7875297278169665 1
gene  1 8 40 -0.01572567732218033 0 1723.0 -0.01572567732218033 1
gene  1 12 40 0.013662056506358877 0 1727.0 0.013662056506358877 1
gene  1 13 40 0.603107311613601 0 1728.0 0.603107311613601 1
gene  1 16 40 -0.493273479237451 0 1731.0 -0.493273479237451 1
gene  1 17 40 0.7916069652147009 0 1732.0 0.7916069652147009 1
gene  1 18 40 -0.3610340657733061 0 1733.0 -0.3610340657733061 1
gene  1 20 40 0.3263022003600079 0 1735.0 0.3263022003600079 1
gene  1 21 40 0.3908256312386208 0 1736.0 0.3908256312386208 1
gene  1 22 40 0.3484215836179654 0 1737.0 0.3484215836179654 1
gene  1 25 40 0.3394678446749898 0 1740.0 0.3394678446749898 1
gene  1 26 40 0.9788588665119131 0 1741.0 0.9788588665119131 1
gene  1 39 40 -0.779243726641389 0 1754.0 -0.779243726641389 1
gene  1 40 40 0.008989686415167286 1 1755.0 0.008989686415167286 1
gene  1 43 40 -0.07248956101393 1 1758.0 -0.07248956101393 1
gene  1 1 41 -0.040733048970090446 0 1760.0 -0.040733048970090446 1
gene  1 4 41 -0.3758521613490857 0 1763.0 -0.3758521613490857 1
gene  1 5 41 0.5998629795854848 0 1764.0 0.5998629795854848 1
gene  1 7 41 -0.4799562700497434 0 1766.0 -0.4799562700497434 1
gene  1 8 41 -0.9672763261992426 0 1767.0 -0.9672763261992426 1
gene  1 9 41 0.01623007734995674 0 1768.0 0.01623007734995674 1
gene  1 10 41 0.7744903670491805 0 1769.0 0.7744903670491805 1
gene  1 15 41 -0.9722091908278017 0 1774.0 -0.9722091908278017 1
gene  1 19 41 0.1859015449604876 0 1778.0 0.1859015449604876 1
gene  1 20 41 -0.21087628878888698 0 1779.0 -0.21087628878888698 1
gene  1 22 41 0.1583763513420432 0 1781.0 0.1583763513420432 1
gene  1 24 41 0.6237145597962291 0 1783.0 0.6237145597962291 1
gene  1 28 41 -0.6921013238030844 0 1787.0 -0.6921013238030844 1
gene  1 29 41 -0.5743754176154466 0 1788.0 -0.5743754176154466 1
gene  1 41 41 -0.6381542555264232 1 1800.0 -0.6381542555264232 1
gene  1 43 41 -0.699309880093137 1 1802.0 -0.699309880093137 1
gene  1 1 42 0.5748612579954772 0 1804.0 0.5748612579954772 1
gene  1 3 42 0.1280308941956273 0 1806.0 0.1280308941956273 1
gene  1 4 42 0.39980992593807163 0 1807.0 0.39980992593807163 1
gene  1 6 42 0.7367439784630679 0 1809.0 0.7367439784630679 1
gene  1 7 42 0.8261255910260531 0 1810.0 0.8261255910260531 1
gene  1 10 42 0.5770018352487116 0 1813.0 0.5770018352487116 1
gene  1 11 42 -0.09429073426885781 0 1814.0 -0.09429073426885781 1
gene  1 14 42 -0.7902651748161487 0 1817.0 -0.7902651748161487 1
gene  1 15 42 0.76079425813828 0 1818.0 0.76079425813828 1
gene  1 18 42 -0.14458221666767235 0 1821.0 -0.14458221666767235 1
gene  1 19 42 -0.026301136114767254 0 1822.0 -0.026301136114767254 1
gene  1 20 42 -0.045362289625098584 0 1823.0 -0.045362289625098584 1
gene  1 21 42 -0.5085757236737579 0 1824.0 -0.5085757236737579 1
gene  1 23 42 0.47286968991494005 0 1826.0 0.47286968991494005 1
gene  1 25 42 -0.013478241982052497 0 1828.0 -0.013478241982052497 1
gene  1 26 42 -0.38006215066229765 0 1829.0 -0.38006215066229765 1
gene  1 28 42 0.9120857632457705 0 1831.0 0.9120857632457705 1
gene  1 29 42 0.5810398800638977 0 1832.0 0.5810398800638977 1
gene  1 39 42 0.5219923529255369 0 1842.0 0.5219923529255369 1
gene  1 40 42 -0.8009750466068218 0 1843.0 -0.8009750466068218 1
gene  1 41 42 0.9614394252303792 0 1844.0 0.9614394252303792 1
gene  1 42 42 -0.3169946748556205 1 1845.0 -0.3169946748556205 1
gene  1 1 43 -0.5589336597334909 0 1848.0 -0.5589336597334909 1
gene  1 2 43 -0.17196734948524428 0 1849.0 -0.17196734948524428 1
gene  1 4 43 -0.658175193610598 0 1851.0 -0.658175193610598 1
gene  1 6 43 0.0993939406621982 0 1853.0 0.0993939406621982 1
gene  1 9 43 -0.2840136007938239 0 1856.0 -0.2840136007938239 1
gene  1 10 43 0.6012214439244118 0 1857.0 0.6012214439244118 1
gene  1 11 43 -0.08399895473768926 0 1858.0 -0.08399895473768926 1
gene  1 19 43 0.7759837646413281 0 1866.0 0.7759837646413281 1
gene  1 24 43 -0.31988171007610466 0 1871.0 -0.31988171007610466 1
gene  1 25 43 0.0016770117840639864 0 1872.0 0.0016770117840639864 1
gene  1 27 43 0.965235466254563 0 1874.0 0.965235466254563 1
gene  1 29 43 0.9185534245612633 0 1876.0 0.9185534245612633 1
gene  1 42 43 0.702872198865109 0 1889.0 0.702872198865109 1
gene  1 1 44 -0.10547694787100681 0 1892.0 -0.10547694787100681 1
gene  1 2 44 -0.29409663393944196 0 1893.0 -0.29409663393944196 1
gene  1 3 44 0.9295145674797924 0 1894.0 0.9295145674797924 1
gene  1 4 44 -0.4697552413307817 0 1895.0 -0.4697552413307817 1
gene  1 5 44 0.9319781677203973 0 1896.0 0.9319781677203973 1
gene  1 6 44 -0.5743646094101537 0 1897.0 -0.5743646094101537 1
gene  1 7 44 0.5915990333899043 0 1898.0 0.5915990333899043 1
gene  1 10 44 0.15095832017295463 0 1901.0 0.15095832017295463 1
gene  1 11 44 -0.8899212992320082 0 1902.0 -0.8899212992320082 1
gene  1 12 44 0.09266407044978475 0 1903.0 0.09266407044978475 1
gene  1 13 44 0.5889972038092174 0 1904.0 0.5889972038092174 1
gene  1 16 44 0.3010023549955281 0 1907.0 0.3010023549955281 1
gene  1 17 44 -0.26814890549864834 0 1908.0 -0.26814890549864834 1
gene  1 18 44 0.7273569250521723 0 1909.0 0.7273569250521723 1
gene  1 19 44 0.550752400443731 0 1910.0 0.550752400443731 1
gene  1 20 44 0.49119746707852496 0 1911.0 0.49119746707852496 1
gene  1 21 44 -0.4383573544023689 0 1912.0 -0.4383573544023689 1
gene  1 24 44 0.2548046558586934 0 1915.0 0.2548046558586934 1
gene  1 25 44 -0.09762129943314124 0 1916.0 -0.09762129943314124 1
gene  1 30 44 0.5009720324474671 0 1921.0 0.5009720324474671 1
gene  1 31 44 -0.18217754889140914 0 1922.0 -0.18217754889140914 1
gene  1 41 44 0.81625355824803 0 1932.0 0.81625355824803 1
gene  1 43 44 0.541002689783111 0 1934.0 0.541002689783111 1
genomeend 4
