genomestart  9
trait 1 0.0 0.0 0.0 0.0 0.0 0.0 0.0 0.0 
node 1 1 1 1
node 2 1 1 1
node 3 1 1 1
node 4 1 1 1
node 5 1 1 1
node 6 1 1 1
node 7 1 1 1
node 8 1 1 1
node 9 1 1 1
node 10 1 1 1
node 11 1 1 1
node 12 1 1 1
node 13 1 1 1
node 14 1 1 1
node 15 1 1 1
node 16 1 1 1
node 17 1 1 1
node 18 1 1 1
node 19 1 1 1
node 20 1 1 1
node 21 1 1 1
node 22 1 1 1
node 23 1 1 1
node 24 1 1 1
node 25 1 1 1
node 26 1 1 1
node 27 1 1 1
node 28 1 1 3
node 39 1 0 2
node 40 1 0 2
node 41 1 0 2
node 42 1 0 2
node 43 1 0 2
node 44 1 0 2
gene  1 2 39 -0.7696302865144928 0 1673.0 -0.7696302865144928 1
gene  1 3 39 -0.44865919223248707 0 1674.0 -0.44865919223248707 1
gene  1 4 39 -0.9828878099529984 0 1675.0 -0.9828878099529984 1
gene  1 6 39 -0.6160686349346365 0 1677.0 -0.6160686349346365 1
gene  1 8 39 0.7747088597265375 0 1679.0 0.7747088597265375 1
gene  1 13 39 -0.9154537166920208 0 1684.0 -0.9154537166920208 1
gene  1 16 39 -0.5046549807555699 0 1687.0 -0.5046549807555699 1
gene  1 17 39 0.8064992098818414 0 1688.0 0.8064992098818414 1
gene  1 19 39 0.951259419428363 0 1690.0 0.951259419428363 1
gene  1 21 39 0.8607006240474848 0 1692.0 0.8607006240474848 1
gene  1 22 39 0.3073998080221416 0 1693.0 0.3073998080221416 1
gene  1 26 39 -0.04427070817315837 0 1697.0 -0.04427070817315837 1
gene  1 27 39 0.26036365900585434 0 1698.0 0.26036365900585434 1
gene  1 28 39 -0.006110037979457528 0 1699.0 -0.006110037979457528 1
gene  1 40 39 -0.4051668556542716 1 1711.0 -0.4051668556542716 1
gene  1 42 39 -0.7154177419499831 1 1713.0 -0.7154177419499831 1
gene  1 7 40 0.1324137511972332 0 1722.0 0.1324137511972332 1
gene  1 8 40 -0.45326173946222814 0 1723.0 -0.45326173946222814 1
gene  1 9 40 -0.5129170116800407 0 1724.0 -0.5129170116800407 1
gene  1 10 40 0.23687296560174276 0 1725.0 0.23687296560174276 1
gene  1 11 40 -0.1870464802006594 0 1726.0 -0.1870464802006594 1
gene  1 12 40 0.19821850822466647 0 1727.0 0.19821850822466647 1
gene  1 13 40 0.863249838297839 0 1728.0 0.863249838297839 1
gene  1 15 40 0.9040859550562966 0 1730.0 0.9040859550562966 1
gene  1 17 40 0.44023319007398 0 1732.0 0.44023319007398 1
gene  1 18 40 0.20115997615820436 0 1733.0 0.20115997615820436 1
gene  1 21 40 0.861965576342535 0 1736.0 0.861965576342535 1
gene  1 24 40 -0.31641789148562016 0 1739.0 -0.31641789148562016 1
gene  1 26 40 0.9594699141593939 0 1741.0 0.9594699141593939 1
gene  1 43 40 0.48363807939427395 1 1758.0 0.48363807939427395 1
gene  1 1 41 -0.9295894360770003 0 1760.0 -0.9295894360770003 1
gene  1 4 41 -0.9173218398577879 0 1763.0 -0.9173218398577879 1
gene  1 5 41 0.02109355197835394 0 1764.0 0.02109355197835394 1
gene  1 10 41 0.577880348812196 0 1769.0 0.577880348812196 1
gene  1 12 41 -0.7634668748541665 0 1771.0 -0.7634668748541665 1
gene  1 14 41 -0.7938514762780282 0 1773.0 -0.7938514762780282 1
gene  1 16 41 -0.8379151755116668 0 1775.0 -0.8379151755116668 1
gene  1 20 41 0.4076523850600965 0 1779.0 0.4076523850600965 1
gene  1 21 41 0.5699528111297328 0 1780.0 0.5699528111297328 1
gene  1 22 41 -0.5397577998867892 0 1781.0 -0.5397577998867892 1
gene  1 24 41 -0.8225195220101585 0 1783.0 -0.8225195220101585 1
gene  1 27 41 -0.4449807907690766 0 1786.0 -0.4449807907690766 1
gene  1 40 41 -0.8251633784004567 0 1799.0 -0.8251633784004567 1
gene  1 41 41 0.9532196707753031 1 1800.0 0.9532196707753031 1
gene  1 42 41 0.2655254747727044 1 1801.0 0.2655254747727044 1
gene  1 2 42 -0.9773517151866198 0 1805.0 -0.9773517151866198 1
gene  1 3 42 -0.8892116757800441 0 1806.0 -0.8892116757800441 1
gene  1 4 42 0.10336447663703208 0 1807.0 0.10336447663703208 1
gene  1 5 42 0.7944943222494875 0 1808.0 0.7944943222494875 1
gene  1 8 42 0.11103524262383568 0 1811.0 0.11103524262383568 1
gene  1 9 42 0.43316043056381426 0 1812.0 0.43316043056381426 1
gene  1 10 42 0.8328051878206365 0 1813.0 0.8328051878206365 1
gene  1 11 42 -0.26555393949145645 0 1814.0 -0.26555393949145645 1
gene  1 14 42 -0.9125112257187433 0 1817.0 -0.9125112257187433 1
gene  1 16 42 -0.5473218134556628 0 1819.0 -0.5473218134556628 1
gene  1 18 42 -0.7744560392119767 0 1821.0 -0.7744560392119767 1
gene  1 20 42 -0.9755891463773625 0 1823.0 -0.9755891463773625 1
gene  1 22 42 0.895532801659605 0 1825.0 0.895532801659605 1
gene  1 23 42 0.5381187831945263 0 1826.0 0.5381187831945263 1
gene  1 25 42 -0.14227363667828297 0 1828.0 -0.14227363667828297 1
gene  1 26 42 -0.5893224610215722 0 1829.0 -0.5893224610215722 1
gene  1 27 42 0.04948122703783875 0 1830.0 0.04948122703783875 1
gene  1 28 42 -0.5394697923293857 0 1831.0 -0.5394697923293857 1
gene  1 42 42 0.8340628998838735 1 1845.0 0.8340628998838735 1
gene  1 43 42 -0.6959378642062867 1 1846.0 -0.6959378642062867 1
gene  1 44 42 0.28803477059912375 1 1847.0 0.28803477059912375 1
gene  1 1 43 0.9614218488569417 0 1848.0 0.9614218488569417 1
gene  1 2 43 -0.17121853393296427 0 1849.0 -0.17121853393296427 1
gene  1 3 43 -0.8591227209554317 0 1850.0 -0.8591227209554317 1
gene  1 4 43 -0.6978639578162297 0 1851.0 -0.6978639578162297 1
gene  1 5 43 -0.5682615098834902 0 1852.0 -0.5682615098834902 1
gene  1 6 43 0.040752171212075194 0 1853.0 0.040752171212075194 1
gene  1 7 43 0.7394334511846282 0 1854.0 0.7394334511846282 1
gene  1 8 43 0.2665238561729222 0 1855.0 0.2665238561729222 1
gene  1 9 43 0.26218056494762476 0 1856.0 0.26218056494762476 1
gene  1 11 43 0.42906482551257663 0 1858.0 0.42906482551257663 1
gene  1 12 43 -0.8575190374801972 0 1859.0 -0.8575190374801972 1
gene  1 14 43 0.9577588274573046 0 1861.0 0.9577588274573046 1
gene  1 15 43 -0.8852417650986514 0 1862.0 -0.8852417650986514 1
gene  1 19 43 0.7089224881182525 0 1866.0 0.7089224881182525 1
gene  1 23 43 -0.761624622331088 0 1870.0 -0.761624622331088 1
gene  1 24 43 -0.5312623192860721 0 1871.0 -0.5312623192860721 1
gene  1 25 43 -0.027228244620363662 0 1872.0 -0.027228244620363662 1
gene  1 26 43 -0.4096109520464627 0 1873.0 -0.4096109520464627 1
gene  1 28 43 -0.36548769745611076 0 1875.0 -0.36548769745611076 1
gene  1 39 43 0.4321158336488954 0 1886.0 0.4321158336488954 1
gene  1 41 43 0.7221973128788616 0 1888.0 0.7221973128788616 1
gene  1 43 43 0.14829424991598072 1 1890.0 0.14829424991598072 1
gene  1 1 44 -0.5576423991218046 0 1892.0 -0.5576423991218046 1
gene  1 2 44 -0.32160952275096777 0 1893.0 -0.32160952275096777 1
gene  1 4 44 -0.361296423584461 0 1895.0 -0.361296423584461 1
gene  1 8 44 -0.4955597770239345 0 1899.0 -0.4955597770239345 1
gene  1 10 44 -0.546554946136213 0 1901.0 -0.546554946136213 1
gene  1 11 44 0.4142448358894 0 1902.0 0.4142448358894 1
gene  1 12 44 -0.2696105842579075 0 1903.0 -0.2696105842579075 1
gene  1 15 44 0.5917622157015937 0 1906.0 0.5917622157015937 1
gene  1 17 44 0.9160879142788318 0 1908.0 0.9160879142788318 1
gene  1 19 44 -0.11313143704187656 0 1910.0 -0.11313143704187656 1
gene  1 21 44 0.3633518854757105 0 1912.0 0.3633518854757105 1
gene  1 24 44 -0.6092092168351452 0 1915.0 -0.6092092168351452 1
gene  1 25 44 0.8125718294343953 0 1916.0 0.8125718294343953 1
gene  1 26 44 0.4947860994310922 0 1917.0 0.4947860994310922 1
gene  1 28 44 -0.5902950717052399 0 1919.0 -0.5902950717052399 1
gene  1 39 44 -0.6889725659650421 0 1930.0 -0.6889725659650421 1
gene  1 43 44 0.7801646929971144 0 1934.0 0.7801646929971144 1
gene  1 44 44 -0.8409674993933 1 1935.0 -0.8409674993933 1
genomeend 9
