genomestart  5
trait 1 0.0 0.0 0.0 0.0 0.0 0.0 0.0 0.0 
node 1 1 1 1
node 2 1 1 1
node 3 1 1 1
node 4 1 1 1
node 5 1 1 1
node 6 1 1 1
node 7 1 1 1
node 8 1 1 1
node 9 1 1 1
node 10 1 1 1
node 11 1 1 1
node 12 1 1 1
node 13 1 1 1
node 14 1 1 1
node 15 1 1 1
node 16 1 1 1
node 17 1 1 1
node 18 1 1 1
node 19 1 1 1
node 20 1 1 1
node 21 1 1 1
node 22 1 1 1
node 23 1 1 1
node 24 1 1 1
node 25 1 1 1
node 26 1 1 1
node 27 1 1 1
node 28 1 1 3
node 29 1 0 0
node 30 1 0 0
node 31 1 0 0
node 32 1 0 0
node 33 1 0 0
node 34 1 0 0
node 39 1 0 2
node 40 1 0 2
node 41 1 0 2
node 42 1 0 2
node 43 1 0 2
node 44 1 0 2
gene  1 1 29 -0.924800117725703 0 1232.0 -0.924800117725703 1
gene  1 2 29 -0.502367583978674 0 1233.0 -0.502367583978674 1
gene  1 3 29 -0.8738449110035373 0 1234.0 -0.8738449110035373 1
gene  1 4 29 0.8868332005156471 0 1235.0 0.8868332005156471 1
gene  1 8 29 0.5194542240725767 0 1239.0 0.5194542240725767 1
gene  1 10 29 0.4292478701088348 0 1241.0 0.4292478701088348 1
gene  1 12 29 -0.6916301545581752 0 1243.0 -0.6916301545581752 1
gene  1 13 29 -0.5779137046460214 0 1244.0 -0.5779137046460214 1
gene  1 14 29 0.4299486367338632 0 1245.0 0.4299486367338632 1
gene  1 15 29 0.8877758555690758 0 1246.0 0.8877758555690758 1
gene  1 16 29 0.5797911480948434 0 1247.0 0.5797911480948434 1
gene  1 17 29 0.5839695586840385 0 1248.0 0.5839695586840385 1
gene  1 20 29 -0.8602319911913507 0 1251.0 -0.8602319911913507 1
gene  1 21 29 0.05892933825708435 0 1252.0 0.05892933825708435 1
gene  1 24 29 0.4618104300715997 0 1255.0 0.4618104300715997 1
gene  1 25 29 -0.3765646330498029 0 1256.0 -0.3765646330498029 1
gene  1 31 29 -0.7563986376531684 1 1262.0 -0.7563986376531684 1
gene  1 32 29 -0.06285089204103944 1 1263.0 -0.06285089204103944 1
gene  1 34 29 -0.9821502671831007 1 1265.0 -0.9821502671831007 1
gene  1 39 29 0.6311669067413815 1 1270.0 0.6311669067413815 1
gene  1 41 29 0.22311619944002226 1 1272.0 0.22311619944002226 1
gene  1 42 29 -0.1510813389538861 1 1273.0 -0.1510813389538861 1
gene  1 43 29 -0.4152177093265278 1 1274.0 -0.4152177093265278 1
gene  1 1 30 0.6564825648418381 0 1276.0 0.6564825648418381 1
gene  1 10 30 0.029886998328106373 0 1285.0 0.029886998328106373 1
gene  1 11 30 -0.5225303762182615 0 1286.0 -0.5225303762182615 1
gene  1 13 30 -0.581386483967733 0 1288.0 -0.581386483967733 1
gene  1 14 30 -0.21083606813822753 0 1289.0 -0.21083606813822753 1
gene  1 15 30 -0.17914817239480474 0 1290.0 -0.17914817239480474 1
gene  1 17 30 0.9701957111733467 0 1292.0 0.9701957111733467 1
gene  1 23 30 -0.6139923600868497 0 1298.0 -0.6139923600868497 1
gene  1 24 30 0.035321042558553284 0 1299.0 0.035321042558553284 1
gene  1 25 30 0.09314940773656177 0 1300.0 0.09314940773656177 1
gene  1 26 30 0.5988962416663767 0 1301.0 0.5988962416663767 1
gene  1 28 30 0.42824151829555956 0 1303.0 0.42824151829555956 1
gene  1 29 30 0.5834905012331264 0 1304.0 0.5834905012331264 1
gene  1 34 30 0.21644932340121437 1 1309.0 0.21644932340121437 1
gene  1 39 30 -0.12429087272634332 1 1314.0 -0.12429087272634332 1
gene  1 40 30 0.04021644743328012 1 1315.0 0.04021644743328012 1
gene  1 41 30 0.29511087716282713 1 1316.0 0.29511087716282713 1
gene  1 1 31 0.9142198912822249 0 1320.0 0.9142198912822249 1
gene  1 2 31 0.8844782215893937 0 1321.0 0.8844782215893937 1
gene  1 4 31 0.15229539431308026 0 1323.0 0.15229539431308026 1
gene  1 7 31 -0.5471677333009303 0 1326.0 -0.5471677333009303 1
gene  1 10 31 -0.7086903959319141 0 1329.0 -0.7086903959319141 1
gene  1 11 31 0.2661374514754924 0 1330.0 0.2661374514754924 1
gene  1 12 31 0.012857082999607305 0 1331.0 0.012857082999607305 1
gene  1 13 31 -0.9284530171687767 0 1332.0 -0.9284530171687767 1
gene  1 14 31 0.6692308887703713 0 1333.0 0.6692308887703713 1
gene  1 17 31 -0.10049322718416398 0 1336.0 -0.10049322718416398 1
gene  1 20 31 0.7475398783610936 0 1339.0 0.7475398783610936 1
gene  1 21 31 -0.39362824200290647 0 1340.0 -0.39362824200290647 1
gene  1 25 31 -0.23486474069381247 0 1344.0 -0.23486474069381247 1
gene  1 26 31 0.03774455998417381 0 1345.0 0.03774455998417381 1
gene  1 27 31 -0.5928470637621627 0 1346.0 -0.5928470637621627 1
gene  1 28 31 -0.9369669327181277 0 1347.0 -0.9369669327181277 1
gene  1 30 31 0.7773930606925178 0 1349.0 0.7773930606925178 1
gene  1 31 31 0.513749757076873 1 1350.0 0.513749757076873 1
gene  1 33 31 0.608708085402304 1 1352.0 0.608708085402304 1
gene  1 39 31 0.822727215557203 1 1358.0 0.822727215557203 1
gene  1 42 31 -0.7316583835464151 1 1361.0 -0.7316583835464151 1
gene  1 43 31 0.7158392602426119 1 1362.0 0.7158392602426119 1
gene  1 3 32 0.04475366630353661 0 1366.0 0.04475366630353661 1
gene  1 4 32 -0.865362164673418 0 1367.0 -0.865362164673418 1
gene  1 5 32 -0.3464987045621225 0 1368.0 -0.3464987045621225 1
gene  1 6 32 -0.7061418940060312 0 1369.0 -0.7061418940060312 1
gene  1 12 32 0.047455714635668556 0 1375.0 0.047455714635668556 1
gene  1 13 32 0.3749870367567003 0 1376.0 0.3749870367567003 1
gene  1 14 32 0.8122486922514489 0 1377.0 0.8122486922514489 1
gene  1 17 32 -0.3256433776384655 0 1380.0 -0.3256433776384655 1
gene  1 18 32 0.455713233776992 0 1381.0 0.455713233776992 1
gene  1 20 32 0.8875090868769018 0 1383.0 0.8875090868769018 1
gene  1 21 32 -0.26170597916121163 0 1384.0 -0.26170597916121163 1
gene  1 22 32 0.6696028902608722 0 1385.0 0.6696028902608722 1
gene  1 24 32 0.09659115533706253 0 1387.0 0.09659115533706253 1
gene  1 26 32 -0.7597816937852012 0 1389.0 -0.7597816937852012 1
gene  1 30 32 -0.5316523880821494 0 1393.0 -0.5316523880821494 1
gene  1 34 32 -0.26857086681050624 1 1397.0 -0.26857086681050624 1
gene  1 41 32 0.9882852856349666 1 1404.0 0.9882852856349666 1
gene  1 42 32 0.8126423718050192 1 1405.0 0.8126423718050192 1
gene  1 43 32 -0.5185258769960537 1 1406.0 -0.5185258769960537 1
gene  1 4 33 0.8370832536836815 0 1411.0 0.8370832536836815 1
gene  1 5 33 0.8334029027407233 0 1412.0 0.8334029027407233 1
gene  1 10 33 -0.9926765214185314 0 1417.0 -0.9926765214185314 1
gene  1 12 33 -0.9187829025129763 0 1419.0 -0.9187829025129763 1
gene  1 15 33 -0.7565400854063893 0 1422.0 -0.7565400854063893 1
gene  1 16 33 0.9636070230881933 0 1423.0 0.9636070230881933 1
gene  1 18 33 -0.15033826841492537 0 1425.0 -0.15033826841492537 1
gene  1 20 33 0.36284746121671885 0 1427.0 0.36284746121671885 1
gene  1 21 33 0.7665641859213037 0 1428.0 0.7665641859213037 1
gene  1 22 33 -0.7197344138234658 0 1429.0 -0.7197344138234658 1
gene  1 23 33 0.5103500293444303 0 1430.0 0.5103500293444303 1
gene  1 26 33 -0.7291660833427922 0 1433.0 -0.7291660833427922 1
gene  1 30 33 -0.5614154807165407 0 1437.0 -0.5614154807165407 1
gene  1 33 33 -0.034705463388480795 1 1440.0 -0.034705463388480795 1
gene  1 34 33 -0.8621651771771079 1 1441.0 -0.8621651771771079 1
gene  1 39 33 -0.35650111067221235 1 1446.0 -0.35650111067221235 1
gene  1 40 33 -0.7703117502744603 1 1447.0 -0.7703117502744603 1
gene  1 42 33 0.5668081181274139 1 1449.0 0.5668081181274139 1
gene  1 43 33 0.4051569491280549 1 1450.0 0.4051569491280549 1
gene  1 1 34 -0.09980226199643838 0 1452.0 -0.09980226199643838 1
gene  1 3 34 -0.772663143338523 0 1454.0 -0.772663143338523 1
gene  1 6 34 -0.11705066902918293 0 1457.0 -0.11705066902918293 1
gene  1 7 34 0.1359143827795608 0 1458.0 0.1359143827795608 1
gene  1 8 34 -0.636273739998779 0 1459.0 -0.636273739998779 1
gene  1 9 34 0.825523431890917 0 1460.0 0.825523431890917 1
gene  1 13 34 0.6869019580708803 0 1464.0 0.6869019580708803 1
gene  1 14 34 0.6137747861255118 0 1465.0 0.6137747861255118 1
gene  1 17 34 0.10895158519187342 0 1468.0 0.10895158519187342 1
gene  1 18 34 0.4096253404107101 0 1469.0 0.4096253404107101 1
gene  1 19 34 -0.4944105528036691 0 1470.0 -0.4944105528036691 1
gene  1 20 34 0.4450756102857806 0 1471.0 0.4450756102857806 1
gene  1 21 34 0.3774536889356056 0 1472.0 0.3774536889356056 1
gene  1 22 34 -0.6152129834826641 0 1473.0 -0.6152129834826641 1
gene  1 24 34 -0.5918332238243594 0 1475.0 -0.5918332238243594 1
gene  1 26 34 0.3055086966969438 0 1477.0 0.3055086966969438 1
gene  1 29 34 0.6586591837222934 0 1480.0 0.6586591837222934 1
gene  1 32 34 0.8568896591745286 0 1483.0 0.8568896591745286 1
gene  1 33 34 0.612794239952669 0 1484.0 0.612794239952669 1
gene  1 34 34 0.3017302460263793 1 1485.0 0.3017302460263793 1
gene  1 41 34 0.8098974134235665 1 1492.0 0.8098974134235665 1
gene  1 42 34 -0.5296256783340014 1 1493.0 -0.5296256783340014 1
gene  1 1 39 -0.23980597210071664 0 1672.0 -0.23980597210071664 1
gene  1 3 39 0.8457126462885118 0 1674.0 0.8457126462885118 1
gene  1 4 39 0.6066249785118881 0 1675.0 0.6066249785118881 1
gene  1 6 39 -0.18204786071007217 0 1677.0 -0.18204786071007217 1
gene  1 8 39 0.5137470437731745 0 1679.0 0.5137470437731745 1
gene  1 9 39 0.47529253731874765 0 1680.0 0.47529253731874765 1
gene  1 10 39 0.06527382995738973 0 1681.0 0.06527382995738973 1
gene  1 11 39 0.9086708918396444 0 1682.0 0.9086708918396444 1
gene  1 17 39 0.31753012513717405 0 1688.0 0.31753012513717405 1
gene  1 18 39 -0.5584170949265318 0 1689.0 -0.5584170949265318 1
gene  1 20 39 0.676562734295849 0 1691.0 0.676562734295849 1
gene  1 26 39 0.4547110183785962 0 1697.0 0.4547110183785962 1
gene  1 27 39 -0.64048748958933 0 1698.0 -0.64048748958933 1
gene  1 29 39 -0.03253682381644518 0 1700.0 -0.03253682381644518 1
gene  1 30 39 0.6585563562225542 0 1701.0 0.6585563562225542 1
gene  1 32 39 -0.7248043297276255 0 1703.0 -0.7248043297276255 1
gene  1 33 39 -0.37362185458633257 0 1704.0 -0.37362185458633257 1
gene  1 34 39 0.0796370640653874 0 1705.0 0.0796370640653874 1
gene  1 39 39 -0.37248148832580075 1 1710.0 -0.37248148832580075 1
gene  1 42 39 -0.2139666148558953 1 1713.0 -0.2139666148558953 1
gene  1 43 39 -0.8763525981730033 1 1714.0 -0.8763525981730033 1
gene  1 3 40 -0.356107215517689 0 1718.0 -0.356107215517689 1
gene  1 6 40 -0.5249970870344713 0 1721.0 -0.5249970870344713 1
gene  1 7 40 0.29348778334718917 0 1722.0 0.29348778334718917 1
gene  1 8 40 -0.7921460798853768 0 1723.0 -0.7921460798853768 1
gene  1 10 40 -0.37896630781563045 0 1725.0 -0.37896630781563045 1
gene  1 13 40 -0.9123618809805354 0 1728.0 -0.9123618809805354 1
gene  1 14 40 0.22853483853019885 0 1729.0 0.22853483853019885 1
gene  1 15 40 0.1447447490772571 0 1730.0 0.1447447490772571 1
gene  1 19 40 -0.31921328536765825 0 1734.0 -0.31921328536765825 1
gene  1 21 40 -0.24573089331151066 0 1736.0 -0.24573089331151066 1
gene  1 23 40 0.45479909606505153 0 1738.0 0.45479909606505153 1
gene  1 25 40 -0.61176386521576 0 1740.0 -0.61176386521576 1
gene  1 27 40 0.5319469143204326 0 1742.0 0.5319469143204326 1
gene  1 28 40 0.08048884106309284 0 1743.0 0.08048884106309284 1
gene  1 29 40 -0.6597003923803567 0 1744.0 -0.6597003923803567 1
gene  1 30 40 0.71324963683439 0 1745.0 0.71324963683439 1
gene  1 31 40 0.03347352314647978 0 1746.0 0.03347352314647978 1
gene  1 33 40 -0.4008218578363454 0 1748.0 -0.4008218578363454 1
gene  1 39 40 0.9949610964722675 0 1754.0 0.9949610964722675 1
gene  1 43 40 0.05629902110947882 1 1758.0 0.05629902110947882 1
gene  1 44 40 -0.049336093720850016 1 1759.0 -0.049336093720850016 1
gene  1 1 41 -0.8752411567376512 0 1760.0 -0.8752411567376512 1
gene  1 3 41 -0.6716672809011826 0 1762.0 -0.6716672809011826 1
gene  1 5 41 -0.5018217178970026 0 1764.0 -0.5018217178970026 1
gene  1 6 41 -0.0448761012345823 0 1765.0 -0.0448761012345823 1
gene  1 7 41 -0.8879785767525797 0 1766.0 -0.8879785767525797 1
gene  1 8 41 -0.8705025688227709 0 1767.0 -0.8705025688227709 1
gene  1 9 41 0.3466394849164547 0 1768.0 0.3466394849164547 1
gene  1 11 41 -0.011774747276284803 0 1770.0 -0.011774747276284803 1
gene  1 16 41 0.9004275146894037 0 1775.0 0.9004275146894037 1
gene  1 17 41 -0.43730441217994254 0 1776.0 -0.43730441217994254 1
gene  1 19 41 0.19590991657160994 0 1778.0 0.19590991657160994 1
gene  1 20 41 -0.5295840958023598 0 1779.0 -0.5295840958023598 1
gene  1 22 41 0.5383282812917377 0 1781.0 0.5383282812917377 1
gene  1 23 41 0.0604607632053612 0 1782.0 0.0604607632053612 1
gene  1 27 41 0.9117410223948699 0 1786.0 0.9117410223948699 1
gene  1 28 41 0.4194951660477585 0 1787.0 0.4194951660477585 1
gene  1 30 41 -0.6132977492880808 0 1789.0 -0.6132977492880808 1
gene  1 32 41 -0.35931908522325073 0 1791.0 -0.35931908522325073 1
gene  1 33 41 0.8101227653526218 0 1792.0 0.8101227653526218 1
gene  1 39 41 -0.9368204936444818 0 1798.0 -0.9368204936444818 1
gene  1 40 41 0.44755473510594757 0 1799.0 0.44755473510594757 1
gene  1 41 41 0.6034792058590566 1 1800.0 0.6034792058590566 1
gene  1 1 42 0.5081018214948096 0 1804.0 0.5081018214948096 1
gene  1 3 42 0.04658856256156174 0 1806.0 0.04658856256156174 1
gene  1 5 42 0.8011468483650077 0 1808.0 0.8011468483650077 1
gene  1 7 42 -0.1677173864878052 0 1810.0 -0.1677173864878052 1
gene  1 8 42 0.5365092844634783 0 1811.0 0.5365092844634783 1
gene  1 9 42 -0.6403256796604118 0 1812.0 -0.6403256796604118 1
gene  1 13 42 -0.12136781781187311 0 1816.0 -0.12136781781187311 1
gene  1 14 42 0.5768507068931817 0 1817.0 0.5768507068931817 1
gene  1 18 42 -0.9924289933587275 0 1821.0 -0.9924289933587275 1
gene  1 20 42 0.6879847704683729 0 1823.0 0.6879847704683729 1
gene  1 21 42 -0.010968740854713666 0 1824.0 -0.010968740854713666 1
gene  1 22 42 -0.3639793679274508 0 1825.0 -0.3639793679274508 1
gene  1 26 42 -0.24375758148180926 0 1829.0 -0.24375758148180926 1
gene  1 27 42 -0.4928882223948333 0 1830.0 -0.4928882223948333 1
gene  1 31 42 -0.8086880107741788 0 1834.0 -0.8086880107741788 1
gene  1 32 42 -0.44350030452096434 0 1835.0 -0.44350030452096434 1
gene  1 33 42 -0.5713182783813732 0 1836.0 -0.5713182783813732 1
gene  1 34 42 -0.004680825746401163 0 1837.0 -0.004680825746401163 1
gene  1 39 42 -0.10290549428434104 0 1842.0 -0.10290549428434104 1
gene  1 40 42 0.2606979712498443 0 1843.0 0.2606979712498443 1
gene  1 42 42 -0.8695908913407356 1 1845.0 -0.8695908913407356 1
gene  1 43 42 0.7302076269146169 1 1846.0 0.7302076269146169 1
gene  1 1 43 -0.26409179899352075 0 1848.0 -0.26409179899352075 1
gene  1 2 43 0.3305983391074119 0 1849.0 0.3305983391074119 1
gene  1 3 43 -0.2746212346354694 0 1850.0 -0.2746212346354694 1
gene  1 5 43 -0.20888642721131356 0 1852.0 -0.20888642721131356 1
gene  1 6 43 0.6382770352544861 0 1853.0 0.6382770352544861 1
gene  1 7 43 0.6125009000370089 0 1854.0 0.6125009000370089 1
gene  1 8 43 0.16836584118958176 0 1855.0 0.16836584118958176 1
gene  1 9 43 0.44085526090919414 0 1856.0 0.44085526090919414 1
gene  1 11 43 -0.6429792553014011 0 1858.0 -0.6429792553014011 1
gene  1 13 43 -0.40993905260148267 0 1860.0 -0.40993905260148267 1
gene  1 16 43 0.16577458706651194 0 1863.0 0.16577458706651194 1
gene  1 17 43 0.5856383350481699 0 1864.0 0.5856383350481699 1
gene  1 18 43 -0.4467651451089174 0 1865.0 -0.4467651451089174 1
gene  1 20 43 0.5498946487740541 0 1867.0 0.5498946487740541 1
gene  1 21 43 0.8393560144241582 0 1868.0 0.8393560144241582 1
gene  1 26 43 -0.8083574773052074 0 1873.0 -0.8083574773052074 1
gene  1 27 43 0.28858799662947643 0 1874.0 0.28858799662947643 1
gene  1 28 43 0.6254158490305955 0 1875.0 0.6254158490305955 1
gene  1 30 43 -0.4127186195320083 0 1877.0 -0.4127186195320083 1
gene  1 31 43 0.3210675820799883 0 1878.0 0.3210675820799883 1
gene  1 32 43 -0.44486503427490165 0 1879.0 -0.44486503427490165 1
gene  1 33 43 -0.21224052501551016 0 1880.0 -0.21224052501551016 1
gene  1 40 43 -0.9684287428403484 0 1887.0 -0.9684287428403484 1
gene  1 41 43 -0.5394334870177259 0 1888.0 -0.5394334870177259 1
gene  1 2 44 0.819392856669389 0 1893.0 0.819392856669389 1
gene  1 5 44 -0.5568689458511202 0 1896.0 -0.5568689458511202 1
gene  1 6 44 0.7971328903040396 0 1897.0 0.7971328903040396 1
gene  1 7 44 0.299886981748576 0 1898.0 0.299886981748576 1
gene  1 9 44 -0.59900631021849 0 1900.0 -0.59900631021849 1
gene  1 11 44 0.12939266011429185 0 1902.0 0.12939266011429185 1
gene  1 13 44 0.9668010169347502 0 1904.0 0.9668010169347502 1
gene  1 16 44 0.3191769474985503 0 1907.0 0.3191769474985503 1
gene  1 17 44 0.16859375793995368 0 1908.0 0.16859375793995368 1
gene  1 18 44 -0.2222769931586206 0 1909.0 -0.2222769931586206 1
gene  1 20 44 -0.5375691136447139 0 1911.0 -0.5375691136447139 1
gene  1 21 44 -0.4457986751608807 0 1912.0 -0.4457986751608807 1
gene  1 24 44 -0.8417846819603385 0 1915.0 -0.8417846819603385 1
gene  1 28 44 0.023598395498868552 0 1919.0 0.023598395498868552 1
gene  1 29 44 0.7852860776522427 0 1920.0 0.7852860776522427 1
gene  1 31 44 -0.7794796822889347 0 1922.0 -0.7794796822889347 1
gene  1 33 44 -0.06430898031143595 0 1924.0 -0.06430898031143595 1
gene  1 34 44 -0.10170969893853421 0 1925.0 -0.10170969893853421 1
gene  1 40 44 -0.4436624625774891 0 1931.0 -0.4436624625774891 1
gene  1 42 44 0.8084046767283294 0 1933.0 0.8084046767283294 1
gene  1 44 44 -0.7585346495097043 1 1935.0 -0.7585346495097043 1
genomeend 5
