genomestart  6
trait 1 0.0 0.0 0.0 0.0 0.0 0.0 0.0 0.0 
node 1 1 1 1
node 2 1 1 1
node 3 1 1 1
node 4 1 1 1
node 5 1 1 1
node 6 1 1 1
node 7 1 1 1
node 8 1 1 1
node 9 1 1 1
node 10 1 1 1
node 11 1 1 1
node 12 1 1 1
node 13 1 1 1
node 14 1 1 1
node 15 1 1 1
node 16 1 1 1
node 17 1 1 1
node 18 1 1 1
node 19 1 1 1
node 20 1 1 1
node 21 1 1 1
node 22 1 1 1
node 23 1 1 1
node 24 1 1 1
node 25 1 1 1
node 26 1 1 1
node 27 1 1 1
node 28 1 1 3
node 29 1 0 0
node 30 1 0 0
node 31 1 0 0
node 39 1 0 2
node 40 1 0 2
node 41 1 0 2
node 42 1 0 2
node 43 1 0 2
node 44 1 0 2
gene  1 1 29 -0.40199159650545646 0 1232.0 -0.40199159650545646 1
gene  1 2 29 0.267122551497175 0 1233.0 0.267122551497175 1
gene  1 5 29 0.42190111673776465 0 1236.0 0.42190111673776465 1
gene  1 7 29 -0.5057098392761704 0 1238.0 -0.5057098392761704 1
gene  1 9 29 -0.45255790842308463 0 1240.0 -0.45255790842308463 1
gene  1 13 29 -0.3660538633856335 0 1244.0 -0.3660538633856335 1
gene  1 14 29 0.15019060234914317 0 1245.0 0.15019060234914317 1
gene  1 15 29 0.7058359632289866 0 1246.0 0.7058359632289866 1
gene  1 16 29 0.08791135411530904 0 1247.0 0.08791135411530904 1
gene  1 20 29 0.1095553880934852 0 1251.0 0.1095553880934852 1
gene  1 22 29 0.7388303434480429 0 1253.0 0.7388303434480429 1
gene  1 23 29 -0.044402014666648504 0 1254.0 -0.044402014666648504 1
gene  1 24 29 -0.9391898961639338 0 1255.0 -0.9391898961639338 1
gene  1 25 29 -0.6831421502496878 0 1256.0 -0.6831421502496878 1
gene  1 28 29 0.2649569688200023 0 1259.0 0.2649569688200023 1
gene  1 29 29 -0.6086251336052076 1 1260.0 -0.6086251336052076 1
gene  1 31 29 0.5843858727067528 1 1262.0 0.5843858727067528 1
gene  1 40 29 0.34058722324056856 1 1271.0 0.34058722324056856 1
gene  1 41 29 0.9900844804881629 1 1272.0 0.9900844804881629 1
gene  1 42 29 -0.21045354120051918 1 1273.0 -0.21045354120051918 1
gene  1 44 29 0.5777099355416327 1 1275.0 0.5777099355416327 1
gene  1 1 30 0.6545973440677183 0 1276.0 0.6545973440677183 1
gene  1 3 30 -0.3005976965801359 0 1278.0 -0.3005976965801359 1
gene  1 5 30 0.516242530914924 0 1280.0 0.516242530914924 1
gene  1 7 30 0.605575204709835 0 1282.0 0.605575204709835 1
gene  1 12 30 0.28933826916851724 0 1287.0 0.28933826916851724 1
gene  1 15 30 -0.10775778593818042 0 1290.0 -0.10775778593818042 1
gene  1 17 30 -0.7796166353225191 0 1292.0 -0.7796166353225191 1
gene  1 20 30 -0.5675085271331968 0 1295.0 -0.5675085271331968 1
gene  1 23 30 0.5702190845207936 0 1298.0 0.5702190845207936 1
gene  1 25 30 -0.8451501230715504 0 1300.0 -0.8451501230715504 1
gene  1 27 30 -0.16908530279193734 0 1302.0 -0.16908530279193734 1
gene  1 28 30 0.5339542247967751 0 1303.0 0.5339542247967751 1
gene  1 29 30 -0.47392920838774666 0 1304.0 -0.47392920838774666 1
gene  1 30 30 -0.9774491506869389 1 1305.0 -0.9774491506869389 1
gene  1 31 30 -0.38170536124283994 1 1306.0 -0.38170536124283994 1
gene  1 40 30 0.14039322513498054 1 1315.0 0.14039322513498054 1
gene  1 42 30 -0.8339504990793727 1 1317.0 -0.8339504990793727 1
gene  1 43 30 -0.4087436367599435 1 1318.0 -0.4087436367599435 1
gene  1 44 30 0.5362882403174608 1 1319.0 0.5362882403174608 1
gene  1 2 31 0.5706784715389039 0 1321.0 0.5706784715389039 1
gene  1 4 31 -0.8866516253205031 0 1323.0 -0.8866516253205031 1
gene  1 8 31 -0.6258739742512908 0 1327.0 -0.6258739742512908 1
gene  1 9 31 0.9132765713611929 0 1328.0 0.9132765713611929 1
gene  1 11 31 0.9410919605158237 0 1330.0 0.9410919605158237 1
gene  1 13 31 0.08799086777472287 0 1332.0 0.08799086777472287 1
gene  1 16 31 0.27857046112578177 0 1335.0 0.27857046112578177 1
gene  1 17 31 -0.7317868631329618 0 1336.0 -0.7317868631329618 1
gene  1 19 31 0.49633321108890593 0 1338.0 0.49633321108890593 1
gene  1 21 31 0.9625693129043041 0 1340.0 0.9625693129043041 1
gene  1 22 31 -0.051810390618841184 0 1341.0 -0.051810390618841184 1
gene  1 23 31 0.9651241294640504 0 1342.0 0.9651241294640504 1
gene  1 25 31 -0.4923061825709276 0 1344.0 -0.4923061825709276 1
gene  1 27 31 -0.6414173084331263 0 1346.0 -0.6414173084331263 1
gene  1 28 31 -0.6667727006486902 0 1347.0 -0.6667727006486902 1
gene  1 30 31 0.9413944065904829 0 1349.0 0.9413944065904829 1
gene  1 39 31 0.1879087990365088 1 1358.0 0.1879087990365088 1
gene  1 42 31 -0.47297458844266027 1 1361.0 -0.47297458844266027 1
gene  1 44 31 0.11697553480464362 1 1363.0 0.11697553480464362 1
gene  1 2 39 -0.7621146669674151 0 1673.0 -0.7621146669674151 1
gene  1 3 39 0.7656457004709692 0 1674.0 0.7656457004709692 1
gene  1 4 39 0.40811911534307144 0 1675.0 0.40811911534307144 1
gene  1 5 39 -0.4394232180250609 0 1676.0 -0.4394232180250609 1
gene  1 6 39 0.11476855326701552 0 1677.0 0.11476855326701552 1
gene  1 7 39 -0.812260446337009 0 1678.0 -0.812260446337009 1
gene  1 9 39 0.7540699135785977 0 1680.0 0.7540699135785977 1
gene  1 11 39 0.4925284718319124 0 1682.0 0.4925284718319124 1
gene  1 13 39 0.9302757203221709 0 1684.0 0.9302757203221709 1
gene  1 14 39 -0.8260661636186126 0 1685.0 -0.8260661636186126 1
gene  1 18 39 -0.8371686496919752 0 1689.0 -0.8371686496919752 1
gene  1 20 39 0.09075436232359035 0 1691.0 0.09075436232359035 1
gene  1 22 39 -0.22790149127373094 0 1693.0 -0.22790149127373094 1
gene  1 23 39 -0.9844733452027963 0 1694.0 -0.9844733452027963 1
gene  1 26 39 -0.31893968083940927 0 1697.0 -0.31893968083940927 1
gene  1 27 39 0.07974869640646698 0 1698.0 0.07974869640646698 1
gene  1 28 39 -0.9421799986892596 0 1699.0 -0.9421799986892596 1
gene  1 29 39 0.5574687628693485 0 1700.0 0.5574687628693485 1
gene  1 30 39 0.5658225221892125 0 1701.0 0.5658225221892125 1
gene  1 39 39 0.3465151742447923 1 1710.0 0.3465151742447923 1
gene  1 40 39 0.19227444075284805 1 1711.0 0.19227444075284805 1
gene  1 42 39 0.1414696388568668 1 1713.0 0.1414696388568668 1
gene  1 43 39 0.007322775362687328 1 1714.0 0.007322775362687328 1
gene  1 44 39 -0.5900401906545485 1 1715.0 -0.5900401906545485 1
gene  1 2 40 -0.34655216888350626 0 1717.0 -0.34655216888350626 1
gene  1 3 40 0.6109117073813398 0 1718.0 0.6109117073813398 1
gene  1 5 40 -0.7411677321036437 0 1720.0 -0.7411677321036437 1
gene  1 7 40 0.8438140696782084 0 1722.0 0.8438140696782084 1
gene  1 10 40 -0.9760762108559444 0 1725.0 -0.9760762108559444 1
gene  1 13 40 -0.9368562626329565 0 1728.0 -0.9368562626329565 1
gene  1 18 40 -0.4028919550479163 0 1733.0 -0.4028919550479163 1
gene  1 24 40 0.07976277648016994 0 1739.0 0.07976277648016994 1
gene  1 26 40 -0.861657679337067 0 1741.0 -0.861657679337067 1
gene  1 28 40 0.9444208322567885 0 1743.0 0.9444208322567885 1
gene  1 30 40 0.14099764434706008 0 1745.0 0.14099764434706008 1
gene  1 31 40 0.742031114920535 0 1746.0 0.742031114920535 1
gene  1 39 40 0.21089220344830706 0 1754.0 0.21089220344830706 1
gene  1 40 40 -0.6124279353129523 1 1755.0 -0.6124279353129523 1
gene  1 41 40 -0.2916905896359542 1 1756.0 -0.2916905896359542 1
gene  1 42 40 -0.18949412860973236 1 1757.0 -0.18949412860973236 1
gene  1 1 41 0.10441556945218389 0 1760.0 0.10441556945218389 1
gene  1 3 41 -0.6446769395852469 0 1762.0 -0.6446769395852469 1
gene  1 4 41 -0.37782225683467163 0 1763.0 -0.37782225683467163 1
gene  1 5 41 0.8703598594735915 0 1764.0 0.8703598594735915 1
gene  1 10 41 -0.48402936658058693 0 1769.0 -0.48402936658058693 1
gene  1 11 41 0.04490306847029246 0 1770.0 0.04490306847029246 1
gene  1 12 41 -0.44807388403634085 0 1771.0 -0.44807388403634085 1
gene  1 14 41 0.635177085809676 0 1773.0 0.635177085809676 1
gene  1 15 41 -0.13831026630266607 0 1774.0 -0.13831026630266607 1
gene  1 16 41 -0.13589589336400187 0 1775.0 -0.13589589336400187 1
gene  1 20 41 0.5919888163589614 0 1779.0 0.5919888163589614 1
gene  1 21 41 -0.11226568436994355 0 1780.0 -0.11226568436994355 1
gene  1 22 41 0.662148913621393 0 1781.0 0.662148913621393 1
gene  1 24 41 0.5033843231123268 0 1783.0 0.5033843231123268 1
gene  1 26 41 -0.015945823844195517 0 1785.0 -0.015945823844195517 1
gene  1 27 41 -0.14020885416873363 0 1786.0 -0.14020885416873363 1
gene  1 29 41 -0.15306032704741424 0 1788.0 -0.15306032704741424 1
gene  1 31 41 0.39000653574376964 0 1790.0 0.39000653574376964 1
gene  1 41 41 0.13070775895580267 1 1800.0 0.13070775895580267 1
gene  1 42 41 0.16562423555759864 1 1801.0 0.16562423555759864 1
gene  1 44 41 -0.9561380488112262 1 1803.0 -0.9561380488112262 1
gene  1 2 42 -0.08370030491062108 0 1805.0 -0.08370030491062108 1
gene  1 4 42 -0.20327916196056006 0 1807.0 -0.20327916196056006 1
gene  1 8 42 0.48287996682306367 0 1811.0 0.48287996682306367 1
gene  1 12 42 -0.43763434659088574 0 1815.0 -0.43763434659088574 1
gene  1 13 42 0.3547708999085377 0 1816.0 0.3547708999085377 1
gene  1 15 42 -0.7693505595409039 0 1818.0 -0.7693505595409039 1
gene  1 16 42 -0.5995296685077287 0 1819.0 -0.5995296685077287 1
gene  1 17 42 -0.0201581140834598 0 1820.0 -0.0201581140834598 1
gene  1 19 42 -0.3101978142704257 0 1822.0 -0.3101978142704257 1
gene  1 20 42 -0.9268507151108699 0 1823.0 -0.9268507151108699 1
gene  1 21 42 -0.6626725070526336 0 1824.0 -0.6626725070526336 1
gene  1 23 42 -0.3755877233133218 0 1826.0 -0.3755877233133218 1
gene  1 24 42 0.5127801738849557 0 1827.0 0.5127801738849557 1
gene  1 26 42 0.05970524945092892 0 1829.0 0.05970524945092892 1
gene  1 27 42 -0.25473954750113903 0 1830.0 -0.25473954750113903 1
gene  1 28 42 -0.17956599220822644 0 1831.0 -0.17956599220822644 1
gene  1 30 42 0.5137194171510843 0 1833.0 0.5137194171510843 1
gene  1 31 42 -0.4318196820723593 0 1834.0 -0.4318196820723593 1
gene  1 39 42 -0.36177874376164343 0 1842.0 -0.36177874376164343 1
gene  1 1 43 -0.47782641102246515 0 1848.0 -0.47782641102246515 1
gene  1 2 43 0.27429825577641154 0 1849.0 0.27429825577641154 1
gene  1 6 43 -0.3869465250819366 0 1853.0 -0.3869465250819366 1
gene  1 7 43 0.5044492497388029 0 1854.0 0.5044492497388029 1
gene  1 8 43 0.9029118750518924 0 1855.0 0.9029118750518924 1
gene  1 9 43 -0.30641410853645845 0 1856.0 -0.30641410853645845 1
gene  1 10 43 0.7672220653285161 0 1857.0 0.7672220653285161 1
gene  1 12 43 0.8948027166548033 0 1859.0 0.8948027166548033 1
gene  1 15 43 -0.47278641944477495 0 1862.0 -0.47278641944477495 1
gene  1 16 43 0.7907153059458343 0 1863.0 0.7907153059458343 1
gene  1 17 43 -0.2828972478226157 0 1864.0 -0.2828972478226157 1
gene  1 19 43 -0.7055658407822251 0 1866.0 -0.7055658407822251 1
gene  1 20 43 -0.8724758020890511 0 1867.0 -0.8724758020890511 1
gene  1 22 43 -0.7796934813785217 0 1869.0 -0.7796934813785217 1
gene  1 24 43 0.3236492766439576 0 1871.0 0.3236492766439576 1
gene  1 25 43 -0.6999591730917992 0 1872.0 -0.6999591730917992 1
gene  1 26 43 0.19765143343817815 0 1873.0 0.19765143343817815 1
gene  1 29 43 0.7529108575938841 0 1876.0 0.7529108575938841 1
gene  1 41 43 0.4777284981693456 0 1888.0 0.4777284981693456 1
gene  1 42 43 0.3278772445760625 0 1889.0 0.3278772445760625 1
gene  1 43 43 0.4658116582853362 1 1890.0 0.4658116582853362 1
gene  1 1 44 -0.951059675710022 0 1892.0 -0.951059675710022 1
gene  1 2 44 0.43332482678921247 0 1893.0 0.43332482678921247 1
gene  1 4 44 -0.12918539265024287 0 1895.0 -0.12918539265024287 1
gene  1 10 44 -0.4766125671414213 0 1901.0 -0.4766125671414213 1
gene  1 12 44 -0.8101168720470904 0 1903.0 -0.8101168720470904 1
gene  1 18 44 -0.0755658227553625 0 1909.0 -0.0755658227553625 1
gene  1 20 44 -0.7494900192635818 0 1911.0 -0.7494900192635818 1
gene  1 22 44 0.13752683567441304 0 1913.0 0.13752683567441304 1
gene  1 23 44 -0.4786956426352572 0 1914.0 -0.4786956426352572 1
gene  1 26 44 0.2954878224001821 0 1917.0 0.2954878224001821 1
gene  1 27 44 -0.8424334332770429 0 1918.0 -0.8424334332770429 1
gene  1 39 44 -0.33330812580224745 0 1930.0 -0.33330812580224745 1
gene  1 40 44 -0.40990871964605047 0 1931.0 -0.40990871964605047 1
gene  1 42 44 -0.11153942519009541 0 1933.0 -0.11153942519009541 1
gene  1 43 44 -0.551634652501134 0 1934.0 -0.551634652501134 1
gene  1 44 44 0.08603165484706898 1 1935.0 0.08603165484706898 1
genomeend 6
