genomestart  7
trait 1 0.0 0.0 0.0 0.0 0.0 0.0 0.0 0.0 
node 1 1 1 1
node 2 1 1 1
node 3 1 1 1
node 4 1 1 1
node 5 1 1 1
node 6 1 1 1
node 7 1 1 1
node 8 1 1 1
node 9 1 1 1
node 10 1 1 1
node 11 1 1 1
node 12 1 1 1
node 13 1 1 1
node 14 1 1 1
node 15 1 1 1
node 16 1 1 1
node 17 1 1 1
node 18 1 1 1
node 19 1 1 1
node 20 1 1 1
node 21 1 1 1
node 22 1 1 1
node 23 1 1 1
node 24 1 1 1
node 25 1 1 1
node 26 1 1 1
node 27 1 1 1
node 28 1 1 3
node 29 1 0 0
node 30 1 0 0
node 31 1 0 0
node 32 1 0 0
node 33 1 0 0
node 34 1 0 0
node 35 1 0 0
node 36 1 0 0
node 37 1 0 0
node 39 1 0 2
node 40 1 0 2
node 41 1 0 2
node 42 1 0 2
node 43 1 0 2
node 44 1 0 2
gene  1 2 29 0.9210333555748973 0 1233.0 0.9210333555748973 1
gene  1 4 29 -0.9247451355734003 0 1235.0 -0.9247451355734003 1
gene  1 5 29 -0.45948770535646055 0 1236.0 -0.45948770535646055 1
gene  1 7 29 -0.6068569729646613 0 1238.0 -0.6068569729646613 1
gene  1 8 29 -0.5872393798685863 0 1239.0 -0.5872393798685863 1
gene  1 9 29 -0.6609802116223393 0 1240.0 -0.6609802116223393 1
gene  1 11 29 0.05704375096737313 0 1242.0 0.05704375096737313 1
gene  1 12 29 0.0988258362683081 0 1243.0 0.0988258362683081 1
gene  1 14 29 0.4990989603041428 0 1245.0 0.4990989603041428 1
gene  1 15 29 0.609263329950516 0 1246.0 0.609263329950516 1
gene  1 17 29 -0.2698937698258165 0 1248.0 -0.2698937698258165 1
gene  1 18 29 -0.4578001863854807 0 1249.0 -0.4578001863854807 1
gene  1 19 29 0.7950397114815343 0 1250.0 0.7950397114815343 1
gene  1 20 29 0.8310655681255452 0 1251.0 0.8310655681255452 1
gene  1 21 29 -0.3522264713212615 0 1252.0 -0.3522264713212615 1
gene  1 23 29 0.1972312400741716 0 1254.0 0.1972312400741716 1
gene  1 24 29 0.8280341429924942 0 1255.0 0.8280341429924942 1
gene  1 25 29 -0.3265924328722629 0 1256.0 -0.3265924328722629 1
gene  1 27 29 -0.8889761241057335 0 1258.0 -0.8889761241057335 1
gene  1 29 29 0.46963265826498923 1 1260.0 0.46963265826498923 1
gene  1 30 29 0.33452260093587605 1 1261.0 0.33452260093587605 1
gene  1 31 29 0.7178428084343816 1 1262.0 0.7178428084343816 1
gene  1 36 29 0.7037164726618663 1 1267.0 0.7037164726618663 1
gene  1 37 29 0.9417963883999226 1 1268.0 0.9417963883999226 1
gene  1 40 29 -0.7240280538259568 1 1271.0 -0.7240280538259568 1
gene  1 42 29 0.7249101382925301 1 1273.0 0.7249101382925301 1
gene  1 44 29 -0.3758414955964028 1 1275.0 -0.3758414955964028 1
gene  1 1 30 0.8464710097102723 0 1276.0 0.8464710097102723 1
gene  1 6 30 -0.2373401615868106 0 1281.0 -0.2373401615868106 1
gene  1 9 30 -0.8654502223916901 0 1284.0 -0.8654502223916901 1
gene  1 15 30 0.5552340328821378 0 1290.0 0.5552340328821378 1
gene  1 23 30 -0.32554129787577557 0 1298.0 -0.32554129787577557 1
gene  1 26 30 0.692477795854101 0 1301.0 0.692477795854101 1
gene  1 28 30 0.7004632875773378 0 1303.0 0.7004632875773378 1
gene  1 31 30 -0.7836094693633423 1 1306.0 -0.7836094693633423 1
gene  1 35 30 0.9037504325624418 1 1310.0 0.9037504325624418 1
gene  1 37 30 -0.648559550281172 1 1312.0 -0.648559550281172 1
gene  1 39 30 0.04558049472364911 1 1314.0 0.04558049472364911 1
gene  1 40 30 -0.45059283196650646 1 1315.0 -0.45059283196650646 1
gene  1 43 30 0.1112703042986799 1 1318.0 0.1112703042986799 1
gene  1 44 30 -0.5184140705229199 1 1319.0 -0.5184140705229199 1
gene  1 3 31 -0.35125906582462785 0 1322.0 -0.35125906582462785 1
gene  1 4 31 0.6779827900127826 0 1323.0 0.6779827900127826 1
gene  1 5 31 0.5104900693727423 0 1324.0 0.5104900693727423 1
gene  1 6 31 -0.5108182561791338 0 1325.0 -0.5108182561791338 1
gene  1 7 31 -0.7099020686552628 0 1326.0 -0.7099020686552628 1
gene  1 8 31 0.9205779333325056 0 1327.0 0.9205779333325056 1
gene  1 12 31 0.20167130337575578 0 1331.0 0.20167130337575578 1
gene  1 13 31 -0.20160479236723727 0 1332.0 -0.20160479236723727 1
gene  1 14 31 0.002030809190186833 0 1333.0 0.002030809190186833 1
gene  1 15 31 0.4637753778232587 0 1334.0 0.4637753778232587 1
gene  1 16 31 -0.979900702008845 0 1335.0 -0.979900702008845 1
gene  1 17 31 0.04785379199646722 0 1336.0 0.04785379199646722 1
gene  1 18 31 0.6732246647117098 0 1337.0 0.6732246647117098 1
gene  1 20 31 0.5886549075909994 0 1339.0 0.5886549075909994 1
gene  1 21 31 -0.8102204326321572 0 1340.0 -0.8102204326321572 1
gene  1 22 31 0.6586693916432416 0 1341.0 0.6586693916432416 1
gene  1 24 31 -0.7114589058049741 0 1343.0 -0.7114589058049741 1
gene  1 26 31 -0.25056877341827755 0 1345.0 -0.25056877341827755 1
gene  1 27 31 -0.968973124474825 0 1346.0 -0.968973124474825 1
gene  1 29 31 -0.11671353925056915 0 1348.0 -0.11671353925056915 1
gene  1 31 31 -0.040440358217383565 1 1350.0 -0.040440358217383565 1
gene  1 34 31 0.6978719228737594 1 1353.0 0.6978719228737594 1
gene  1 40 31 0.779174332197206 1 1359.0 0.779174332197206 1
gene  1 41 31 0.9631694628561539 1 1360.0 0.9631694628561539 1
gene  1 43 31 0.7751657494071581 1 1362.0 0.7751657494071581 1
gene  1 44 31 -0.5482376725846206 1 1363.0 -0.5482376725846206 1
gene  1 2 32 -0.22991239526251928 0 1365.0 -0.22991239526251928 1
gene  1 3 32 0.580957768414134 0 1366.0 0.580957768414134 1
gene  1 4 32 0.4146850133532698 0 1367.0 0.4146850133532698 1
gene  1 5 32 0.6802623729700735 0 1368.0 0.6802623729700735 1
gene  1 6 32 0.22003556032264804 0 1369.0 0.22003556032264804 1
gene  1 7 32 0.9620239293010507 0 1370.0 0.9620239293010507 1
gene  1 8 32 -0.9342936449236189 0 1371.0 -0.9342936449236189 1
gene  1 9 32 -0.6114061375835713 0 1372.0 -0.6114061375835713 1
gene  1 10 32 0.6822592760153549 0 1373.0 0.6822592760153549 1
gene  1 14 32 0.15892683712843758 0 1377.0 0.15892683712843758 1
gene  1 16 32 0.0423293197736081 0 1379.0 0.0423293197736081 1
gene  1 21 32 -0.27775090106801015 0 1384.0 -0.27775090106801015 1
gene  1 23 32 0.32472612404538836 0 1386.0 0.32472612404538836 1
gene  1 24 32 -0.8927301560782228 0 1387.0 -0.8927301560782228 1
gene  1 27 32 -0.28951248204883784 0 1390.0 -0.28951248204883784 1
gene  1 29 32 0.7489658873055582 0 1392.0 0.7489658873055582 1
gene  1 31 32 0.24426708639674344 0 1394.0 0.24426708639674344 1
gene  1 32 32 0.7216516836584329 1 1395.0 0.7216516836584329 1
gene  1 35 32 -0.7623225107845344 1 1398.0 -0.7623225107845344 1
gene  1 39 32 0.08001021978881873 1 1402.0 0.08001021978881873 1
gene  1 42 32 0.712307716330842 1 1405.0 0.712307716330842 1
gene  1 43 32 0.13075489194621448 1 1406.0 0.13075489194621448 1
gene  1 44 32 -0.304093939499809 1 1407.0 -0.304093939499809 1
gene  1 1 33 0.3806086087252144 0 1408.0 0.3806086087252144 1
gene  1 3 33 0.17557873281971992 0 1410.0 0.17557873281971992 1
gene  1 4 33 0.7542440547122491 0 1411.0 0.7542440547122491 1
gene  1 6 33 0.4330761626365103 0 1413.0 0.4330761626365103 1
gene  1 8 33 0.16991271395187424 0 1415.0 0.16991271395187424 1
gene  1 9 33 -0.036437156200862186 0 1416.0 -0.036437156200862186 1
gene  1 11 33 0.4200919694461721 0 1418.0 0.4200919694461721 1
gene  1 13 33 0.7572278596323416 0 1420.0 0.7572278596323416 1
gene  1 14 33 0.05689467675979376 0 1421.0 0.05689467675979376 1
gene  1 15 33 0.34047496502542096 0 1422.0 0.34047496502542096 1
gene  1 20 33 0.6526110012201383 0 1427.0 0.6526110012201383 1
gene  1 21 33 -0.9094893587068327 0 1428.0 -0.9094893587068327 1
gene  1 22 33 -0.8611651495781446 0 1429.0 -0.8611651495781446 1
gene  1 25 33 -0.7828483536799623 0 1432.0 -0.7828483536799623 1
gene  1 33 33 -0.8823661657786045 1 1440.0 -0.8823661657786045 1
gene  1 34 33 -0.08004517926004096 1 1441.0 -0.08004517926004096 1
gene  1 35 33 -0.06270048237746051 1 1442.0 -0.06270048237746051 1
gene  1 40 33 0.8019417840579599 1 1447.0 0.8019417840579599 1
gene  1 41 33 0.7040959399865317 1 1448.0 0.7040959399865317 1
gene  1 5 34 -0.6358804717890212 0 1456.0 -0.6358804717890212 1
gene  1 6 34 -0.275410164386673 0 1457.0 -0.275410164386673 1
gene  1 10 34 0.23400274088578343 0 1461.0 0.23400274088578343 1
gene  1 16 34 0.7609961481646916 0 1467.0 0.7609961481646916 1
gene  1 17 34 0.1718511777815651 0 1468.0 0.1718511777815651 1
gene  1 19 34 0.595957463276714 0 1470.0 0.595957463276714 1
gene  1 20 34 -0.5015313993967891 0 1471.0 -0.5015313993967891 1
gene  1 21 34 -0.9961565348342591 0 1472.0 -0.9961565348342591 1
gene  1 25 34 -0.5075052150891017 0 1476.0 -0.5075052150891017 1
gene  1 30 34 -0.7375244324494188 0 1481.0 -0.7375244324494188 1
gene  1 34 34 0.469652309139427 1 1485.0 0.469652309139427 1
gene  1 35 34 -0.23681116565823646 1 1486.0 -0.23681116565823646 1
gene  1 36 34 -0.5528617054085442 1 1487.0 -0.5528617054085442 1
gene  1 37 34 0.8544159556120111 1 1488.0 0.8544159556120111 1
gene  1 39 34 -0.46846753970028054 1 1490.0 -0.46846753970028054 1
gene  1 42 34 -0.1114469783883083 1 1493.0 -0.1114469783883083 1
gene  1 1 35 -0.8340042308607013 0 1496.0 -0.8340042308607013 1
gene  1 2 35 0.6680373942046132 0 1497.0 0.6680373942046132 1
gene  1 4 35 0.0074105320728224955 0 1499.0 0.0074105320728224955 1
gene  1 6 35 -0.75014999379432 0 1501.0 -0.75014999379432 1
gene  1 7 35 0.5622743317619885 0 1502.0 0.5622743317619885 1
gene  1 10 35 0.6727373460675588 0 1505.0 0.6727373460675588 1
gene  1 11 35 -0.03367273762317313 0 1506.0 -0.03367273762317313 1
gene  1 13 35 -0.30068084744521784 0 1508.0 -0.30068084744521784 1
gene  1 17 35 0.012538053426121243 0 1512.0 0.012538053426121243 1
gene  1 22 35 0.8205408122452129 0 1517.0 0.8205408122452129 1
gene  1 25 35 0.26652833940426035 0 1520.0 0.26652833940426035 1
gene  1 26 35 -0.081852923381038 0 1521.0 -0.081852923381038 1
gene  1 27 35 -0.25679506959596143 0 1522.0 -0.25679506959596143 1
gene  1 28 35 0.6305380752324992 0 1523.0 0.6305380752324992 1
gene  1 30 35 0.9003715404260487 0 1525.0 0.9003715404260487 1
gene  1 32 35 -0.8764076105133917 0 1527.0 -0.8764076105133917 1
gene  1 34 35 0.886530803873579 0 1529.0 0.886530803873579 1
gene  1 40 35 0.3496542937963315 1 1535.0 0.3496542937963315 1
gene  1 6 36 0.4609237283455139 0 1545.0 0.4609237283455139 1
gene  1 8 36 -0.9816904261262401 0 1547.0 -0.9816904261262401 1
gene  1 9 36 0.7047807763147669 0 1548.0 0.7047807763147669 1
gene  1 16 36 -0.7990799134910709 0 1555.0 -0.7990799134910709 1
gene  1 17 36 -0.6426502939633032 0 1556.0 -0.6426502939633032 1
gene  1 24 36 0.8413445873621759 0 1563.0 0.8413445873621759 1
gene  1 25 36 0.7278585927588069 0 1564.0 0.7278585927588069 1
gene  1 26 36 0.30155717521882974 0 1565.0 0.30155717521882974 1
gene  1 28 36 0.7941148873201606 0 1567.0 0.7941148873201606 1
gene  1 31 36 0.3876550657059954 0 1570.0 0.3876550657059954 1
gene  1 35 36 -0.5049459228496577 0 1574.0 -0.5049459228496577 1
gene  1 36 36 -0.5101208113714508 1 1575.0 -0.5101208113714508 1
gene  1 37 36 0.2668307163788507 1 1576.0 0.2668307163788507 1
gene  1 39 36 0.25416318060941323 1 1578.0 0.25416318060941323 1
gene  1 40 36 -0.3359820298933458 1 1579.0 -0.3359820298933458 1
gene  1 42 36 -0.6942926134116353 1 1581.0 -0.6942926134116353 1
gene  1 43 36 -0.9390589923010355 1 1582.0 -0.9390589923010355 1
gene  1 1 37 -0.25317591059882716 0 1584.0 -0.25317591059882716 1
gene  1 2 37 -0.5861222017133456 0 1585.0 -0.5861222017133456 1
gene  1 4 37 0.7150108138978944 0 1587.0 0.7150108138978944 1
gene  1 5 37 -0.8777410088630034 0 1588.0 -0.8777410088630034 1
gene  1 6 37 -0.543636617949904 0 1589.0 -0.543636617949904 1
gene  1 9 37 0.8969370893765466 0 1592.0 0.8969370893765466 1
gene  1 10 37 0.3989950607084416 0 1593.0 0.3989950607084416 1
gene  1 11 37 0.7399996758247761 0 1594.0 0.7399996758247761 1
gene  1 12 37 0.6916976660702682 0 1595.0 0.6916976660702682 1
gene  1 14 37 -0.6658476073359387 0 1597.0 -0.6658476073359387 1
gene  1 15 37 -0.6554384401950046 0 1598.0 -0.6554384401950046 1
gene  1 16 37 -0.2429445951180056 0 1599.0 -0.2429445951180056 1
gene  1 17 37 0.908813727383367 0 1600.0 0.908813727383367 1
gene  1 20 37 -0.9882618433889279 0 1603.0 -0.9882618433889279 1
gene  1 27 37 -0.5458875286763691 0 1610.0 -0.5458875286763691 1
gene  1 29 37 -0.8712777679850037 0 1612.0 -0.8712777679850037 1
gene  1 31 37 0.5591995300611252 0 1614.0 0.5591995300611252 1
gene  1 33 37 -0.160601425458623 0 1616.0 -0.160601425458623 1
gene  1 34 37 -0.6893025239413909 0 1617.0 -0.6893025239413909 1
gene  1 36 37 0.14271379672599582 0 1619.0 0.14271379672599582 1
gene  1 37 37 0.08839169661775403 1 1620.0 0.08839169661775403 1
gene  1 41 37 -0.45285110603292267 1 1624.0 -0.45285110603292267 1
gene  1 43 37 0.1603402913342561 1 1626.0 0.1603402913342561 1
gene  1 44 37 0.829662371750962 1 1627.0 0.829662371750962 1
gene  1 4 39 -0.725111302003061 0 1675.0 -0.725111302003061 1
gene  1 5 39 0.849290481224066 0 1676.0 0.849290481224066 1
gene  1 6 39 -0.20600546947164589 0 1677.0 -0.20600546947164589 1
gene  1 7 39 0.8320113499178227 0 1678.0 0.8320113499178227 1
gene  1 8 39 0.14671794261519744 0 1679.0 0.14671794261519744 1
gene  1 11 39 0.7953953136659039 0 1682.0 0.7953953136659039 1
gene  1 13 39 0.18447840165246576 0 1684.0 0.18447840165246576 1
gene  1 17 39 0.12210956236386417 0 1688.0 0.12210956236386417 1
gene  1 21 39 0.1307176225414528 0 1692.0 0.1307176225414528 1
gene  1 22 39 0.19413041998648328 0 1693.0 0.19413041998648328 1
gene  1 26 39 -0.625033639380739 0 1697.0 -0.625033639380739 1
gene  1 27 39 -0.7229701669781772 0 1698.0 -0.7229701669781772 1
gene  1 28 39 -0.50685944769342 0 1699.0 -0.50685944769342 1
gene  1 30 39 0.2794729974407403 0 1701.0 0.2794729974407403 1
gene  1 33 39 -0.9587698682397648 0 1704.0 -0.9587698682397648 1
gene  1 35 39 -0.8399585520841201 0 1706.0 -0.8399585520841201 1
gene  1 37 39 0.30152351824167567 0 1708.0 0.30152351824167567 1
gene  1 39 39 0.91935593614144 1 1710.0 0.91935593614144 1
gene  1 44 39 0.5000112981608162 1 1715.0 0.5000112981608162 1
gene  1 1 40 -0.5223376707213812 0 1716.0 -0.5223376707213812 1
gene  1 2 40 0.2629355357650842 0 1717.0 0.2629355357650842 1
gene  1 3 40 0.021531881255237195 0 1718.0 0.021531881255237195 1
gene  1 9 40 0.6257227358132713 0 1724.0 0.6257227358132713 1
gene  1 10 40 -0.9834264013156881 0 1725.0 -0.9834264013156881 1
gene  1 11 40 -0.2661874567303094 0 1726.0 -0.2661874567303094 1
gene  1 15 40 0.23823214716707253 0 1730.0 0.23823214716707253 1
gene  1 16 40 -0.7474847025808927 0 1731.0 -0.7474847025808927 1
gene  1 19 40 0.5280778716267895 0 1734.0 0.5280778716267895 1
gene  1 20 40 -0.8244182284818554 0 1735.0 -0.8244182284818554 1
gene  1 21 40 -0.08990601845034818 0 1736.0 -0.08990601845034818 1
gene  1 22 40 0.7742636845769753 0 1737.0 0.7742636845769753 1
gene  1 23 40 0.9168638646421063 0 1738.0 0.9168638646421063 1
gene  1 24 40 -0.8395111542204048 0 1739.0 -0.8395111542204048 1
gene  1 26 40 -0.0026283700800371346 0 1741.0 -0.0026283700800371346 1
gene  1 28 40 -0.9855131194491369 0 1743.0 -0.9855131194491369 1
gene  1 29 40 -0.6028009818448984 0 1744.0 -0.6028009818448984 1
gene  1 30 40 -0.18436124810956533 0 1745.0 -0.18436124810956533 1
gene  1 31 40 -0.9226815877652443 0 1746.0 -0.9226815877652443 1
gene  1 32 40 -0.9685666266769465 0 1747.0 -0.9685666266769465 1
gene  1 33 40 -0.1955865865606996 0 1748.0 -0.1955865865606996 1
gene  1 34 40 0.9506076292283047 0 1749.0 0.9506076292283047 1
gene  1 41 40 -0.026955201926028738 1 1756.0 -0.026955201926028738 1
gene  1 42 40 0.9017141376044233 1 1757.0 0.9017141376044233 1
gene  1 5 41 -0.4989164852528081 0 1764.0 -0.4989164852528081 1
gene  1 7 41 0.5615279087675156 0 1766.0 0.5615279087675156 1
gene  1 8 41 -0.27763777132542966 0 1767.0 -0.27763777132542966 1
gene  1 11 41 -0.5990448823817127 0 1770.0 -0.5990448823817127 1
gene  1 12 41 0.7091973980807722 0 1771.0 0.7091973980807722 1
gene  1 15 41 -0.13975244536304543 0 1774.0 -0.13975244536304543 1
gene  1 17 41 -0.90955427640915 0 1776.0 -0.90955427640915 1
gene  1 21 41 0.4737307592012079 0 1780.0 0.4737307592012079 1
gene  1 22 41 0.7113829216842363 0 1781.0 0.7113829216842363 1
gene  1 25 41 -0.8431445832307974 0 1784.0 -0.8431445832307974 1
gene  1 26 41 -0.4206527269009819 0 1785.0 -0.4206527269009819 1
gene  1 27 41 0.7559158629322271 0 1786.0 0.7559158629322271 1
gene  1 28 41 -0.6341670757710497 0 1787.0 -0.6341670757710497 1
gene  1 29 41 0.5085552885676329 0 1788.0 0.5085552885676329 1
gene  1 33 41 0.8396694514793 0 1792.0 0.8396694514793 1
gene  1 35 41 -0.7371580761318209 0 1794.0 -0.7371580761318209 1
gene  1 37 41 0.8786533204606809 0 1796.0 0.8786533204606809 1
gene  1 39 41 0.15051512580738746 0 1798.0 0.15051512580738746 1
gene  1 40 41 -0.3458795185406405 0 1799.0 -0.3458795185406405 1
gene  1 42 41 -0.5571925326987651 1 1801.0 -0.5571925326987651 1
gene  1 1 42 -0.08004260930123908 0 1804.0 -0.08004260930123908 1
gene  1 3 42 -0.2879724984107257 0 1806.0 -0.2879724984107257 1
gene  1 5 42 0.1369170769329624 0 1808.0 0.1369170769329624 1
gene  1 7 42 -0.6367876074532317 0 1810.0 -0.6367876074532317 1
gene  1 11 42 -0.9408926159701947 0 1814.0 -0.9408926159701947 1
gene  1 12 42 -0.9639891157922855 0 1815.0 -0.9639891157922855 1
gene  1 14 42 -0.5016601378420654 0 1817.0 -0.5016601378420654 1
gene  1 15 42 -0.5631511511626995 0 1818.0 -0.5631511511626995 1
gene  1 17 42 0.5490029177549696 0 1820.0 0.5490029177549696 1
gene  1 18 42 -0.7873133857700746 0 1821.0 -0.7873133857700746 1
gene  1 20 42 -0.6227121269971774 0 1823.0 -0.6227121269971774 1
gene  1 23 42 0.3065979952825705 0 1826.0 0.3065979952825705 1
gene  1 25 42 -0.7967689945056748 0 1828.0 -0.7967689945056748 1
gene  1 29 42 0.5767847445003345 0 1832.0 0.5767847445003345 1
gene  1 33 42 -0.7705604276925588 0 1836.0 -0.7705604276925588 1
gene  1 35 42 0.5782703672454097 0 1838.0 0.5782703672454097 1
gene  1 40 42 -0.4075849200195202 0 1843.0 -0.4075849200195202 1
gene  1 41 42 -0.8047760725675666 0 1844.0 -0.8047760725675666 1
gene  1 42 42 -0.369396285953305 1 1845.0 -0.369396285953305 1
gene  1 1 43 -0.9022407165182348 0 1848.0 -0.9022407165182348 1
gene  1 2 43 -0.07609890569330013 0 1849.0 -0.07609890569330013 1
gene  1 3 43 -0.1989246333120941 0 1850.0 -0.1989246333120941 1
gene  1 6 43 0.3200725463313614 0 1853.0 0.3200725463313614 1
gene  1 7 43 0.2793314476405201 0 1854.0 0.2793314476405201 1
gene  1 9 43 -0.49225247635895164 0 1856.0 -0.49225247635895164 1
gene  1 10 43 -0.616182227813403 0 1857.0 -0.616182227813403 1
gene  1 13 43 -0.9128524573316295 0 1860.0 -0.9128524573316295 1
gene  1 16 43 0.8568396450997722 0 1863.0 0.8568396450997722 1
gene  1 18 43 -0.865350729747997 0 1865.0 -0.865350729747997 1
gene  1 21 43 -0.8030513753528618 0 1868.0 -0.8030513753528618 1
gene  1 22 43 -0.4024453122012275 0 1869.0 -0.4024453122012275 1
gene  1 23 43 0.7148155916503796 0 1870.0 0.7148155916503796 1
gene  1 24 43 -0.7370843976298158 0 1871.0 -0.7370843976298158 1
gene  1 26 43 -0.41346119964064265 0 1873.0 -0.41346119964064265 1
gene  1 29 43 0.6481801026627009 0 1876.0 0.6481801026627009 1
gene  1 33 43 0.14674451390377874 0 1880.0 0.14674451390377874 1
gene  1 35 43 -0.7864897259686131 0 1882.0 -0.7864897259686131 1
gene  1 36 43 -0.7931464124511289 0 1883.0 -0.7931464124511289 1
gene  1 37 43 0.23776786919176163 0 1884.0 0.23776786919176163 1
gene  1 41 43 0.7959289075486378 0 1888.0 0.7959289075486378 1
gene  1 1 44 0.3222073890731506 0 1892.0 0.3222073890731506 1
gene  1 2 44 -0.5380688392429817 0 1893.0 -0.5380688392429817 1
gene  1 4 44 -0.8555441451603727 0 1895.0 -0.8555441451603727 1
gene  1 5 44 -0.8384471942212022 0 1896.0 -0.8384471942212022 1
gene  1 6 44 -0.7368727111045279 0 1897.0 -0.7368727111045279 1
gene  1 7 44 0.7851847618832145 0 1898.0 0.7851847618832145 1
gene  1 8 44 0.7638446140187878 0 1899.0 0.7638446140187878 1
gene  1 9 44 -0.4435310689725579 0 1900.0 -0.4435310689725579 1
gene  1 13 44 0.29570265447383637 0 1904.0 0.29570265447383637 1
gene  1 15 44 0.046907567506186854 0 1906.0 0.046907567506186854 1
gene  1 16 44 0.6245997580577242 0 1907.0 0.6245997580577242 1
gene  1 17 44 -0.8411914643812555 0 1908.0 -0.8411914643812555 1
gene  1 18 44 0.8488778938188091 0 1909.0 0.8488778938188091 1
gene  1 19 44 -0.21551502608853212 0 1910.0 -0.21551502608853212 1
gene  1 20 44 -0.2795651334926418 0 1911.0 -0.2795651334926418 1
gene  1 22 44 -0.06793942765186822 0 1913.0 -0.06793942765186822 1
gene  1 25 44 -0.919565926928429 0 1916.0 -0.919565926928429 1
gene  1 26 44 0.059447789902239756 0 1917.0 0.059447789902239756 1
gene  1 27 44 0.8609340210509245 0 1918.0 0.8609340210509245 1
gene  1 32 44 0.4118763173687441 0 1923.0 0.4118763173687441 1
gene  1 34 44 -0.8226818588188166 0 1925.0 -0.8226818588188166 1
gene  1 37 44 0.13826251010430646 0 1928.0 0.13826251010430646 1
gene  1 41 44 -0.845385437891644 0 1932.0 -0.845385437891644 1
gene  1 43 44 0.5400249556905198 0 1934.0 0.5400249556905198 1
gene  1 44 44 0.1319022241852883 1 1935.0 0.1319022241852883 1
genomeend 7
