genomestart  1
trait 1 0.0 0.0 0.0 0.0 0.0 0.0 0.0 0.0 
node 1 1 1 1
node 2 1 1 1
node 3 1 1 1
node 4 1 1 1
node 5 1 1 1
node 6 1 1 1
node 7 1 1 1
node 8 1 1 1
node 9 1 1 1
node 10 1 1 1
node 11 1 1 1
node 12 1 1 1
node 13 1 1 1
node 14 1 1 1
node 15 1 1 1
node 16 1 1 1
node 17 1 1 1
node 18 1 1 1
node 19 1 1 1
node 20 1 1 1
node 21 1 1 1
node 22 1 1 1
node 23 1 1 1
node 24 1 1 1
node 25 1 1 1
node 26 1 1 1
node 27 1 1 1
node 28 1 1 3
node 29 1 0 0
node 30 1 0 0
node 31 1 0 0
node 32 1 0 0
node 33 1 0 0
node 34 1 0 0
node 35 1 0 0
node 36 1 0 0
node 37 1 0 0
node 39 1 0 2
node 40 1 0 2
node 41 1 0 2
node 42 1 0 2
node 43 1 0 2
node 44 1 0 2
gene  1 1 29 -0.34013707940634685 0 1232.0 -0.34013707940634685 1
gene  1 2 29 0.3600772041141891 0 1233.0 0.3600772041141891 1
gene  1 3 29 0.0677022060260466 0 1234.0 0.0677022060260466 1
gene  1 5 29 0.9126767847163308 0 1236.0 0.9126767847163308 1
gene  1 6 29 0.9727967603464295 0 1237.0 0.9727967603464295 1
gene  1 7 29 -0.6998964185174728 0 1238.0 -0.6998964185174728 1
gene  1 9 29 -0.7879297176388343 0 1240.0 -0.7879297176388343 1
gene  1 10 29 0.6873836739740999 0 1241.0 0.6873836739740999 1
gene  1 19 29 0.004571842422548267 0 1250.0 0.004571842422548267 1
gene  1 20 29 0.18372950256606957 0 1251.0 0.18372950256606957 1
gene  1 23 29 -0.4909128788203845 0 1254.0 -0.4909128788203845 1
gene  1 24 29 0.4828585418549589 0 1255.0 0.4828585418549589 1
gene  1 25 29 -0.5611475941756008 0 1256.0 -0.5611475941756008 1
gene  1 28 29 -0.6097093041622949 0 1259.0 -0.6097093041622949 1
gene  1 29 29 0.11805321374100397 1 1260.0 0.11805321374100397 1
gene  1 30 29 0.5455530510442036 1 1261.0 0.5455530510442036 1
gene  1 31 29 0.3330588136330024 1 1262.0 0.3330588136330024 1
gene  1 33 29 -0.2914258167119754 1 1264.0 -0.2914258167119754 1
gene  1 40 29 -0.39081160648173274 1 1271.0 -0.39081160648173274 1
gene  1 41 29 0.39587679708027657 1 1272.0 0.39587679708027657 1
gene  1 1 30 -0.7290296643799331 0 1276.0 -0.7290296643799331 1
gene  1 6 30 0.013375199145198358 0 1281.0 0.013375199145198358 1
gene  1 8 30 0.03653767924371487 0 1283.0 0.03653767924371487 1
gene  1 11 30 0.09156816370031429 0 1286.0 0.09156816370031429 1
gene  1 12 30 0.39993275006770346 0 1287.0 0.39993275006770346 1
gene  1 13 30 0.5853651041553473 0 1288.0 0.5853651041553473 1
gene  1 16 30 0.9928705662045308 0 1291.0 0.9928705662045308 1
gene  1 17 30 -0.15069550383396924 0 1292.0 -0.15069550383396924 1
gene  1 19 30 0.46490349750975357 0 1294.0 0.46490349750975357 1
gene  1 24 30 0.6257285150373034 0 1299.0 0.6257285150373034 1
gene  1 25 30 0.8944701665011191 0 1300.0 0.8944701665011191 1
gene  1 27 30 -0.2619456149802425 0 1302.0 -0.2619456149802425 1
gene  1 32 30 -0.9417126047696387 1 1307.0 -0.9417126047696387 1
gene  1 33 30 0.9234014539127086 1 1308.0 0.9234014539127086 1
gene  1 34 30 0.9284351974973483 1 1309.0 0.9284351974973483 1
gene  1 35 30 0.6262447636543577 1 1310.0 0.6262447636543577 1
gene  1 36 30 -0.5693854664868526 1 1311.0 -0.5693854664868526 1
gene  1 41 30 0.4095118116177203 1 1316.0 0.4095118116177203 1
gene  1 42 30 0.19512143644393098 1 1317.0 0.19512143644393098 1
gene  1 43 30 -0.14242914776258186 1 1318.0 -0.14242914776258186 1
gene  1 44 30 0.8976151743637708 1 1319.0 0.8976151743637708 1
gene  1 8 31 0.25873861860563385 0 1327.0 0.25873861860563385 1
gene  1 11 31 0.631732048091658 0 1330.0 0.631732048091658 1
gene  1 15 31 0.7302060715796773 0 1334.0 0.7302060715796773 1
gene  1 16 31 0.9869720165571988 0 1335.0 0.9869720165571988 1
gene  1 18 31 0.5223429580377967 0 1337.0 0.5223429580377967 1
gene  1 21 31 0.8714246535288279 0 1340.0 0.8714246535288279 1
gene  1 22 31 -0.7949696423819892 0 1341.0 -0.7949696423819892 1
gene  1 23 31 -0.6453667134522507 0 1342.0 -0.6453667134522507 1
gene  1 25 31 -0.5358245655081836 0 1344.0 -0.5358245655081836 1
gene  1 26 31 -0.8170547820890074 0 1345.0 -0.8170547820890074 1
gene  1 27 31 0.20947697916649066 0 1346.0 0.20947697916649066 1
gene  1 28 31 -0.9456567284453462 0 1347.0 -0.9456567284453462 1
gene  1 29 31 -0.9463803715010028 0 1348.0 -0.9463803715010028 1
gene  1 30 31 -0.32421989513087024 0 1349.0 -0.32421989513087024 1
gene  1 32 31 0.6046452150462974 1 1351.0 0.6046452150462974 1
gene  1 33 31 0.9995433788664082 1 1352.0 0.9995433788664082 1
gene  1 34 31 0.854866450138599 1 1353.0 0.854866450138599 1
gene  1 37 31 0.0030169238361283934 1 1356.0 0.0030169238361283934 1
gene  1 39 31 -0.22287035906533958 1 1358.0 -0.22287035906533958 1
gene  1 40 31 0.0737211607520285 1 1359.0 0.0737211607520285 1
gene  1 41 31 -0.28429880813601194 1 1360.0 -0.28429880813601194 1
gene  1 43 31 0.47379771251908187 1 1362.0 0.47379771251908187 1
gene  1 3 32 0.9487374833954136 0 1366.0 0.9487374833954136 1
gene  1 4 32 -0.14220896417558238 0 1367.0 -0.14220896417558238 1
gene  1 6 32 -0.976957123362957 0 1369.0 -0.976957123362957 1
gene  1 7 32 -0.33298629861805584 0 1370.0 -0.33298629861805584 1
gene  1 11 32 0.35961154398026696 0 1374.0 0.35961154398026696 1
gene  1 13 32 0.6873946275491161 0 1376.0 0.6873946275491161 1
gene  1 15 32 0.6241326016301354 0 1378.0 0.6241326016301354 1
gene  1 16 32 0.9063762431258094 0 1379.0 0.9063762431258094 1
gene  1 20 32 0.057562011460848606 0 1383.0 0.057562011460848606 1
gene  1 22 32 0.8519090551212123 0 1385.0 0.8519090551212123 1
gene  1 24 32 -0.7701241944422564 0 1387.0 -0.7701241944422564 1
gene  1 25 32 -0.5667927344610367 0 1388.0 -0.5667927344610367 1
gene  1 28 32 0.08895460998809546 0 1391.0 0.08895460998809546 1
gene  1 31 32 0.061241904318804496 0 1394.0 0.061241904318804496 1
gene  1 32 32 -0.2632393662092325 1 1395.0 -0.2632393662092325 1
gene  1 34 32 -0.8699978296403852 1 1397.0 -0.8699978296403852 1
gene  1 35 32 0.722784432145501 1 1398.0 0.722784432145501 1
gene  1 39 32 0.6871182958298979 1 1402.0 0.6871182958298979 1
gene  1 43 32 -0.6936836656493415 1 1406.0 -0.6936836656493415 1
gene  1 44 32 0.08852690150040876 1 1407.0 0.08852690150040876 1
gene  1 4 33 -0.1467461898457788 0 1411.0 -0.1467461898457788 1
gene  1 5 33 -0.7050521503216479 0 1412.0 -0.7050521503216479 1
gene  1 6 33 -0.43808215557674957 0 1413.0 -0.43808215557674957 1
gene  1 9 33 0.3909329740443822 0 1416.0 0.3909329740443822 1
gene  1 12 33 0.01383599952998571 0 1419.0 0.01383599952998571 1
gene  1 21 33 -0.16402796853398272 0 1428.0 -0.16402796853398272 1
gene  1 22 33 0.8840996064038127 0 1429.0 0.8840996064038127 1
gene  1 23 33 0.08872554249939768 0 1430.0 0.08872554249939768 1
gene  1 24 33 0.10402414808110494 0 1431.0 0.10402414808110494 1
gene  1 25 33 0.47666632820161703 0 1432.0 0.47666632820161703 1
gene  1 26 33 0.03172313525502879 0 1433.0 0.03172313525502879 1
gene  1 27 33 0.14203062647227604 0 1434.0 0.14203062647227604 1
gene  1 29 33 0.3866756555043426 0 1436.0 0.3866756555043426 1
gene  1 33 33 0.44609871483740426 1 1440.0 0.44609871483740426 1
gene  1 35 33 -0.840122360664299 1 1442.0 -0.840122360664299 1
gene  1 39 33 -0.7364636013544148 1 1446.0 -0.7364636013544148 1
gene  1 40 33 0.32074487520443207 1 1447.0 0.32074487520443207 1
gene  1 41 33 0.7595943603666502 1 1448.0 0.7595943603666502 1
gene  1 44 33 -0.5248676827610385 1 1451.0 -0.5248676827610385 1
gene  1 1 34 -0.8985558294483729 0 1452.0 -0.8985558294483729 1
gene  1 2 34 -0.5115279447540239 0 1453.0 -0.5115279447540239 1
gene  1 11 34 0.6340935522435627 0 1462.0 0.6340935522435627 1
gene  1 12 34 0.10829774307265427 0 1463.0 0.10829774307265427 1
gene  1 14 34 -0.15785165416252345 0 1465.0 -0.15785165416252345 1
gene  1 16 34 0.6644920936045798 0 1467.0 0.6644920936045798 1
gene  1 19 34 0.9274374546410928 0 1470.0 0.9274374546410928 1
gene  1 21 34 -0.21899261555106564 0 1472.0 -0.21899261555106564 1
gene  1 24 34 -0.46490683438026603 0 1475.0 -0.46490683438026603 1
gene  1 26 34 0.8073596482812417 0 1477.0 0.8073596482812417 1
gene  1 28 34 0.41034462714149955 0 1479.0 0.41034462714149955 1
gene  1 29 34 0.742009992674102 0 1480.0 0.742009992674102 1
gene  1 31 34 0.38216270207640735 0 1482.0 0.38216270207640735 1
gene  1 33 34 -0.7695269505137893 0 1484.0 -0.7695269505137893 1
gene  1 34 34 -0.9040449969359642 1 1485.0 -0.9040449969359642 1
gene  1 36 34 0.9915380915507325 1 1487.0 0.9915380915507325 1
gene  1 37 34 0.8472056928143563 1 1488.0 0.8472056928143563 1
gene  1 40 34 0.05073981838253383 1 1491.0 0.05073981838253383 1
gene  1 41 34 -0.5497962259474043 1 1492.0 -0.5497962259474043 1
gene  1 43 34 -0.6480418285341134 1 1494.0 -0.6480418285341134 1
gene  1 44 34 -0.10528926870197575 1 1495.0 -0.10528926870197575 1
gene  1 7 35 0.22579739502465757 0 1502.0 0.22579739502465757 1
gene  1 11 35 -0.8089995634566899 0 1506.0 -0.8089995634566899 1
gene  1 13 35 0.5433372322609912 0 1508.0 0.5433372322609912 1
gene  1 15 35 0.1821076736767855 0 1510.0 0.1821076736767855 1
gene  1 16 35 -0.525362025545427 0 1511.0 -0.525362025545427 1
gene  1 19 35 0.662906380015707 0 1514.0 0.662906380015707 1
gene  1 21 35 -0.24420473125442888 0 1516.0 -0.24420473125442888 1
gene  1 22 35 0.15245847139568736 0 1517.0 0.15245847139568736 1
gene  1 25 35 0.9205326083768056 0 1520.0 0.9205326083768056 1
gene  1 26 35 -0.4524376065390655 0 1521.0 -0.4524376065390655 1
gene  1 28 35 -0.26740408136227745 0 1523.0 -0.26740408136227745 1
gene  1 30 35 -0.5112768467252182 0 1525.0 -0.5112768467252182 1
gene  1 32 35 -0.9958889440719166 0 1527.0 -0.9958889440719166 1
gene  1 33 35 -0.48177722035529513 0 1528.0 -0.48177722035529513 1
gene  1 34 35 -0.12991374872781325 0 1529.0 -0.12991374872781325 1
gene  1 35 35 0.8981088435567742 1 1530.0 0.8981088435567742 1
gene  1 37 35 -0.8068060415387384 1 1532.0 -0.8068060415387384 1
gene  1 39 35 -0.8113774549913675 1 1534.0 -0.8113774549913675 1
gene  1 40 35 -0.5058942448468813 1 1535.0 -0.5058942448468813 1
gene  1 41 35 0.9138258347699797 1 1536.0 0.9138258347699797 1
gene  1 42 35 0.32591351122073364 1 1537.0 0.32591351122073364 1
gene  1 44 35 0.040924550361215006 1 1539.0 0.040924550361215006 1
gene  1 2 36 -0.7186502661967945 0 1541.0 -0.7186502661967945 1
gene  1 4 36 -0.620559813011522 0 1543.0 -0.620559813011522 1
gene  1 5 36 0.6439582773804721 0 1544.0 0.6439582773804721 1
gene  1 7 36 -0.5816402928120735 0 1546.0 -0.5816402928120735 1
gene  1 10 36 -0.06849945226063336 0 1549.0 -0.06849945226063336 1
gene  1 14 36 0.7756205448576865 0 1553.0 0.7756205448576865 1
gene  1 18 36 -0.8147130557147779 0 1557.0 -0.8147130557147779 1
gene  1 20 36 0.23788546815455536 0 1559.0 0.23788546815455536 1
gene  1 21 36 0.9970778048476175 0 1560.0 0.9970778048476175 1
gene  1 23 36 0.83258084839354 0 1562.0 0.83258084839354 1
gene  1 24 36 0.7440291768195875 0 1563.0 0.7440291768195875 1
gene  1 27 36 0.45511387345906207 0 1566.0 0.45511387345906207 1
gene  1 28 36 0.4607314019670432 0 1567.0 0.4607314019670432 1
gene  1 31 36 -0.0847011115936791 0 1570.0 -0.0847011115936791 1
gene  1 32 36 0.30110550897975275 0 1571.0 0.30110550897975275 1
gene  1 36 36 0.48640177320697797 1 1575.0 0.48640177320697797 1
gene  1 37 36 0.760145027887954 1 1576.0 0.760145027887954 1
gene  1 40 36 -0.03619390585512683 1 1579.0 -0.03619390585512683 1
gene  1 41 36 0.46635584579158107 1 1580.0 0.46635584579158107 1
gene  1 42 36 0.9215228457639344 1 1581.0 0.9215228457639344 1
gene  1 44 36 -0.31449603210494304 1 1583.0 -0.31449603210494304 1
gene  1 1 37 -0.5961725411399081 0 1584.0 -0.5961725411399081 1
gene  1 3 37 0.7751001460695609 0 1586.0 0.7751001460695609 1
gene  1 4 37 0.4962067370429163 0 1587.0 0.4962067370429163 1
gene  1 5 37 0.8248314321913085 0 1588.0 0.8248314321913085 1
gene  1 6 37 0.10101982329112424 0 1589.0 0.10101982329112424 1
gene  1 10 37 -0.12925180827347005 0 1593.0 -0.12925180827347005 1
gene  1 12 37 -0.13703344389334782 0 1595.0 -0.13703344389334782 1
gene  1 14 37 -0.026055079460943653 0 1597.0 -0.026055079460943653 1
gene  1 15 37 0.5077696966336712 0 1598.0 0.5077696966336712 1
gene  1 17 37 0.6491675243587431 0 1600.0 0.6491675243587431 1
gene  1 18 37 0.628481056863232 0 1601.0 0.628481056863232 1
gene  1 19 37 -0.8472605744220789 0 1602.0 -0.8472605744220789 1
gene  1 20 37 -0.5602051687972811 0 1603.0 -0.5602051687972811 1
gene  1 23 37 -0.1531893814652081 0 1606.0 -0.1531893814652081 1
gene  1 25 37 -0.7389347172195062 0 1608.0 -0.7389347172195062 1
gene  1 28 37 0.5879159607044854 0 1611.0 0.5879159607044854 1
gene  1 29 37 0.9289034009923315 0 1612.0 0.9289034009923315 1
gene  1 30 37 -0.9708366915209669 0 1613.0 -0.9708366915209669 1
gene  1 31 37 -0.7848332602385821 0 1614.0 -0.7848332602385821 1
gene  1 33 37 0.45872696758243814 0 1616.0 0.45872696758243814 1
gene  1 35 37 -0.5564432279128861 0 1618.0 -0.5564432279128861 1
gene  1 37 37 0.6141660780537794 1 1620.0 0.6141660780537794 1
gene  1 42 37 0.4163020160627484 1 1625.0 0.4163020160627484 1
gene  1 43 37 -0.05138776195761163 1 1626.0 -0.05138776195761163 1
gene  1 44 37 -0.9113451820152177 1 1627.0 -0.9113451820152177 1
gene  1 1 39 -0.7069597868678994 0 1672.0 -0.7069597868678994 1
gene  1 3 39 -0.3901991176720596 0 1674.0 -0.3901991176720596 1
gene  1 4 39 -0.4957523512622821 0 1675.0 -0.4957523512622821 1
gene  1 6 39 -0.952828866521832 0 1677.0 -0.952828866521832 1
gene  1 9 39 0.9689431372560798 0 1680.0 0.9689431372560798 1
gene  1 10 39 0.5709629835568197 0 1681.0 0.5709629835568197 1
gene  1 12 39 0.9754851486804217 0 1683.0 0.9754851486804217 1
gene  1 13 39 -0.13881037858696055 0 1684.0 -0.13881037858696055 1
gene  1 16 39 -0.7973680804455587 0 1687.0 -0.7973680804455587 1
gene  1 17 39 -0.7263429282649794 0 1688.0 -0.7263429282649794 1
gene  1 19 39 -0.12760764324125096 0 1690.0 -0.12760764324125096 1
gene  1 20 39 0.24926412357803995 0 1691.0 0.24926412357803995 1
gene  1 23 39 -0.5156022909365274 0 1694.0 -0.5156022909365274 1
gene  1 25 39 0.5212502230364934 0 1696.0 0.5212502230364934 1
gene  1 26 39 0.6055583151366393 0 1697.0 0.6055583151366393 1
gene  1 27 39 0.5455508049581683 0 1698.0 0.5455508049581683 1
gene  1 28 39 -0.9617749014340197 0 1699.0 -0.9617749014340197 1
gene  1 29 39 -0.6626835988494717 0 1700.0 -0.6626835988494717 1
gene  1 32 39 0.6818071356792914 0 1703.0 0.6818071356792914 1
gene  1 33 39 0.41485745411541874 0 1704.0 0.41485745411541874 1
gene  1 34 39 0.17337453064016184 0 1705.0 0.17337453064016184 1
gene  1 37 39 -0.41293866570069737 0 1708.0 -0.41293866570069737 1
gene  1 40 39 -0.3814715387390404 1 1711.0 -0.3814715387390404 1
gene  1 41 39 0.15066937956443538 1 1712.0 0.15066937956443538 1
gene  1 44 39 0.2486651210857186 1 1715.0 0.2486651210857186 1
gene  1 1 40 0.7149566624981437 0 1716.0 0.7149566624981437 1
gene  1 2 40 0.9339020913927998 0 1717.0 0.9339020913927998 1
gene  1 7 40 0.5602362421304625 0 1722.0 0.5602362421304625 1
gene  1 8 40 0.4049524178077972 0 1723.0 0.4049524178077972 1
gene  1 12 40 -0.3074299913039943 0 1727.0 -0.3074299913039943 1
gene  1 13 40 0.7003491401461286 0 1728.0 0.7003491401461286 1
gene  1 14 40 0.2552211087244832 0 1729.0 0.2552211087244832 1
gene  1 15 40 0.03854248144719252 0 1730.0 0.03854248144719252 1
gene  1 16 40 -0.33976283302250865 0 1731.0 -0.33976283302250865 1
gene  1 17 40 -0.5624704835425546 0 1732.0 -0.5624704835425546 1
gene  1 22 40 0.530919013346573 0 1737.0 0.530919013346573 1
gene  1 24 40 -0.5625059389907006 0 1739.0 -0.5625059389907006 1
gene  1 25 40 -0.8166604655136172 0 1740.0 -0.8166604655136172 1
gene  1 26 40 -0.6528519945025903 0 1741.0 -0.6528519945025903 1
gene  1 28 40 -0.8532660986178107 0 1743.0 -0.8532660986178107 1
gene  1 30 40 0.6562900168221006 0 1745.0 0.6562900168221006 1
gene  1 33 40 -0.44434284800973367 0 1748.0 -0.44434284800973367 1
gene  1 36 40 -0.3735209323699269 0 1751.0 -0.3735209323699269 1
gene  1 37 40 0.003870118437929837 0 1752.0 0.003870118437929837 1
gene  1 40 40 -0.6153785918666921 1 1755.0 -0.6153785918666921 1
gene  1 41 40 -0.1473725493615129 1 1756.0 -0.1473725493615129 1
gene  1 1 41 -0.7146438285700625 0 1760.0 -0.7146438285700625 1
gene  1 2 41 -0.6558920432744542 0 1761.0 -0.6558920432744542 1
gene  1 3 41 -0.9085302425712583 0 1762.0 -0.9085302425712583 1
gene  1 10 41 0.2559570055052508 0 1769.0 0.2559570055052508 1
gene  1 12 41 -0.7705982448224176 0 1771.0 -0.7705982448224176 1
gene  1 13 41 0.5140860346467196 0 1772.0 0.5140860346467196 1
gene  1 14 41 -0.11294908117244029 0 1773.0 -0.11294908117244029 1
gene  1 16 41 -0.5043045046128403 0 1775.0 -0.5043045046128403 1
gene  1 18 41 0.10615154146095396 0 1777.0 0.10615154146095396 1
gene  1 20 41 0.5188248588330676 0 1779.0 0.5188248588330676 1
gene  1 22 41 0.7417561392331672 0 1781.0 0.7417561392331672 1
gene  1 23 41 0.9540373791383964 0 1782.0 0.9540373791383964 1
gene  1 26 41 -0.7876989928917495 0 1785.0 -0.7876989928917495 1
gene  1 27 41 -0.026539458818363282 0 1786.0 -0.026539458818363282 1
gene  1 29 41 0.35040162176768697 0 1788.0 0.35040162176768697 1
gene  1 31 41 0.4825170069454232 0 1790.0 0.4825170069454232 1
gene  1 32 41 -0.7339189102605451 0 1791.0 -0.7339189102605451 1
gene  1 35 41 0.2995982355499833 0 1794.0 0.2995982355499833 1
gene  1 39 41 -0.8156354574356015 0 1798.0 -0.8156354574356015 1
gene  1 40 41 -0.8208193257631742 0 1799.0 -0.8208193257631742 1
gene  1 41 41 -0.8116755622362066 1 1800.0 -0.8116755622362066 1
gene  1 43 41 0.2010336369959148 1 1802.0 0.2010336369959148 1
gene  1 44 41 -0.03815544691863937 1 1803.0 -0.03815544691863937 1
gene  1 2 42 -0.3534887298739189 0 1805.0 -0.3534887298739189 1
gene  1 4 42 0.29579880754199384 0 1807.0 0.29579880754199384 1
gene  1 6 42 0.24935387711678003 0 1809.0 0.24935387711678003 1
gene  1 9 42 -0.10327462175349855 0 1812.0 -0.10327462175349855 1
gene  1 10 42 -0.1124482325753765 0 1813.0 -0.1124482325753765 1
gene  1 11 42 -0.8991271817607402 0 1814.0 -0.8991271817607402 1
gene  1 14 42 -0.3734958932348348 0 1817.0 -0.3734958932348348 1
gene  1 15 42 -0.3274621356634627 0 1818.0 -0.3274621356634627 1
gene  1 16 42 -0.017778044374959667 0 1819.0 -0.017778044374959667 1
gene  1 17 42 -0.2699237967151321 0 1820.0 -0.2699237967151321 1
gene  1 18 42 -0.967196088522758 0 1821.0 -0.967196088522758 1
gene  1 19 42 0.6663605409406725 0 1822.0 0.6663605409406725 1
gene  1 20 42 -0.3925962801765802 0 1823.0 -0.3925962801765802 1
gene  1 21 42 0.3398475013532406 0 1824.0 0.3398475013532406 1
gene  1 22 42 -0.4969659193100978 0 1825.0 -0.4969659193100978 1
gene  1 23 42 -0.8151869991400214 0 1826.0 -0.8151869991400214 1
gene  1 24 42 0.858961100640825 0 1827.0 0.858961100640825 1
gene  1 25 42 0.11384112709350236 0 1828.0 0.11384112709350236 1
gene  1 26 42 0.7116259221852268 0 1829.0 0.7116259221852268 1
gene  1 29 42 -0.5079822458804959 0 1832.0 -0.5079822458804959 1
gene  1 30 42 0.7044133672662555 0 1833.0 0.7044133672662555 1
gene  1 32 42 -0.834717651615429 0 1835.0 -0.834717651615429 1
gene  1 33 42 -0.8490113655122941 0 1836.0 -0.8490113655122941 1
gene  1 34 42 0.1400489407878739 0 1837.0 0.1400489407878739 1
gene  1 35 42 -0.7892214787100473 0 1838.0 -0.7892214787100473 1
gene  1 36 42 -0.07539223664321193 0 1839.0 -0.07539223664321193 1
gene  1 37 42 0.4739314910797454 0 1840.0 0.4739314910797454 1
gene  1 40 42 0.8795663757221507 0 1843.0 0.8795663757221507 1
gene  1 41 42 -0.6841751190671187 0 1844.0 -0.6841751190671187 1
gene  1 42 42 0.34050479364683306 1 1845.0 0.34050479364683306 1
gene  1 43 42 -0.21952890223334598 1 1846.0 -0.21952890223334598 1
gene  1 44 42 -0.990600498871578 1 1847.0 -0.990600498871578 1
gene  1 1 43 -0.4263797823185608 0 1848.0 -0.4263797823185608 1
gene  1 2 43 0.5608635357541979 0 1849.0 0.5608635357541979 1
gene  1 5 43 0.6725128286750509 0 1852.0 0.6725128286750509 1
gene  1 6 43 0.6107438439068464 0 1853.0 0.6107438439068464 1
gene  1 7 43 -0.541280262417681 0 1854.0 -0.541280262417681 1
gene  1 9 43 0.2873460579149769 0 1856.0 0.2873460579149769 1
gene  1 15 43 0.5438666148915744 0 1862.0 0.5438666148915744 1
gene  1 16 43 0.7719879650487734 0 1863.0 0.7719879650487734 1
gene  1 17 43 -0.585316492056268 0 1864.0 -0.585316492056268 1
gene  1 19 43 -0.018629468358044354 0 1866.0 -0.018629468358044354 1
gene  1 21 43 0.6249709841483618 0 1868.0 0.6249709841483618 1
gene  1 22 43 0.942097393375308 0 1869.0 0.942097393375308 1
gene  1 23 43 -0.7442880459789031 0 1870.0 -0.7442880459789031 1
gene  1 24 43 -0.49676834161940664 0 1871.0 -0.49676834161940664 1
gene  1 25 43 -0.5409292233184854 0 1872.0 -0.5409292233184854 1
gene  1 27 43 0.8240393725325541 0 1874.0 0.8240393725325541 1
gene  1 29 43 -0.10365460292952333 0 1876.0 -0.10365460292952333 1
gene  1 31 43 -0.7779548890387005 0 1878.0 -0.7779548890387005 1
gene  1 33 43 0.09639288600381879 0 1880.0 0.09639288600381879 1
gene  1 34 43 -0.9706231909394667 0 1881.0 -0.9706231909394667 1
gene  1 35 43 -0.26147666032077754 0 1882.0 -0.26147666032077754 1
gene  1 40 43 -0.7189144916385873 0 1887.0 -0.7189144916385873 1
gene  1 41 43 0.8544046827986739 0 1888.0 0.8544046827986739 1
gene  1 42 43 0.9474854190466053 0 1889.0 0.9474854190466053 1
gene  1 44 43 0.45223337067894387 1 1891.0 0.45223337067894387 1
gene  1 1 44 0.2328184973971298 0 1892.0 0.2328184973971298 1
gene  1 2 44 -0.20761494906690103 0 1893.0 -0.20761494906690103 1
gene  1 4 44 -0.16637165590603675 0 1895.0 -0.16637165590603675 1
gene  1 6 44 0.30694123982649757 0 1897.0 0.30694123982649757 1
gene  1 7 44 -0.2672167199974218 0 1898.0 -0.2672167199974218 1
gene  1 10 44 -0.4774771562582538 0 1901.0 -0.4774771562582538 1
gene  1 12 44 0.07812689588862609 0 1903.0 0.07812689588862609 1
gene  1 15 44 0.605318123969354 0 1906.0 0.605318123969354 1
gene  1 17 44 0.1795651607505745 0 1908.0 0.1795651607505745 1
gene  1 18 44 -0.8163497071016151 0 1909.0 -0.8163497071016151 1
gene  1 19 44 -0.48611613917351726 0 1910.0 -0.48611613917351726 1
gene  1 23 44 0.7395403260911969 0 1914.0 0.7395403260911969 1
gene  1 27 44 -0.7570790682393563 0 1918.0 -0.7570790682393563 1
gene  1 29 44 0.8673679950024157 0 1920.0 0.8673679950024157 1
gene  1 30 44 0.25051937200293684 0 1921.0 0.25051937200293684 1
gene  1 31 44 0.26365521988342566 0 1922.0 0.26365521988342566 1
gene  1 36 44 0.004889289126739471 0 1927.0 0.004889289126739471 1
gene  1 37 44 -0.15691186476825314 0 1928.0 -0.15691186476825314 1
gene  1 39 44 0.39603046710015966 0 1930.0 0.39603046710015966 1
gene  1 41 44 -0.5520378873286308 0 1932.0 -0.5520378873286308 1
gene  1 43 44 -0.45219973352637555 0 1934.0 -0.45219973352637555 1
genomeend 1
