genomestart  0
trait 1 0.0 0.0 0.0 0.0 0.0 0.0 0.0 0.0 
node 1 1 1 1
node 2 1 1 1
node 3 1 1 1
node 4 1 1 1
node 5 1 1 1
node 6 1 1 1
node 7 1 1 1
node 8 1 1 1
node 9 1 1 1
node 10 1 1 1
node 11 1 1 1
node 12 1 1 1
node 13 1 1 1
node 14 1 1 1
node 15 1 1 1
node 16 1 1 1
node 17 1 1 1
node 18 1 1 1
node 19 1 1 1
node 20 1 1 1
node 21 1 1 1
node 22 1 1 1
node 23 1 1 1
node 24 1 1 1
node 25 1 1 1
node 26 1 1 1
node 27 1 1 1
node 28 1 1 3
node 39 1 0 2
node 40 1 0 2
node 41 1 0 2
node 42 1 0 2
node 43 1 0 2
node 44 1 0 2
gene  1 2 39 0.1585887058226063 0 1673.0 0.1585887058226063 1
gene  1 4 39 0.054267094485504375 0 1675.0 0.054267094485504375 1
gene  1 5 39 -0.2051406254725998 0 1676.0 -0.2051406254725998 1
gene  1 6 39 0.22367909750914516 0 1677.0 0.22367909750914516 1
gene  1 7 39 0.7032982518396236 0 1678.0 0.7032982518396236 1
gene  1 9 39 0.5039395177929277 0 1680.0 0.5039395177929277 1
gene  1 12 39 -0.6491102227908961 0 1683.0 -0.6491102227908961 1
gene  1 13 39 -0.02478640575749136 0 1684.0 -0.02478640575749136 1
gene  1 14 39 0.2687427868821739 0 1685.0 0.2687427868821739 1
gene  1 15 39 -0.9651561552784547 0 1686.0 -0.9651561552784547 1
gene  1 17 39 0.9819014584637407 0 1688.0 0.9819014584637407 1
gene  1 19 39 -0.10530404152814854 0 1690.0 -0.10530404152814854 1
gene  1 20 39 0.48599473542016547 0 1691.0 0.48599473542016547 1
gene  1 21 39 0.08027932932061255 0 1692.0 0.08027932932061255 1
gene  1 22 39 0.047304629379229635 0 1693.0 0.047304629379229635 1
gene  1 24 39 -0.7118130837183295 0 1695.0 -0.7118130837183295 1
gene  1 25 39 0.31071087146557697 0 1696.0 0.31071087146557697 1
gene  1 39 39 -0.15047024479551352 1 1710.0 -0.15047024479551352 1
gene  1 40 39 0.3752696099903787 1 1711.0 0.3752696099903787 1
gene  1 42 39 0.9109855535460464 1 1713.0 0.9109855535460464 1
gene  1 44 39 0.05608723807026206 1 1715.0 0.05608723807026206 1
gene  1 1 40 0.1463561758225841 0 1716.0 0.1463561758225841 1
gene  1 2 40 0.28951482026412634 0 1717.0 0.28951482026412634 1
gene  1 4 40 -0.6893202712993429 0 1719.0 -0.6893202712993429 1
gene  1 7 40 -0.9551403066849942 0 1722.0 -0.9551403066849942 1
gene  1 12 40 0.5195054376174626 0 1727.0 0.5195054376174626 1
gene  1 13 40 0.9776068846828558 0 1728.0 0.9776068846828558 1
gene  1 16 40 0.5921518703578253 0 1731.0 0.5921518703578253 1
gene  1 19 40 0.12390388057590929 0 1734.0 0.12390388057590929 1
gene  1 20 40 0.286995327481835 0 1735.0 0.286995327481835 1
gene  1 21 40 0.09963209743652501 0 1736.0 0.09963209743652501 1
gene  1 22 40 -0.6774804855522317 0 1737.0 -0.6774804855522317 1
gene  1 23 40 -0.15197805282683108 0 1738.0 -0.15197805282683108 1
gene  1 24 40 -0.38943789127163697 0 1739.0 -0.38943789127163697 1
gene  1 28 40 0.5354628237341665 0 1743.0 0.5354628237341665 1
gene  1 39 40 -0.7776725735306407 0 1754.0 -0.7776725735306407 1
gene  1 42 40 -0.8249923573738617 1 1757.0 -0.8249923573738617 1
gene  1 43 40 -0.4018729930735624 1 1758.0 -0.4018729930735624 1
gene  1 4 41 -0.8065556420675124 0 1763.0 -0.8065556420675124 1
gene  1 6 41 0.2978353805454309 0 1765.0 0.2978353805454309 1
gene  1 7 41 -0.7523326429874577 0 1766.0 -0.7523326429874577 1
gene  1 8 41 -0.5032357541468175 0 1767.0 -0.5032357541468175 1
gene  1 9 41 -0.08451748218887534 0 1768.0 -0.08451748218887534 1
gene  1 10 41 -0.6596455448800819 0 1769.0 -0.6596455448800819 1
gene  1 12 41 0.2346881820885478 0 1771.0 0.2346881820885478 1
gene  1 13 41 -0.8018206243079835 0 1772.0 -0.8018206243079835 1
gene  1 14 41 -0.40304214281188344 0 1773.0 -0.40304214281188344 1
gene  1 16 41 -0.6964682588656995 0 1775.0 -0.6964682588656995 1
gene  1 17 41 -0.34573397529445726 0 1776.0 -0.34573397529445726 1
gene  1 18 41 -0.9613366511879088 0 1777.0 -0.9613366511879088 1
gene  1 20 41 -0.2193173994365223 0 1779.0 -0.2193173994365223 1
gene  1 25 41 -0.7894635716525229 0 1784.0 -0.7894635716525229 1
gene  1 26 41 0.44108326922563723 0 1785.0 0.44108326922563723 1
gene  1 28 41 -0.786689786219249 0 1787.0 -0.786689786219249 1
gene  1 40 41 -0.18208237335239397 0 1799.0 -0.18208237335239397 1
gene  1 42 41 -0.8216420204384446 1 1801.0 -0.8216420204384446 1
gene  1 43 41 -0.6504066903547232 1 1802.0 -0.6504066903547232 1
gene  1 44 41 -0.3943314463007823 1 1803.0 -0.3943314463007823 1
gene  1 2 42 -0.3219931598348802 0 1805.0 -0.3219931598348802 1
gene  1 3 42 -0.4309798393165011 0 1806.0 -0.4309798393165011 1
gene  1 4 42 0.09457678786911927 0 1807.0 0.09457678786911927 1
gene  1 5 42 -0.6145374250947414 0 1808.0 -0.6145374250947414 1
gene  1 7 42 0.7110281647413802 0 1810.0 0.7110281647413802 1
gene  1 9 42 0.9250862492969977 0 1812.0 0.9250862492969977 1
gene  1 12 42 0.82249396777567 0 1815.0 0.82249396777567 1
gene  1 13 42 0.8298700860326761 0 1816.0 0.8298700860326761 1
gene  1 14 42 -0.3759044979534254 0 1817.0 -0.3759044979534254 1
gene  1 16 42 0.2357572869568214 0 1819.0 0.2357572869568214 1
gene  1 17 42 -0.7398863218959738 0 1820.0 -0.7398863218959738 1
gene  1 20 42 0.9447423816746934 0 1823.0 0.9447423816746934 1
gene  1 22 42 -0.18982614516365193 0 1825.0 -0.18982614516365193 1
gene  1 24 42 -0.6461557784505455 0 1827.0 -0.6461557784505455 1
gene  1 25 42 0.04723772850735064 0 1828.0 0.04723772850735064 1
gene  1 27 42 0.1767333027364122 0 1830.0 0.1767333027364122 1
gene  1 39 42 -0.010666771088462035 0 1842.0 -0.010666771088462035 1
gene  1 40 42 -0.7172993443163812 0 1843.0 -0.7172993443163812 1
gene  1 41 42 -0.09284247290891923 0 1844.0 -0.09284247290891923 1
gene  1 42 42 -0.8542658922905708 1 1845.0 -0.8542658922905708 1
gene  1 44 42 -0.24459694098645524 1 1847.0 -0.24459694098645524 1
gene  1 2 43 -0.9218720436050676 0 1849.0 -0.9218720436050676 1
gene  1 4 43 0.7409425372695818 0 1851.0 0.7409425372695818 1
gene  1 5 43 -0.062489373054768094 0 1852.0 -0.062489373054768094 1
gene  1 10 43 0.6642705918422327 0 1857.0 0.6642705918422327 1
gene  1 15 43 -0.3068247766989163 0 1862.0 -0.3068247766989163 1
gene  1 18 43 0.7494845789269828 0 1865.0 0.7494845789269828 1
gene  1 19 43 -0.3866201637405392 0 1866.0 -0.3866201637405392 1
gene  1 23 43 0.9314320812216904 0 1870.0 0.9314320812216904 1
gene  1 24 43 0.9433979871930799 0 1871.0 0.9433979871930799 1
gene  1 25 43 0.6271202063666428 0 1872.0 0.6271202063666428 1
gene  1 41 43 -0.9183824595229548 0 1888.0 -0.9183824595229548 1
gene  1 42 43 0.20601397903959118 0 1889.0 0.20601397903959118 1
gene  1 44 43 -0.6725627042779709 1 1891.0 -0.6725627042779709 1
gene  1 4 44 0.608921876074779 0 1895.0 0.608921876074779 1
gene  1 5 44 0.2972109719051913 0 1896.0 0.2972109719051913 1
gene  1 9 44 0.16766283628530376 0 1900.0 0.16766283628530376 1
gene  1 11 44 0.4507859979721526 0 1902.0 0.4507859979721526 1
gene  1 12 44 0.853532905862906 0 1903.0 0.853532905862906 1
gene  1 14 44 -0.7060751801384816 0 1905.0 -0.7060751801384816 1
gene  1 18 44 0.040724440147064445 0 1909.0 0.040724440147064445 1
gene  1 19 44 0.47770822667866975 0 1910.0 0.47770822667866975 1
gene  1 20 44 -0.5541186721213829 0 1911.0 -0.5541186721213829 1
gene  1 21 44 0.2065716061075933 0 1912.0 0.2065716061075933 1
gene  1 24 44 0.9689887059368992 0 1915.0 0.9689887059368992 1
gene  1 25 44 -0.8228774710450074 0 1916.0 -0.8228774710450074 1
gene  1 27 44 0.18892222041938334 0 1918.0 0.18892222041938334 1
gene  1 28 44 0.5255949198419857 0 1919.0 0.5255949198419857 1
gene  1 39 44 -0.6102558101721426 0 1930.0 -0.6102558101721426 1
gene  1 40 44 0.839093101102482 0 1931.0 0.839093101102482 1
genomeend 0
