genomestart  2
trait 1 0.0 0.0 0.0 0.0 0.0 0.0 0.0 0.0 
node 1 1 1 1
node 2 1 1 1
node 3 1 1 1
node 4 1 1 1
node 5 1 1 1
node 6 1 1 1
node 7 1 1 1
node 8 1 1 1
node 9 1 1 1
node 10 1 1 1
node 11 1 1 1
node 12 1 1 1
node 13 1 1 1
node 14 1 1 1
node 15 1 1 1
node 16 1 1 1
node 17 1 1 1
node 18 1 1 1
node 19 1 1 1
node 20 1 1 1
node 21 1 1 1
node 22 1 1 1
node 23 1 1 1
node 24 1 1 1
node 25 1 1 1
node 26 1 1 1
node 27 1 1 1
node 28 1 1 3
node 29 1 0 0
node 30 1 0 0
node 39 1 0 2
node 40 1 0 2
node 41 1 0 2
node 42 1 0 2
node 43 1 0 2
node 44 1 0 2
gene  1 6 29 0.8171478027544669 0 1237.0 0.8171478027544669 1
gene  1 7 29 -0.02699789141216269 0 1238.0 -0.02699789141216269 1
gene  1 11 29 -0.056057332961407136 0 1242.0 -0.056057332961407136 1
gene  1 12 29 -0.8729742148073519 0 1243.0 -0.8729742148073519 1
gene  1 13 29 -0.6235112436287493 0 1244.0 -0.6235112436287493 1
gene  1 15 29 0.12380784393511912 0 1246.0 0.12380784393511912 1
gene  1 17 29 -0.9604356615089029 0 1248.0 -0.9604356615089029 1
gene  1 18 29 -0.5340181995715467 0 1249.0 -0.5340181995715467 1
gene  1 19 29 0.10090362776391648 0 1250.0 0.10090362776391648 1
gene  1 21 29 0.8558755422709343 0 1252.0 0.8558755422709343 1
gene  1 39 29 -0.31846121302274444 1 1270.0 -0.31846121302274444 1
gene  1 40 29 -0.7841246107072455 1 1271.0 -0.7841246107072455 1
gene  1 44 29 -0.5870957560305111 1 1275.0 -0.5870957560305111 1
gene  1 3 30 0.9819492542948615 0 1278.0 0.9819492542948615 1
gene  1 6 30 -0.8008394374291969 0 1281.0 -0.8008394374291969 1
gene  1 8 30 -0.9092848005326314 0 1283.0 -0.9092848005326314 1
gene  1 11 30 -0.4599050249024792 0 1286.0 -0.4599050249024792 1
gene  1 12 30 0.32124070330923604 0 1287.0 0.32124070330923604 1
gene  1 13 30 0.6180455633878867 0 1288.0 0.6180455633878867 1
gene  1 14 30 0.8834235566509545 0 1289.0 0.8834235566509545 1
gene  1 21 30 0.551971210985715 0 1296.0 0.551971210985715 1
gene  1 23 30 0.6209102930612104 0 1298.0 0.6209102930612104 1
gene  1 27 30 -0.8471842238173705 0 1302.0 -0.8471842238173705 1
gene  1 28 30 -0.8283501478647753 0 1303.0 -0.8283501478647753 1
gene  1 29 30 -0.9967931753028074 0 1304.0 -0.9967931753028074 1
gene  1 30 30 -0.652950429568284 1 1305.0 -0.652950429568284 1
gene  1 39 30 0.34869755702903693 1 1314.0 0.34869755702903693 1
gene  1 40 30 -0.8190012157903149 1 1315.0 -0.8190012157903149 1
gene  1 41 30 0.4976145153763084 1 1316.0 0.4976145153763084 1
gene  1 42 30 0.2989654385233278 1 1317.0 0.2989654385233278 1
gene  1 43 30 -0.1731119897465988 1 1318.0 -0.1731119897465988 1
gene  1 44 30 -0.5013450200111161 1 1319.0 -0.5013450200111161 1
gene  1 3 39 -0.8286671659065643 0 1674.0 -0.8286671659065643 1
gene  1 4 39 -0.9132707463484099 0 1675.0 -0.9132707463484099 1
gene  1 5 39 0.01538123406564229 0 1676.0 0.01538123406564229 1
gene  1 6 39 0.5559028486470207 0 1677.0 0.5559028486470207 1
gene  1 8 39 -0.09702085743908251 0 1679.0 -0.09702085743908251 1
gene  1 9 39 0.27219483003640776 0 1680.0 0.27219483003640776 1
gene  1 11 39 0.0010264276322706767 0 1682.0 0.0010264276322706767 1
gene  1 12 39 0.08168731674715601 0 1683.0 0.08168731674715601 1
gene  1 14 39 -0.9020997823693472 0 1685.0 -0.9020997823693472 1
gene  1 16 39 -0.9761250381057605 0 1687.0 -0.9761250381057605 1
gene  1 18 39 0.9593860086234527 0 1689.0 0.9593860086234527 1
gene  1 19 39 -0.10380862633151822 0 1690.0 -0.10380862633151822 1
gene  1 22 39 -0.5024515984505368 0 1693.0 -0.5024515984505368 1
gene  1 23 39 0.9982357655516118 0 1694.0 0.9982357655516118 1
gene  1 24 39 0.0394425843999312 0 1695.0 0.0394425843999312 1
gene  1 30 39 -0.5302884858362371 0 1701.0 -0.5302884858362371 1
gene  1 39 39 0.6435919028208681 1 1710.0 0.6435919028208681 1
gene  1 43 39 0.81938503068408 1 1714.0 0.81938503068408 1
gene  1 1 40 0.5968321914694138 0 1716.0 0.5968321914694138 1
gene  1 4 40 -0.4538457163752171 0 1719.0 -0.4538457163752171 1
gene  1 10 40 0.009086228253682993 0 1725.0 0.009086228253682993 1
gene  1 11 40 0.07365471309400196 0 1726.0 0.07365471309400196 1
gene  1 12 40 -0.38008706264653924 0 1727.0 -0.38008706264653924 1
gene  1 14 40 0.963555971016927 0 1729.0 0.963555971016927 1
gene  1 15 40 -0.7562263399746812 0 1730.0 -0.7562263399746812 1
gene  1 16 40 -0.09660458754752344 0 1731.0 -0.09660458754752344 1
gene  1 17 40 -0.1826101654813237 0 1732.0 -0.1826101654813237 1
gene  1 18 40 -0.8971914271339125 0 1733.0 -0.8971914271339125 1
gene  1 19 40 0.19884260973638068 0 1734.0 0.19884260973638068 1
gene  1 21 40 0.1335471675360459 0 1736.0 0.1335471675360459 1
gene  1 22 40 0.9263977920356665 0 1737.0 0.9263977920356665 1
gene  1 26 40 0.8224416908866043 0 1741.0 0.8224416908866043 1
gene  1 39 40 0.048476519646306726 0 1754.0 0.048476519646306726 1
gene  1 44 40 -0.0649480812507085 1 1759.0 -0.0649480812507085 1
gene  1 1 41 -0.08556235991457428 0 1760.0 -0.08556235991457428 1
gene  1 2 41 -0.12570538292613886 0 1761.0 -0.12570538292613886 1
gene  1 6 41 0.3512003124019001 0 1765.0 0.3512003124019001 1
gene  1 9 41 0.34919912563151023 0 1768.0 0.34919912563151023 1
gene  1 13 41 -0.03308087914695823 0 1772.0 -0.03308087914695823 1
gene  1 14 41 -0.3492000811168554 0 1773.0 -0.3492000811168554 1
gene  1 16 41 0.22507146051973526 0 1775.0 0.22507146051973526 1
gene  1 18 41 0.9001663583647564 0 1777.0 0.9001663583647564 1
gene  1 19 41 0.25310017519228456 0 1778.0 0.25310017519228456 1
gene  1 20 41 -0.8361182044600245 0 1779.0 -0.8361182044600245 1
gene  1 21 41 0.06118200181856348 0 1780.0 0.06118200181856348 1
gene  1 22 41 -0.9106203859755563 0 1781.0 -0.9106203859755563 1
gene  1 24 41 -0.9631385379947871 0 1783.0 -0.9631385379947871 1
gene  1 28 41 0.6016837643956351 0 1787.0 0.6016837643956351 1
gene  1 29 41 -0.08251318257011087 0 1788.0 -0.08251318257011087 1
gene  1 30 41 0.22732548156578425 0 1789.0 0.22732548156578425 1
gene  1 40 41 -0.9545810357325544 0 1799.0 -0.9545810357325544 1
gene  1 42 41 -0.9743422591413757 1 1801.0 -0.9743422591413757 1
gene  1 44 41 -0.12671826564760846 1 1803.0 -0.12671826564760846 1
gene  1 2 42 0.9754866192659929 0 1805.0 0.9754866192659929 1
gene  1 4 42 -0.9142913965156485 0 1807.0 -0.9142913965156485 1
gene  1 5 42 0.5719187548061125 0 1808.0 0.5719187548061125 1
gene  1 7 42 -0.533288631916205 0 1810.0 -0.533288631916205 1
gene  1 12 42 0.33759434591681614 0 1815.0 0.33759434591681614 1
gene  1 13 42 0.022652914968914528 0 1816.0 0.022652914968914528 1
gene  1 14 42 -0.26526049353797865 0 1817.0 -0.26526049353797865 1
gene  1 16 42 -0.8584415455978336 0 1819.0 -0.8584415455978336 1
gene  1 17 42 0.004503467801028838 0 1820.0 0.004503467801028838 1
gene  1 18 42 -0.7309752467839115 0 1821.0 -0.7309752467839115 1
gene  1 20 42 -0.9063651649935608 0 1823.0 -0.9063651649935608 1
gene  1 21 42 -0.3330129646450424 0 1824.0 -0.3330129646450424 1
gene  1 22 42 0.046749386226992984 0 1825.0 0.046749386226992984 1
gene  1 23 42 -0.6604073833042697 0 1826.0 -0.6604073833042697 1
gene  1 24 42 -0.2758866968743031 0 1827.0 -0.2758866968743031 1
gene  1 26 42 -0.02452509744907505 0 1829.0 -0.02452509744907505 1
gene  1 29 42 0.18543301365339115 0 1832.0 0.18543301365339115 1
gene  1 30 42 0.0011006116669045607 0 1833.0 0.0011006116669045607 1
gene  1 40 42 0.24968350152677898 0 1843.0 0.24968350152677898 1
gene  1 41 42 -0.3036865035725024 0 1844.0 -0.3036865035725024 1
gene  1 43 42 -0.48015556436978546 1 1846.0 -0.48015556436978546 1
gene  1 2 43 0.4495642427127581 0 1849.0 0.4495642427127581 1
gene  1 3 43 -0.9560814605683108 0 1850.0 -0.9560814605683108 1
gene  1 4 43 -0.6715033268403915 0 1851.0 -0.6715033268403915 1
gene  1 5 43 0.7739986715432958 0 1852.0 0.7739986715432958 1
gene  1 6 43 0.03852098368950474 0 1853.0 0.03852098368950474 1
gene  1 7 43 -0.35199068712007087 0 1854.0 -0.35199068712007087 1
gene  1 9 43 -0.23394328883262427 0 1856.0 -0.23394328883262427 1
gene  1 12 43 0.24183507847395314 0 1859.0 0.24183507847395314 1
gene  1 15 43 -0.4810440069920744 0 1862.0 -0.4810440069920744 1
gene  1 17 43 0.39104553134748776 0 1864.0 0.39104553134748776 1
gene  1 18 43 -0.05907996999584719 0 1865.0 -0.05907996999584719 1
gene  1 20 43 0.6496121635465972 0 1867.0 0.6496121635465972 1
gene  1 24 43 -0.2726639666789551 0 1871.0 -0.2726639666789551 1
gene  1 25 43 0.7915040123515442 0 1872.0 0.7915040123515442 1
gene  1 26 43 0.4936140362584883 0 1873.0 0.4936140362584883 1
gene  1 28 43 0.4418363112756283 0 1875.0 0.4418363112756283 1
gene  1 40 43 0.5341673741548281 0 1887.0 0.5341673741548281 1
gene  1 41 43 0.38360255228922835 0 1888.0 0.38360255228922835 1
gene  1 2 44 0.9127511510190267 0 1893.0 0.9127511510190267 1
gene  1 6 44 0.19734187391993574 0 1897.0 0.19734187391993574 1
gene  1 8 44 0.806036492721412 0 1899.0 0.806036492721412 1
gene  1 10 44 -0.47013524948996843 0 1901.0 -0.47013524948996843 1
gene  1 13 44 -0.7251218527346093 0 1904.0 -0.7251218527346093 1
gene  1 17 44 -0.9164669674567477 0 1908.0 -0.9164669674567477 1
gene  1 19 44 -0.9543533724279302 0 1910.0 -0.9543533724279302 1
gene  1 20 44 0.46182129572762853 0 1911.0 0.46182129572762853 1
gene  1 21 44 -0.132640516361879 0 1912.0 -0.132640516361879 1
gene  1 22 44 -0.784768767251484 0 1913.0 -0.784768767251484 1
gene  1 24 44 -0.3583240296346961 0 1915.0 -0.3583240296346961 1
gene  1 25 44 -0.9390112166302653 0 1916.0 -0.9390112166302653 1
gene  1 26 44 -0.7681743260939239 0 1917.0 -0.7681743260939239 1
gene  1 27 44 0.6800577504417189 0 1918.0 0.6800577504417189 1
gene  1 29 44 0.3215708484665383 0 1920.0 0.3215708484665383 1
gene  1 39 44 0.9788173482611724 0 1930.0 0.9788173482611724 1
gene  1 41 44 -2.638546978304124E-4 0 1932.0 -2.638546978304124E-4 1
gene  1 42 44 0.6033532579819859 0 1933.0 0.6033532579819859 1
gene  1 44 44 -0.4925608549833018 1 1935.0 -0.4925608549833018 1
genomeend 2
