genomestart  8
trait 1 0.0 0.0 0.0 0.0 0.0 0.0 0.0 0.0 
node 1 1 1 1
node 2 1 1 1
node 3 1 1 1
node 4 1 1 1
node 5 1 1 1
node 6 1 1 1
node 7 1 1 1
node 8 1 1 1
node 9 1 1 1
node 10 1 1 1
node 11 1 1 1
node 12 1 1 1
node 13 1 1 1
node 14 1 1 1
node 15 1 1 1
node 16 1 1 1
node 17 1 1 1
node 18 1 1 1
node 19 1 1 1
node 20 1 1 1
node 21 1 1 1
node 22 1 1 1
node 23 1 1 1
node 24 1 1 1
node 25 1 1 1
node 26 1 1 1
node 27 1 1 1
node 28 1 1 3
node 29 1 0 0
node 30 1 0 0
node 39 1 0 2
node 40 1 0 2
node 41 1 0 2
node 42 1 0 2
node 43 1 0 2
node 44 1 0 2
gene  1 1 29 0.6387698449106997 0 1232.0 0.6387698449106997 1
gene  1 4 29 0.9924491258760919 0 1235.0 0.9924491258760919 1
gene  1 5 29 -0.8250311486509261 0 1236.0 -0.8250311486509261 1
gene  1 6 29 0.6899166225560918 0 1237.0 0.6899166225560918 1
gene  1 7 29 0.9283036550549003 0 1238.0 0.9283036550549003 1
gene  1 8 29 0.029488078885684055 0 1239.0 0.029488078885684055 1
gene  1 9 29 -0.4547998520039387 0 1240.0 -0.4547998520039387 1
gene  1 17 29 0.14957754523646927 0 1248.0 0.14957754523646927 1
gene  1 19 29 0.215616834384169 0 1250.0 0.215616834384169 1
gene  1 21 29 -0.019322675109372356 0 1252.0 -0.019322675109372356 1
gene  1 22 29 -0.09457468775058597 0 1253.0 -0.09457468775058597 1
gene  1 39 29 0.22366454547960501 1 1270.0 0.22366454547960501 1
gene  1 40 29 0.36850737157490765 1 1271.0 0.36850737157490765 1
gene  1 42 29 -0.09818659200261237 1 1273.0 -0.09818659200261237 1
gene  1 43 29 0.20152077931665546 1 1274.0 0.20152077931665546 1
gene  1 44 29 -0.2849310146727366 1 1275.0 -0.2849310146727366 1
gene  1 2 30 0.5642152564447164 0 1277.0 0.5642152564447164 1
gene  1 4 30 0.706537843235055 0 1279.0 0.706537843235055 1
gene  1 5 30 -0.16435147012213935 0 1280.0 -0.16435147012213935 1
gene  1 6 30 0.9045948241060559 0 1281.0 0.9045948241060559 1
gene  1 7 30 -0.9965990112696587 0 1282.0 -0.9965990112696587 1
gene  1 9 30 -0.8407968337444183 0 1284.0 -0.8407968337444183 1
gene  1 10 30 0.4466256733276539 0 1285.0 0.4466256733276539 1
gene  1 12 30 0.9554575872320609 0 1287.0 0.9554575872320609 1
gene  1 15 30 0.8237820027893521 0 1290.0 0.8237820027893521 1
gene  1 16 30 0.8643539864943898 0 1291.0 0.8643539864943898 1
gene  1 22 30 0.059851767380584286 0 1297.0 0.059851767380584286 1
gene  1 23 30 -0.07604593584595976 0 1298.0 -0.07604593584595976 1
gene  1 24 30 0.7780079581849141 0 1299.0 0.7780079581849141 1
gene  1 26 30 -0.17255715173707298 0 1301.0 -0.17255715173707298 1
gene  1 28 30 -0.16763402859818688 0 1303.0 -0.16763402859818688 1
gene  1 29 30 -0.301457867807423 0 1304.0 -0.301457867807423 1
gene  1 30 30 -0.5551292971650846 1 1305.0 -0.5551292971650846 1
gene  1 39 30 0.9913315624096718 1 1314.0 0.9913315624096718 1
gene  1 41 30 -0.9163822720230368 1 1316.0 -0.9163822720230368 1
gene  1 42 30 0.4673057415004028 1 1317.0 0.4673057415004028 1
gene  1 43 30 0.8927193348523761 1 1318.0 0.8927193348523761 1
gene  1 44 30 -0.11693731280921915 1 1319.0 -0.11693731280921915 1
gene  1 4 39 -0.08618665822157257 0 1675.0 -0.08618665822157257 1
gene  1 5 39 -0.36850221142462014 0 1676.0 -0.36850221142462014 1
gene  1 6 39 -0.48579411501798153 0 1677.0 -0.48579411501798153 1
gene  1 11 39 -0.28469748234634984 0 1682.0 -0.28469748234634984 1
gene  1 12 39 -0.38956380358675957 0 1683.0 -0.38956380358675957 1
gene  1 14 39 0.9376443978383039 0 1685.0 0.9376443978383039 1
gene  1 15 39 0.8519631208992094 0 1686.0 0.8519631208992094 1
gene  1 18 39 -0.7562831608554338 0 1689.0 -0.7562831608554338 1
gene  1 23 39 -0.2950089097654016 0 1694.0 -0.2950089097654016 1
gene  1 24 39 0.21579622972576018 0 1695.0 0.21579622972576018 1
gene  1 25 39 -0.3897892672006865 0 1696.0 -0.3897892672006865 1
gene  1 26 39 -0.41663751115449466 0 1697.0 -0.41663751115449466 1
gene  1 29 39 0.9926184196026476 0 1700.0 0.9926184196026476 1
gene  1 40 39 0.1733090133615618 1 1711.0 0.1733090133615618 1
gene  1 1 40 0.043393805848220834 0 1716.0 0.043393805848220834 1
gene  1 3 40 -0.3105559765659208 0 1718.0 -0.3105559765659208 1
gene  1 4 40 -0.4733301273224647 0 1719.0 -0.4733301273224647 1
gene  1 5 40 -0.5360867700707528 0 1720.0 -0.5360867700707528 1
gene  1 6 40 0.7329268991067402 0 1721.0 0.7329268991067402 1
gene  1 7 40 0.8723842068018022 0 1722.0 0.8723842068018022 1
gene  1 10 40 0.8812891844436002 0 1725.0 0.8812891844436002 1
gene  1 11 40 0.453905036487558 0 1726.0 0.453905036487558 1
gene  1 12 40 -0.49635619043067225 0 1727.0 -0.49635619043067225 1
gene  1 14 40 -0.716694630970151 0 1729.0 -0.716694630970151 1
gene  1 16 40 0.0870908817743925 0 1731.0 0.0870908817743925 1
gene  1 19 40 0.8669117077917028 0 1734.0 0.8669117077917028 1
gene  1 20 40 -0.7468923302368328 0 1735.0 -0.7468923302368328 1
gene  1 23 40 -0.478975502854588 0 1738.0 -0.478975502854588 1
gene  1 24 40 -0.3816504318836237 0 1739.0 -0.3816504318836237 1
gene  1 26 40 -0.7735336782346728 0 1741.0 -0.7735336782346728 1
gene  1 28 40 0.2379343436893443 0 1743.0 0.2379343436893443 1
gene  1 30 40 0.8985113864994336 0 1745.0 0.8985113864994336 1
gene  1 39 40 -0.9165591744384238 0 1754.0 -0.9165591744384238 1
gene  1 40 40 0.7513173512165582 1 1755.0 0.7513173512165582 1
gene  1 41 40 -0.9712215665856395 1 1756.0 -0.9712215665856395 1
gene  1 42 40 -0.805318013563828 1 1757.0 -0.805318013563828 1
gene  1 1 41 0.9242298181218905 0 1760.0 0.9242298181218905 1
gene  1 2 41 -0.23975111661568582 0 1761.0 -0.23975111661568582 1
gene  1 3 41 0.033332085837111114 0 1762.0 0.033332085837111114 1
gene  1 4 41 -0.4531649214496717 0 1763.0 -0.4531649214496717 1
gene  1 5 41 -0.29401513468694385 0 1764.0 -0.29401513468694385 1
gene  1 6 41 0.453237667402725 0 1765.0 0.453237667402725 1
gene  1 7 41 -0.022063944617668474 0 1766.0 -0.022063944617668474 1
gene  1 8 41 -0.38469617873464057 0 1767.0 -0.38469617873464057 1
gene  1 9 41 -0.009778289680227537 0 1768.0 -0.009778289680227537 1
gene  1 10 41 -0.7798596946056991 0 1769.0 -0.7798596946056991 1
gene  1 11 41 0.5707356380291192 0 1770.0 0.5707356380291192 1
gene  1 12 41 0.7351373131577574 0 1771.0 0.7351373131577574 1
gene  1 13 41 -0.5679536452325343 0 1772.0 -0.5679536452325343 1
gene  1 17 41 -0.048549700373547666 0 1776.0 -0.048549700373547666 1
gene  1 18 41 -0.4100863101167479 0 1777.0 -0.4100863101167479 1
gene  1 19 41 0.20012635432495296 0 1778.0 0.20012635432495296 1
gene  1 20 41 -0.38768733452273196 0 1779.0 -0.38768733452273196 1
gene  1 21 41 0.7592369220982155 0 1780.0 0.7592369220982155 1
gene  1 24 41 0.2611594882886674 0 1783.0 0.2611594882886674 1
gene  1 26 41 0.29227417940498124 0 1785.0 0.29227417940498124 1
gene  1 27 41 0.5377924569946645 0 1786.0 0.5377924569946645 1
gene  1 30 41 -0.8973897710537879 0 1789.0 -0.8973897710537879 1
gene  1 41 41 0.6371029924213393 1 1800.0 0.6371029924213393 1
gene  1 42 41 0.5809630454662684 1 1801.0 0.5809630454662684 1
gene  1 44 41 0.7774675252046217 1 1803.0 0.7774675252046217 1
gene  1 2 42 -0.16035337928260307 0 1805.0 -0.16035337928260307 1
gene  1 4 42 -0.777879329530198 0 1807.0 -0.777879329530198 1
gene  1 5 42 0.30083015352248266 0 1808.0 0.30083015352248266 1
gene  1 8 42 0.9243632601853475 0 1811.0 0.9243632601853475 1
gene  1 10 42 0.6566355574730947 0 1813.0 0.6566355574730947 1
gene  1 13 42 0.5519917318170523 0 1816.0 0.5519917318170523 1
gene  1 14 42 0.5859218964660592 0 1817.0 0.5859218964660592 1
gene  1 18 42 -0.20686625406683978 0 1821.0 -0.20686625406683978 1
gene  1 19 42 -0.4838262649206265 0 1822.0 -0.4838262649206265 1
gene  1 20 42 0.25790658609323125 0 1823.0 0.25790658609323125 1
gene  1 24 42 -0.05759452193217196 0 1827.0 -0.05759452193217196 1
gene  1 39 42 0.3565016706216033 0 1842.0 0.3565016706216033 1
gene  1 43 42 -0.11352958261991908 1 1846.0 -0.11352958261991908 1
gene  1 1 43 0.04118232245643383 0 1848.0 0.04118232245643383 1
gene  1 5 43 -0.09319203413374089 0 1852.0 -0.09319203413374089 1
gene  1 13 43 -0.37711643261022043 0 1860.0 -0.37711643261022043 1
gene  1 14 43 -0.5142998479529038 0 1861.0 -0.5142998479529038 1
gene  1 15 43 0.7295608972987473 0 1862.0 0.7295608972987473 1
gene  1 16 43 0.7170550923824957 0 1863.0 0.7170550923824957 1
gene  1 18 43 0.8628413905654133 0 1865.0 0.8628413905654133 1
gene  1 19 43 0.21223937463477105 0 1866.0 0.21223937463477105 1
gene  1 23 43 -0.5674814341666753 0 1870.0 -0.5674814341666753 1
gene  1 28 43 -0.18256844453443732 0 1875.0 -0.18256844453443732 1
gene  1 29 43 -0.3964724060569781 0 1876.0 -0.3964724060569781 1
gene  1 42 43 0.5441402214428894 0 1889.0 0.5441402214428894 1
gene  1 44 43 -0.815548822875003 1 1891.0 -0.815548822875003 1
gene  1 3 44 0.3101904434960786 0 1894.0 0.3101904434960786 1
gene  1 7 44 0.46045695793271757 0 1898.0 0.46045695793271757 1
gene  1 11 44 -0.7047207257960434 0 1902.0 -0.7047207257960434 1
gene  1 14 44 0.8532238440860275 0 1905.0 0.8532238440860275 1
gene  1 15 44 0.9775422208366922 0 1906.0 0.9775422208366922 1
gene  1 18 44 -0.7476028998194455 0 1909.0 -0.7476028998194455 1
gene  1 23 44 -0.5668767971537703 0 1914.0 -0.5668767971537703 1
gene  1 25 44 -0.09005793259179717 0 1916.0 -0.09005793259179717 1
gene  1 29 44 -0.648864388150448 0 1920.0 -0.648864388150448 1
gene  1 30 44 0.12828823828098235 0 1921.0 0.12828823828098235 1
gene  1 40 44 -0.8855698741253324 0 1931.0 -0.8855698741253324 1
gene  1 42 44 -0.12971611505929437 0 1933.0 -0.12971611505929437 1
genomeend 8
