genomestart  3
trait 1 0.0 0.0 0.0 0.0 0.0 0.0 0.0 0.0 
node 1 1 1 1
node 2 1 1 1
node 3 1 1 1
node 4 1 1 1
node 5 1 1 1
node 6 1 1 1
node 7 1 1 1
node 8 1 1 1
node 9 1 1 1
node 10 1 1 1
node 11 1 1 1
node 12 1 1 1
node 13 1 1 1
node 14 1 1 1
node 15 1 1 1
node 16 1 1 1
node 17 1 1 1
node 18 1 1 1
node 19 1 1 1
node 20 1 1 1
node 21 1 1 1
node 22 1 1 1
node 23 1 1 1
node 24 1 1 1
node 25 1 1 1
node 26 1 1 1
node 27 1 1 1
node 28 1 1 3
node 29 1 0 0
node 30 1 0 0
node 39 1 0 2
node 40 1 0 2
node 41 1 0 2
node 42 1 0 2
node 43 1 0 2
node 44 1 0 2
gene  1 3 29 -0.3679202194418659 0 1234.0 -0.3679202194418659 1
gene  1 4 29 -0.6839207643458303 0 1235.0 -0.6839207643458303 1
gene  1 5 29 -0.26381883711355747 0 1236.0 -0.26381883711355747 1
gene  1 6 29 -0.6403113445187665 0 1237.0 -0.6403113445187665 1
gene  1 10 29 -0.6436941353377404 0 1241.0 -0.6436941353377404 1
gene  1 11 29 -0.9803170196365326 0 1242.0 -0.9803170196365326 1
gene  1 12 29 -0.6311912593107827 0 1243.0 -0.6311912593107827 1
gene  1 14 29 -0.7478894470025023 0 1245.0 -0.7478894470025023 1
gene  1 15 29 -0.8076174698189048 0 1246.0 -0.8076174698189048 1
gene  1 20 29 -0.37041068056320103 0 1251.0 -0.37041068056320103 1
gene  1 24 29 -0.6769921277967413 0 1255.0 -0.6769921277967413 1
gene  1 27 29 -0.36696661040325085 0 1258.0 -0.36696661040325085 1
gene  1 28 29 0.9135477056572742 0 1259.0 0.9135477056572742 1
gene  1 30 29 -0.8541477963809982 1 1261.0 -0.8541477963809982 1
gene  1 40 29 -0.03150732931320355 1 1271.0 -0.03150732931320355 1
gene  1 42 29 -0.060099404046741856 1 1273.0 -0.060099404046741856 1
gene  1 43 29 0.1749616371084063 1 1274.0 0.1749616371084063 1
gene  1 1 30 0.9889674228898103 0 1276.0 0.9889674228898103 1
gene  1 6 30 -0.930312900513429 0 1281.0 -0.930312900513429 1
gene  1 11 30 -0.16250494498850931 0 1286.0 -0.16250494498850931 1
gene  1 14 30 -0.16935503807501817 0 1289.0 -0.16935503807501817 1
gene  1 17 30 0.8036176411191783 0 1292.0 0.8036176411191783 1
gene  1 19 30 0.7375382575005459 0 1294.0 0.7375382575005459 1
gene  1 21 30 0.8107157872142916 0 1296.0 0.8107157872142916 1
gene  1 22 30 -0.1493122745248583 0 1297.0 -0.1493122745248583 1
gene  1 24 30 -0.6942190220500205 0 1299.0 -0.6942190220500205 1
gene  1 27 30 -0.3845805719857234 0 1302.0 -0.3845805719857234 1
gene  1 29 30 -0.47407366988524746 0 1304.0 -0.47407366988524746 1
gene  1 39 30 0.6229404645125357 1 1314.0 0.6229404645125357 1
gene  1 40 30 0.712961314626564 1 1315.0 0.712961314626564 1
gene  1 2 39 -0.9931218368796224 0 1673.0 -0.9931218368796224 1
gene  1 4 39 -0.4127481277692967 0 1675.0 -0.4127481277692967 1
gene  1 7 39 -0.46770020404286394 0 1678.0 -0.46770020404286394 1
gene  1 8 39 -0.2089257061219092 0 1679.0 -0.2089257061219092 1
gene  1 9 39 0.8122514329119404 0 1680.0 0.8122514329119404 1
gene  1 11 39 -0.8687819531502156 0 1682.0 -0.8687819531502156 1
gene  1 13 39 -0.8228245432035768 0 1684.0 -0.8228245432035768 1
gene  1 14 39 0.5148736060918695 0 1685.0 0.5148736060918695 1
gene  1 17 39 -0.6766942740130514 0 1688.0 -0.6766942740130514 1
gene  1 18 39 0.757790094035271 0 1689.0 0.757790094035271 1
gene  1 19 39 -0.8479433459644907 0 1690.0 -0.8479433459644907 1
gene  1 22 39 -0.9350340039738524 0 1693.0 -0.9350340039738524 1
gene  1 25 39 0.6164741222493293 0 1696.0 0.6164741222493293 1
gene  1 26 39 0.6771600207005753 0 1697.0 0.6771600207005753 1
gene  1 27 39 -0.23004478687923302 0 1698.0 -0.23004478687923302 1
gene  1 29 39 -0.11543331147307023 0 1700.0 -0.11543331147307023 1
gene  1 30 39 -0.382056693766894 0 1701.0 -0.382056693766894 1
gene  1 39 39 0.1125844896042183 1 1710.0 0.1125844896042183 1
gene  1 41 39 0.5177016309965954 1 1712.0 0.5177016309965954 1
gene  1 42 39 0.45549403440020697 1 1713.0 0.45549403440020697 1
gene  1 43 39 -0.3417561855218926 1 1714.0 -0.3417561855218926 1
gene  1 3 40 0.4110409710886723 0 1718.0 0.4110409710886723 1
gene  1 5 40 -0.02013922503005172 0 1720.0 -0.02013922503005172 1
gene  1 7 40 -0.3297093607384498 0 1722.0 -0.3297093607384498 1
gene  1 8 40 0.04295463008073741 0 1723.0 0.04295463008073741 1
gene  1 9 40 0.919328814356352 0 1724.0 0.919328814356352 1
gene  1 11 40 -0.048170701801124705 0 1726.0 -0.048170701801124705 1
gene  1 12 40 0.8602812959619875 0 1727.0 0.8602812959619875 1
gene  1 13 40 -0.27286124918475463 0 1728.0 -0.27286124918475463 1
gene  1 14 40 0.35927707172411527 0 1729.0 0.35927707172411527 1
gene  1 15 40 -0.7225903903006364 0 1730.0 -0.7225903903006364 1
gene  1 16 40 0.9416658458702012 0 1731.0 0.9416658458702012 1
gene  1 22 40 0.5098869244053644 0 1737.0 0.5098869244053644 1
gene  1 23 40 0.14190327112480405 0 1738.0 0.14190327112480405 1
gene  1 24 40 -0.8209972983532765 0 1739.0 -0.8209972983532765 1
gene  1 44 40 -0.33885301403773305 1 1759.0 -0.33885301403773305 1
gene  1 2 41 0.5093583677112206 0 1761.0 0.5093583677112206 1
gene  1 3 41 -0.703179078367734 0 1762.0 -0.703179078367734 1
gene  1 5 41 -0.17328546988974136 0 1764.0 -0.17328546988974136 1
gene  1 6 41 -0.43264733684426904 0 1765.0 -0.43264733684426904 1
gene  1 7 41 0.4377561544456353 0 1766.0 0.4377561544456353 1
gene  1 9 41 -0.7855540062479849 0 1768.0 -0.7855540062479849 1
gene  1 10 41 -0.8056316688785105 0 1769.0 -0.8056316688785105 1
gene  1 11 41 -0.5838086510113923 0 1770.0 -0.5838086510113923 1
gene  1 13 41 -0.46281382549313355 0 1772.0 -0.46281382549313355 1
gene  1 14 41 0.7757933732120709 0 1773.0 0.7757933732120709 1
gene  1 15 41 -0.3385554235332676 0 1774.0 -0.3385554235332676 1
gene  1 16 41 -0.9471391330384797 0 1775.0 -0.9471391330384797 1
gene  1 17 41 0.2619180457066388 0 1776.0 0.2619180457066388 1
gene  1 21 41 0.04666602225292282 0 1780.0 0.04666602225292282 1
gene  1 23 41 0.3917158437790573 0 1782.0 0.3917158437790573 1
gene  1 26 41 0.7468124865077872 0 1785.0 0.7468124865077872 1
gene  1 27 41 0.25193703252154687 0 1786.0 0.25193703252154687 1
gene  1 29 41 -0.7151086329891513 0 1788.0 -0.7151086329891513 1
gene  1 30 41 -0.8711143734363032 0 1789.0 -0.8711143734363032 1
gene  1 41 41 -0.6826619032891842 1 1800.0 -0.6826619032891842 1
gene  1 42 41 -0.9278824558834943 1 1801.0 -0.9278824558834943 1
gene  1 44 41 -0.22211208886649192 1 1803.0 -0.22211208886649192 1
gene  1 1 42 0.8072384864959405 0 1804.0 0.8072384864959405 1
gene  1 3 42 -0.9778761030561279 0 1806.0 -0.9778761030561279 1
gene  1 4 42 -0.9680619241144442 0 1807.0 -0.9680619241144442 1
gene  1 6 42 0.7310101699189708 0 1809.0 0.7310101699189708 1
gene  1 7 42 0.7787281789111051 0 1810.0 0.7787281789111051 1
gene  1 8 42 -0.10257361338818605 0 1811.0 -0.10257361338818605 1
gene  1 10 42 0.39636403360352446 0 1813.0 0.39636403360352446 1
gene  1 11 42 -0.024264927266208547 0 1814.0 -0.024264927266208547 1
gene  1 14 42 -0.15807064544486094 0 1817.0 -0.15807064544486094 1
gene  1 16 42 -0.9628869349662054 0 1819.0 -0.9628869349662054 1
gene  1 20 42 0.24916596407636082 0 1823.0 0.24916596407636082 1
gene  1 22 42 -0.5192764819662633 0 1825.0 -0.5192764819662633 1
gene  1 23 42 0.3256985049241099 0 1826.0 0.3256985049241099 1
gene  1 28 42 0.17621633288987826 0 1831.0 0.17621633288987826 1
gene  1 29 42 -0.7705758231681284 0 1832.0 -0.7705758231681284 1
gene  1 40 42 -0.3081123510451792 0 1843.0 -0.3081123510451792 1
gene  1 1 43 -0.34812909478136567 0 1848.0 -0.34812909478136567 1
gene  1 4 43 0.35180867516783865 0 1851.0 0.35180867516783865 1
gene  1 5 43 0.03519865457076943 0 1852.0 0.03519865457076943 1
gene  1 7 43 -0.01313918793074298 0 1854.0 -0.01313918793074298 1
gene  1 8 43 -0.24525742897745617 0 1855.0 -0.24525742897745617 1
gene  1 11 43 -0.2502589353869923 0 1858.0 -0.2502589353869923 1
gene  1 13 43 -0.18660427337844787 0 1860.0 -0.18660427337844787 1
gene  1 14 43 -0.42101559281787226 0 1861.0 -0.42101559281787226 1
gene  1 20 43 -0.08179703574580577 0 1867.0 -0.08179703574580577 1
gene  1 23 43 0.5412678425014925 0 1870.0 0.5412678425014925 1
gene  1 24 43 -0.780812490624888 0 1871.0 -0.780812490624888 1
gene  1 25 43 -0.6639045414675848 0 1872.0 -0.6639045414675848 1
gene  1 26 43 0.5177242774820179 0 1873.0 0.5177242774820179 1
gene  1 28 43 -0.14825130170264422 0 1875.0 -0.14825130170264422 1
gene  1 39 43 -0.3703998179032988 0 1886.0 -0.3703998179032988 1
gene  1 40 43 -0.4335037510481967 0 1887.0 -0.4335037510481967 1
gene  1 42 43 -0.8113643489036891 0 1889.0 -0.8113643489036891 1
gene  1 43 43 -0.940280544840164 1 1890.0 -0.940280544840164 1
gene  1 44 43 0.7736588654579658 1 1891.0 0.7736588654579658 1
gene  1 4 44 -0.7868604621915432 0 1895.0 -0.7868604621915432 1
gene  1 5 44 -0.36478535176330895 0 1896.0 -0.36478535176330895 1
gene  1 7 44 0.6823192877715206 0 1898.0 0.6823192877715206 1
gene  1 9 44 0.9963623987797308 0 1900.0 0.9963623987797308 1
gene  1 11 44 -0.40109759778355414 0 1902.0 -0.40109759778355414 1
gene  1 14 44 -0.8721330096622123 0 1905.0 -0.8721330096622123 1
gene  1 15 44 -0.6066617641618095 0 1906.0 -0.6066617641618095 1
gene  1 16 44 -0.5472321722336398 0 1907.0 -0.5472321722336398 1
gene  1 17 44 0.1971701588676481 0 1908.0 0.1971701588676481 1
gene  1 18 44 0.7245138757188465 0 1909.0 0.7245138757188465 1
gene  1 22 44 0.9415940227683597 0 1913.0 0.9415940227683597 1
gene  1 23 44 -0.682695809810871 0 1914.0 -0.682695809810871 1
gene  1 25 44 -0.5425088566147939 0 1916.0 -0.5425088566147939 1
gene  1 27 44 0.146465469834828 0 1918.0 0.146465469834828 1
gene  1 41 44 0.9941992440041908 0 1932.0 0.9941992440041908 1
gene  1 42 44 0.6868157384661897 0 1933.0 0.6868157384661897 1
gene  1 43 44 0.3926799525782718 0 1934.0 0.3926799525782718 1
gene  1 44 44 -0.3047566551884028 1 1935.0 -0.3047566551884028 1
genomeend 3
