genomestart  0
trait 1 0.0 0.0 0.0 0.0 0.0 0.0 0.0 0.0 
node 1 1 1 1
node 2 1 1 1
node 3 1 1 1
node 4 1 1 1
node 5 1 1 1
node 6 1 1 1
node 7 1 1 1
node 8 1 1 1
node 9 1 1 1
node 10 1 1 1
node 11 1 1 1
node 12 1 1 1
node 13 1 1 1
node 14 1 1 1
node 15 1 1 1
node 16 1 1 1
node 17 1 1 1
node 18 1 1 1
node 19 1 1 1
node 20 1 1 1
node 21 1 1 1
node 22 1 1 1
node 23 1 1 1
node 24 1 1 1
node 25 1 1 1
node 26 1 1 1
node 27 1 1 1
node 28 1 1 3
node 39 1 0 2
node 40 1 0 2
node 41 1 0 2
node 42 1 0 2
node 43 1 0 2
node 44 1 0 2
gene  1 2 39 0.1585887058226063 0 1673.0 0.1585887058226063 1
gene  1 4 39 0.054267094485504375 0 1675.0 0.054267094485504375 1
gene  1 5 39 -0.2051406254725998 0 1676.0 -0.2051406254725998 1
gene  1 6 39 0.22367909750914516 0 1677.0 0.22367909750914516 1
gene  1 7 39 0.7032982518396236 0 1678.0 0.7032982518396236 1
gene  1 9 39 0.5039395177929277 0 1680.0 0.5039395177929277 1
gene  1 12 39 -0.6491102227908961 0 1683.0 -0.6491102227908961 1
gene  1 13 39 -0.02478640575749136 0 1684.0 -0.02478640575749136 1
gene  1 14 39 0.2687427868821739 0 1685.0 0.2687427868821739 1
gene  1 15 39 -0.9651561552784547 0 1686.0 -0.9651561552784547 1
gene  1 17 39 0.9819014584637407 0 1688.0 0.9819014584637407 1
gene  1 19 39 -0.10530404152814854 0 1690.0 -0.10530404152814854 1
gene  1 20 39 0.48599473542016547 0 1691.0 0.48599473542016547 1
gene  1 21 39 0.08027932932061255 0 1692.0 0.08027932932061255 1
gene  1 22 39 0.047304629379229635 0 1693.0 0.047304629379229635 1
gene  1 24 39 -0.7118130837183295 0 1695.0 -0.7118130837183295 1
gene  1 25 39 0.31071087146557697 0 1696.0 0.31071087146557697 1
gene  1 39 39 -0.15047024479551352 1 1710.0 -0.15047024479551352 1
gene  1 40 39 0.3752696099903787 1 1711.0 0.3752696099903787 1
gene  1 42 39 0.9109855535460464 1 1713.0 0.9109855535460464 1
gene  1 44 39 0.05608723807026206 1 1715.0 0.05608723807026206 1
gene  1 1 40 0.1463561758225841 0 1716.0 0.1463561758225841 1
gene  1 2 40 0.28951482026412634 0 1717.0 0.28951482026412634 1
gene  1 4 40 -0.6893202712993429 0 1719.0 -0.6893202712993429 1
gene  1 7 40 -0.9551403066849942 0 1722.0 -0.9551403066849942 1
gene  1 12 40 0.5195054376174626 0 1727.0 0.5195054376174626 1
gene  1 13 40 0.9776068846828558 0 1728.0 0.9776068846828558 1
gene  1 16 40 0.5921518703578253 0 1731.0 0.5921518703578253 1
gene  1 19 40 0.12390388057590929 0 1734.0 0.12390388057590929 1
gene  1 20 40 0.286995327481835 0 1735.0 0.286995327481835 1
gene  1 21 40 0.09963209743652501 0 1736.0 0.09963209743652501 1
gene  1 22 40 -0.6774804855522317 0 1737.0 -0.6774804855522317 1
gene  1 23 40 -0.15197805282683108 0 1738.0 -0.15197805282683108 1
gene  1 24 40 -0.38943789127163697 0 1739.0 -0.38943789127163697 1
gene  1 28 40 0.5354628237341665 0 1743.0 0.5354628237341665 1
gene  1 39 40 -0.7776725735306407 0 1754.0 -0.7776725735306407 1
gene  1 42 40 -0.8249923573738617 1 1757.0 -0.8249923573738617 1
gene  1 43 40 -0.4018729930735624 1 1758.0 -0.4018729930735624 1
gene  1 4 41 -0.8065556420675124 0 1763.0 -0.8065556420675124 1
gene  1 6 41 0.2978353805454309 0 1765.0 0.2978353805454309 1
gene  1 7 41 -0.7523326429874577 0 1766.0 -0.7523326429874577 1
gene  1 8 41 -0.5032357541468175 0 1767.0 -0.5032357541468175 1
gene  1 9 41 -0.08451748218887534 0 1768.0 -0.08451748218887534 1
gene  1 10 41 -0.6596455448800819 0 1769.0 -0.6596455448800819 1
gene  1 12 41 0.2346881820885478 0 1771.0 0.2346881820885478 1
gene  1 13 41 -0.8018206243079835 0 1772.0 -0.8018206243079835 1
gene  1 14 41 -0.40304214281188344 0 1773.0 -0.40304214281188344 1
gene  1 16 41 -0.6964682588656995 0 1775.0 -0.6964682588656995 1
gene  1 17 41 -0.34573397529445726 0 1776.0 -0.34573397529445726 1
gene  1 18 41 -0.9613366511879088 0 1777.0 -0.9613366511879088 1
gene  1 20 41 -0.2193173994365223 0 1779.0 -0.2193173994365223 1
gene  1 25 41 -0.7894635716525229 0 1784.0 -0.7894635716525229 1
gene  1 26 41 0.44108326922563723 0 1785.0 0.44108326922563723 1
gene  1 28 41 -0.786689786219249 0 1787.0 -0.786689786219249 1
gene  1 40 41 -0.18208237335239397 0 1799.0 -0.18208237335239397 1
gene  1 42 41 -0.8216420204384446 1 1801.0 -0.8216420204384446 1
gene  1 43 41 -0.6504066903547232 1 1802.0 -0.6504066903547232 1
gene  1 44 41 -0.3943314463007823 1 1803.0 -0.3943314463007823 1
gene  1 2 42 -0.3219931598348802 0 1805.0 -0.3219931598348802 1
gene  1 3 42 -0.4309798393165011 0 1806.0 -0.4309798393165011 1
gene  1 4 42 0.09457678786911927 0 1807.0 0.09457678786911927 1
gene  1 5 42 -0.6145374250947414 0 1808.0 -0.6145374250947414 1
gene  1 7 42 0.7110281647413802 0 1810.0 0.7110281647413802 1
gene  1 9 42 0.9250862492969977 0 1812.0 0.9250862492969977 1
gene  1 12 42 0.82249396777567 0 1815.0 0.82249396777567 1
gene  1 13 42 0.8298700860326761 0 1816.0 0.8298700860326761 1
gene  1 14 42 -0.3759044979534254 0 1817.0 -0.3759044979534254 1
gene  1 16 42 0.2357572869568214 0 1819.0 0.2357572869568214 1
gene  1 17 42 -0.7398863218959738 0 1820.0 -0.7398863218959738 1
gene  1 20 42 0.9447423816746934 0 1823.0 0.9447423816746934 1
gene  1 22 42 -0.18982614516365193 0 1825.0 -0.18982614516365193 1
gene  1 24 42 -0.6461557784505455 0 1827.0 -0.6461557784505455 1
gene  1 25 42 0.04723772850735064 0 1828.0 0.04723772850735064 1
gene  1 27 42 0.1767333027364122 0 1830.0 0.1767333027364122 1
gene  1 39 42 -0.010666771088462035 0 1842.0 -0.010666771088462035 1
gene  1 40 42 -0.7172993443163812 0 1843.0 -0.7172993443163812 1
gene  1 41 42 -0.09284247290891923 0 1844.0 -0.09284247290891923 1
gene  1 42 42 -0.8542658922905708 1 1845.0 -0.8542658922905708 1
gene  1 44 42 -0.24459694098645524 1 1847.0 -0.24459694098645524 1
gene  1 2 43 -0.9218720436050676 0 1849.0 -0.9218720436050676 1
gene  1 4 43 0.7409425372695818 0 1851.0 0.7409425372695818 1
gene  1 5 43 -0.062489373054768094 0 1852.0 -0.062489373054768094 1
gene  1 10 43 0.6642705918422327 0 1857.0 0.6642705918422327 1
gene  1 15 43 -0.3068247766989163 0 1862.0 -0.3068247766989163 1
gene  1 18 43 0.7494845789269828 0 1865.0 0.7494845789269828 1
gene  1 19 43 -0.3866201637405392 0 1866.0 -0.3866201637405392 1
gene  1 23 43 0.9314320812216904 0 1870.0 0.9314320812216904 1
gene  1 24 43 0.9433979871930799 0 1871.0 0.9433979871930799 1
gene  1 25 43 0.6271202063666428 0 1872.0 0.6271202063666428 1
gene  1 41 43 -0.9183824595229548 0 1888.0 -0.9183824595229548 1
gene  1 42 43 0.20601397903959118 0 1889.0 0.20601397903959118 1
gene  1 44 43 -0.6725627042779709 1 1891.0 -0.6725627042779709 1
gene  1 4 44 0.608921876074779 0 1895.0 0.608921876074779 1
gene  1 5 44 0.2972109719051913 0 1896.0 0.2972109719051913 1
gene  1 9 44 0.16766283628530376 0 1900.0 0.16766283628530376 1
gene  1 11 44 0.4507859979721526 0 1902.0 0.4507859979721526 1
gene  1 12 44 0.853532905862906 0 1903.0 0.853532905862906 1
gene  1 14 44 -0.7060751801384816 0 1905.0 -0.7060751801384816 1
gene  1 18 44 0.040724440147064445 0 1909.0 0.040724440147064445 1
gene  1 19 44 0.47770822667866975 0 1910.0 0.47770822667866975 1
gene  1 20 44 -0.5541186721213829 0 1911.0 -0.5541186721213829 1
gene  1 21 44 0.2065716061075933 0 1912.0 0.2065716061075933 1
gene  1 24 44 0.9689887059368992 0 1915.0 0.9689887059368992 1
gene  1 25 44 -0.8228774710450074 0 1916.0 -0.8228774710450074 1
gene  1 27 44 0.18892222041938334 0 1918.0 0.18892222041938334 1
gene  1 28 44 0.5255949198419857 0 1919.0 0.5255949198419857 1
gene  1 39 44 -0.6102558101721426 0 1930.0 -0.6102558101721426 1
gene  1 40 44 0.839093101102482 0 1931.0 0.839093101102482 1
genomeend 0
genomestart  1
trait 1 0.0 0.0 0.0 0.0 0.0 0.0 0.0 0.0 
node 1 1 1 1
node 2 1 1 1
node 3 1 1 1
node 4 1 1 1
node 5 1 1 1
node 6 1 1 1
node 7 1 1 1
node 8 1 1 1
node 9 1 1 1
node 10 1 1 1
node 11 1 1 1
node 12 1 1 1
node 13 1 1 1
node 14 1 1 1
node 15 1 1 1
node 16 1 1 1
node 17 1 1 1
node 18 1 1 1
node 19 1 1 1
node 20 1 1 1
node 21 1 1 1
node 22 1 1 1
node 23 1 1 1
node 24 1 1 1
node 25 1 1 1
node 26 1 1 1
node 27 1 1 1
node 28 1 1 3
node 29 1 0 0
node 30 1 0 0
node 31 1 0 0
node 32 1 0 0
node 33 1 0 0
node 34 1 0 0
node 35 1 0 0
node 36 1 0 0
node 37 1 0 0
node 39 1 0 2
node 40 1 0 2
node 41 1 0 2
node 42 1 0 2
node 43 1 0 2
node 44 1 0 2
gene  1 1 29 -0.34013707940634685 0 1232.0 -0.34013707940634685 1
gene  1 2 29 0.3600772041141891 0 1233.0 0.3600772041141891 1
gene  1 3 29 0.0677022060260466 0 1234.0 0.0677022060260466 1
gene  1 5 29 0.9126767847163308 0 1236.0 0.9126767847163308 1
gene  1 6 29 0.9727967603464295 0 1237.0 0.9727967603464295 1
gene  1 7 29 -0.6998964185174728 0 1238.0 -0.6998964185174728 1
gene  1 9 29 -0.7879297176388343 0 1240.0 -0.7879297176388343 1
gene  1 10 29 0.6873836739740999 0 1241.0 0.6873836739740999 1
gene  1 19 29 0.004571842422548267 0 1250.0 0.004571842422548267 1
gene  1 20 29 0.18372950256606957 0 1251.0 0.18372950256606957 1
gene  1 23 29 -0.4909128788203845 0 1254.0 -0.4909128788203845 1
gene  1 24 29 0.4828585418549589 0 1255.0 0.4828585418549589 1
gene  1 25 29 -0.5611475941756008 0 1256.0 -0.5611475941756008 1
gene  1 28 29 -0.6097093041622949 0 1259.0 -0.6097093041622949 1
gene  1 29 29 0.11805321374100397 1 1260.0 0.11805321374100397 1
gene  1 30 29 0.5455530510442036 1 1261.0 0.5455530510442036 1
gene  1 31 29 0.3330588136330024 1 1262.0 0.3330588136330024 1
gene  1 33 29 -0.2914258167119754 1 1264.0 -0.2914258167119754 1
gene  1 40 29 -0.39081160648173274 1 1271.0 -0.39081160648173274 1
gene  1 41 29 0.39587679708027657 1 1272.0 0.39587679708027657 1
gene  1 1 30 -0.7290296643799331 0 1276.0 -0.7290296643799331 1
gene  1 6 30 0.013375199145198358 0 1281.0 0.013375199145198358 1
gene  1 8 30 0.03653767924371487 0 1283.0 0.03653767924371487 1
gene  1 11 30 0.09156816370031429 0 1286.0 0.09156816370031429 1
gene  1 12 30 0.39993275006770346 0 1287.0 0.39993275006770346 1
gene  1 13 30 0.5853651041553473 0 1288.0 0.5853651041553473 1
gene  1 16 30 0.9928705662045308 0 1291.0 0.9928705662045308 1
gene  1 17 30 -0.15069550383396924 0 1292.0 -0.15069550383396924 1
gene  1 19 30 0.46490349750975357 0 1294.0 0.46490349750975357 1
gene  1 24 30 0.6257285150373034 0 1299.0 0.6257285150373034 1
gene  1 25 30 0.8944701665011191 0 1300.0 0.8944701665011191 1
gene  1 27 30 -0.2619456149802425 0 1302.0 -0.2619456149802425 1
gene  1 32 30 -0.9417126047696387 1 1307.0 -0.9417126047696387 1
gene  1 33 30 0.9234014539127086 1 1308.0 0.9234014539127086 1
gene  1 34 30 0.9284351974973483 1 1309.0 0.9284351974973483 1
gene  1 35 30 0.6262447636543577 1 1310.0 0.6262447636543577 1
gene  1 36 30 -0.5693854664868526 1 1311.0 -0.5693854664868526 1
gene  1 41 30 0.4095118116177203 1 1316.0 0.4095118116177203 1
gene  1 42 30 0.19512143644393098 1 1317.0 0.19512143644393098 1
gene  1 43 30 -0.14242914776258186 1 1318.0 -0.14242914776258186 1
gene  1 44 30 0.8976151743637708 1 1319.0 0.8976151743637708 1
gene  1 8 31 0.25873861860563385 0 1327.0 0.25873861860563385 1
gene  1 11 31 0.631732048091658 0 1330.0 0.631732048091658 1
gene  1 15 31 0.7302060715796773 0 1334.0 0.7302060715796773 1
gene  1 16 31 0.9869720165571988 0 1335.0 0.9869720165571988 1
gene  1 18 31 0.5223429580377967 0 1337.0 0.5223429580377967 1
gene  1 21 31 0.8714246535288279 0 1340.0 0.8714246535288279 1
gene  1 22 31 -0.7949696423819892 0 1341.0 -0.7949696423819892 1
gene  1 23 31 -0.6453667134522507 0 1342.0 -0.6453667134522507 1
gene  1 25 31 -0.5358245655081836 0 1344.0 -0.5358245655081836 1
gene  1 26 31 -0.8170547820890074 0 1345.0 -0.8170547820890074 1
gene  1 27 31 0.20947697916649066 0 1346.0 0.20947697916649066 1
gene  1 28 31 -0.9456567284453462 0 1347.0 -0.9456567284453462 1
gene  1 29 31 -0.9463803715010028 0 1348.0 -0.9463803715010028 1
gene  1 30 31 -0.32421989513087024 0 1349.0 -0.32421989513087024 1
gene  1 32 31 0.6046452150462974 1 1351.0 0.6046452150462974 1
gene  1 33 31 0.9995433788664082 1 1352.0 0.9995433788664082 1
gene  1 34 31 0.854866450138599 1 1353.0 0.854866450138599 1
gene  1 37 31 0.0030169238361283934 1 1356.0 0.0030169238361283934 1
gene  1 39 31 -0.22287035906533958 1 1358.0 -0.22287035906533958 1
gene  1 40 31 0.0737211607520285 1 1359.0 0.0737211607520285 1
gene  1 41 31 -0.28429880813601194 1 1360.0 -0.28429880813601194 1
gene  1 43 31 0.47379771251908187 1 1362.0 0.47379771251908187 1
gene  1 3 32 0.9487374833954136 0 1366.0 0.9487374833954136 1
gene  1 4 32 -0.14220896417558238 0 1367.0 -0.14220896417558238 1
gene  1 6 32 -0.976957123362957 0 1369.0 -0.976957123362957 1
gene  1 7 32 -0.33298629861805584 0 1370.0 -0.33298629861805584 1
gene  1 11 32 0.35961154398026696 0 1374.0 0.35961154398026696 1
gene  1 13 32 0.6873946275491161 0 1376.0 0.6873946275491161 1
gene  1 15 32 0.6241326016301354 0 1378.0 0.6241326016301354 1
gene  1 16 32 0.9063762431258094 0 1379.0 0.9063762431258094 1
gene  1 20 32 0.057562011460848606 0 1383.0 0.057562011460848606 1
gene  1 22 32 0.8519090551212123 0 1385.0 0.8519090551212123 1
gene  1 24 32 -0.7701241944422564 0 1387.0 -0.7701241944422564 1
gene  1 25 32 -0.5667927344610367 0 1388.0 -0.5667927344610367 1
gene  1 28 32 0.08895460998809546 0 1391.0 0.08895460998809546 1
gene  1 31 32 0.061241904318804496 0 1394.0 0.061241904318804496 1
gene  1 32 32 -0.2632393662092325 1 1395.0 -0.2632393662092325 1
gene  1 34 32 -0.8699978296403852 1 1397.0 -0.8699978296403852 1
gene  1 35 32 0.722784432145501 1 1398.0 0.722784432145501 1
gene  1 39 32 0.6871182958298979 1 1402.0 0.6871182958298979 1
gene  1 43 32 -0.6936836656493415 1 1406.0 -0.6936836656493415 1
gene  1 44 32 0.08852690150040876 1 1407.0 0.08852690150040876 1
gene  1 4 33 -0.1467461898457788 0 1411.0 -0.1467461898457788 1
gene  1 5 33 -0.7050521503216479 0 1412.0 -0.7050521503216479 1
gene  1 6 33 -0.43808215557674957 0 1413.0 -0.43808215557674957 1
gene  1 9 33 0.3909329740443822 0 1416.0 0.3909329740443822 1
gene  1 12 33 0.01383599952998571 0 1419.0 0.01383599952998571 1
gene  1 21 33 -0.16402796853398272 0 1428.0 -0.16402796853398272 1
gene  1 22 33 0.8840996064038127 0 1429.0 0.8840996064038127 1
gene  1 23 33 0.08872554249939768 0 1430.0 0.08872554249939768 1
gene  1 24 33 0.10402414808110494 0 1431.0 0.10402414808110494 1
gene  1 25 33 0.47666632820161703 0 1432.0 0.47666632820161703 1
gene  1 26 33 0.03172313525502879 0 1433.0 0.03172313525502879 1
gene  1 27 33 0.14203062647227604 0 1434.0 0.14203062647227604 1
gene  1 29 33 0.3866756555043426 0 1436.0 0.3866756555043426 1
gene  1 33 33 0.44609871483740426 1 1440.0 0.44609871483740426 1
gene  1 35 33 -0.840122360664299 1 1442.0 -0.840122360664299 1
gene  1 39 33 -0.7364636013544148 1 1446.0 -0.7364636013544148 1
gene  1 40 33 0.32074487520443207 1 1447.0 0.32074487520443207 1
gene  1 41 33 0.7595943603666502 1 1448.0 0.7595943603666502 1
gene  1 44 33 -0.5248676827610385 1 1451.0 -0.5248676827610385 1
gene  1 1 34 -0.8985558294483729 0 1452.0 -0.8985558294483729 1
gene  1 2 34 -0.5115279447540239 0 1453.0 -0.5115279447540239 1
gene  1 11 34 0.6340935522435627 0 1462.0 0.6340935522435627 1
gene  1 12 34 0.10829774307265427 0 1463.0 0.10829774307265427 1
gene  1 14 34 -0.15785165416252345 0 1465.0 -0.15785165416252345 1
gene  1 16 34 0.6644920936045798 0 1467.0 0.6644920936045798 1
gene  1 19 34 0.9274374546410928 0 1470.0 0.9274374546410928 1
gene  1 21 34 -0.21899261555106564 0 1472.0 -0.21899261555106564 1
gene  1 24 34 -0.46490683438026603 0 1475.0 -0.46490683438026603 1
gene  1 26 34 0.8073596482812417 0 1477.0 0.8073596482812417 1
gene  1 28 34 0.41034462714149955 0 1479.0 0.41034462714149955 1
gene  1 29 34 0.742009992674102 0 1480.0 0.742009992674102 1
gene  1 31 34 0.38216270207640735 0 1482.0 0.38216270207640735 1
gene  1 33 34 -0.7695269505137893 0 1484.0 -0.7695269505137893 1
gene  1 34 34 -0.9040449969359642 1 1485.0 -0.9040449969359642 1
gene  1 36 34 0.9915380915507325 1 1487.0 0.9915380915507325 1
gene  1 37 34 0.8472056928143563 1 1488.0 0.8472056928143563 1
gene  1 40 34 0.05073981838253383 1 1491.0 0.05073981838253383 1
gene  1 41 34 -0.5497962259474043 1 1492.0 -0.5497962259474043 1
gene  1 43 34 -0.6480418285341134 1 1494.0 -0.6480418285341134 1
gene  1 44 34 -0.10528926870197575 1 1495.0 -0.10528926870197575 1
gene  1 7 35 0.22579739502465757 0 1502.0 0.22579739502465757 1
gene  1 11 35 -0.8089995634566899 0 1506.0 -0.8089995634566899 1
gene  1 13 35 0.5433372322609912 0 1508.0 0.5433372322609912 1
gene  1 15 35 0.1821076736767855 0 1510.0 0.1821076736767855 1
gene  1 16 35 -0.525362025545427 0 1511.0 -0.525362025545427 1
gene  1 19 35 0.662906380015707 0 1514.0 0.662906380015707 1
gene  1 21 35 -0.24420473125442888 0 1516.0 -0.24420473125442888 1
gene  1 22 35 0.15245847139568736 0 1517.0 0.15245847139568736 1
gene  1 25 35 0.9205326083768056 0 1520.0 0.9205326083768056 1
gene  1 26 35 -0.4524376065390655 0 1521.0 -0.4524376065390655 1
gene  1 28 35 -0.26740408136227745 0 1523.0 -0.26740408136227745 1
gene  1 30 35 -0.5112768467252182 0 1525.0 -0.5112768467252182 1
gene  1 32 35 -0.9958889440719166 0 1527.0 -0.9958889440719166 1
gene  1 33 35 -0.48177722035529513 0 1528.0 -0.48177722035529513 1
gene  1 34 35 -0.12991374872781325 0 1529.0 -0.12991374872781325 1
gene  1 35 35 0.8981088435567742 1 1530.0 0.8981088435567742 1
gene  1 37 35 -0.8068060415387384 1 1532.0 -0.8068060415387384 1
gene  1 39 35 -0.8113774549913675 1 1534.0 -0.8113774549913675 1
gene  1 40 35 -0.5058942448468813 1 1535.0 -0.5058942448468813 1
gene  1 41 35 0.9138258347699797 1 1536.0 0.9138258347699797 1
gene  1 42 35 0.32591351122073364 1 1537.0 0.32591351122073364 1
gene  1 44 35 0.040924550361215006 1 1539.0 0.040924550361215006 1
gene  1 2 36 -0.7186502661967945 0 1541.0 -0.7186502661967945 1
gene  1 4 36 -0.620559813011522 0 1543.0 -0.620559813011522 1
gene  1 5 36 0.6439582773804721 0 1544.0 0.6439582773804721 1
gene  1 7 36 -0.5816402928120735 0 1546.0 -0.5816402928120735 1
gene  1 10 36 -0.06849945226063336 0 1549.0 -0.06849945226063336 1
gene  1 14 36 0.7756205448576865 0 1553.0 0.7756205448576865 1
gene  1 18 36 -0.8147130557147779 0 1557.0 -0.8147130557147779 1
gene  1 20 36 0.23788546815455536 0 1559.0 0.23788546815455536 1
gene  1 21 36 0.9970778048476175 0 1560.0 0.9970778048476175 1
gene  1 23 36 0.83258084839354 0 1562.0 0.83258084839354 1
gene  1 24 36 0.7440291768195875 0 1563.0 0.7440291768195875 1
gene  1 27 36 0.45511387345906207 0 1566.0 0.45511387345906207 1
gene  1 28 36 0.4607314019670432 0 1567.0 0.4607314019670432 1
gene  1 31 36 -0.0847011115936791 0 1570.0 -0.0847011115936791 1
gene  1 32 36 0.30110550897975275 0 1571.0 0.30110550897975275 1
gene  1 36 36 0.48640177320697797 1 1575.0 0.48640177320697797 1
gene  1 37 36 0.760145027887954 1 1576.0 0.760145027887954 1
gene  1 40 36 -0.03619390585512683 1 1579.0 -0.03619390585512683 1
gene  1 41 36 0.46635584579158107 1 1580.0 0.46635584579158107 1
gene  1 42 36 0.9215228457639344 1 1581.0 0.9215228457639344 1
gene  1 44 36 -0.31449603210494304 1 1583.0 -0.31449603210494304 1
gene  1 1 37 -0.5961725411399081 0 1584.0 -0.5961725411399081 1
gene  1 3 37 0.7751001460695609 0 1586.0 0.7751001460695609 1
gene  1 4 37 0.4962067370429163 0 1587.0 0.4962067370429163 1
gene  1 5 37 0.8248314321913085 0 1588.0 0.8248314321913085 1
gene  1 6 37 0.10101982329112424 0 1589.0 0.10101982329112424 1
gene  1 10 37 -0.12925180827347005 0 1593.0 -0.12925180827347005 1
gene  1 12 37 -0.13703344389334782 0 1595.0 -0.13703344389334782 1
gene  1 14 37 -0.026055079460943653 0 1597.0 -0.026055079460943653 1
gene  1 15 37 0.5077696966336712 0 1598.0 0.5077696966336712 1
gene  1 17 37 0.6491675243587431 0 1600.0 0.6491675243587431 1
gene  1 18 37 0.628481056863232 0 1601.0 0.628481056863232 1
gene  1 19 37 -0.8472605744220789 0 1602.0 -0.8472605744220789 1
gene  1 20 37 -0.5602051687972811 0 1603.0 -0.5602051687972811 1
gene  1 23 37 -0.1531893814652081 0 1606.0 -0.1531893814652081 1
gene  1 25 37 -0.7389347172195062 0 1608.0 -0.7389347172195062 1
gene  1 28 37 0.5879159607044854 0 1611.0 0.5879159607044854 1
gene  1 29 37 0.9289034009923315 0 1612.0 0.9289034009923315 1
gene  1 30 37 -0.9708366915209669 0 1613.0 -0.9708366915209669 1
gene  1 31 37 -0.7848332602385821 0 1614.0 -0.7848332602385821 1
gene  1 33 37 0.45872696758243814 0 1616.0 0.45872696758243814 1
gene  1 35 37 -0.5564432279128861 0 1618.0 -0.5564432279128861 1
gene  1 37 37 0.6141660780537794 1 1620.0 0.6141660780537794 1
gene  1 42 37 0.4163020160627484 1 1625.0 0.4163020160627484 1
gene  1 43 37 -0.05138776195761163 1 1626.0 -0.05138776195761163 1
gene  1 44 37 -0.9113451820152177 1 1627.0 -0.9113451820152177 1
gene  1 1 39 -0.7069597868678994 0 1672.0 -0.7069597868678994 1
gene  1 3 39 -0.3901991176720596 0 1674.0 -0.3901991176720596 1
gene  1 4 39 -0.4957523512622821 0 1675.0 -0.4957523512622821 1
gene  1 6 39 -0.952828866521832 0 1677.0 -0.952828866521832 1
gene  1 9 39 0.9689431372560798 0 1680.0 0.9689431372560798 1
gene  1 10 39 0.5709629835568197 0 1681.0 0.5709629835568197 1
gene  1 12 39 0.9754851486804217 0 1683.0 0.9754851486804217 1
gene  1 13 39 -0.13881037858696055 0 1684.0 -0.13881037858696055 1
gene  1 16 39 -0.7973680804455587 0 1687.0 -0.7973680804455587 1
gene  1 17 39 -0.7263429282649794 0 1688.0 -0.7263429282649794 1
gene  1 19 39 -0.12760764324125096 0 1690.0 -0.12760764324125096 1
gene  1 20 39 0.24926412357803995 0 1691.0 0.24926412357803995 1
gene  1 23 39 -0.5156022909365274 0 1694.0 -0.5156022909365274 1
gene  1 25 39 0.5212502230364934 0 1696.0 0.5212502230364934 1
gene  1 26 39 0.6055583151366393 0 1697.0 0.6055583151366393 1
gene  1 27 39 0.5455508049581683 0 1698.0 0.5455508049581683 1
gene  1 28 39 -0.9617749014340197 0 1699.0 -0.9617749014340197 1
gene  1 29 39 -0.6626835988494717 0 1700.0 -0.6626835988494717 1
gene  1 32 39 0.6818071356792914 0 1703.0 0.6818071356792914 1
gene  1 33 39 0.41485745411541874 0 1704.0 0.41485745411541874 1
gene  1 34 39 0.17337453064016184 0 1705.0 0.17337453064016184 1
gene  1 37 39 -0.41293866570069737 0 1708.0 -0.41293866570069737 1
gene  1 40 39 -0.3814715387390404 1 1711.0 -0.3814715387390404 1
gene  1 41 39 0.15066937956443538 1 1712.0 0.15066937956443538 1
gene  1 44 39 0.2486651210857186 1 1715.0 0.2486651210857186 1
gene  1 1 40 0.7149566624981437 0 1716.0 0.7149566624981437 1
gene  1 2 40 0.9339020913927998 0 1717.0 0.9339020913927998 1
gene  1 7 40 0.5602362421304625 0 1722.0 0.5602362421304625 1
gene  1 8 40 0.4049524178077972 0 1723.0 0.4049524178077972 1
gene  1 12 40 -0.3074299913039943 0 1727.0 -0.3074299913039943 1
gene  1 13 40 0.7003491401461286 0 1728.0 0.7003491401461286 1
gene  1 14 40 0.2552211087244832 0 1729.0 0.2552211087244832 1
gene  1 15 40 0.03854248144719252 0 1730.0 0.03854248144719252 1
gene  1 16 40 -0.33976283302250865 0 1731.0 -0.33976283302250865 1
gene  1 17 40 -0.5624704835425546 0 1732.0 -0.5624704835425546 1
gene  1 22 40 0.530919013346573 0 1737.0 0.530919013346573 1
gene  1 24 40 -0.5625059389907006 0 1739.0 -0.5625059389907006 1
gene  1 25 40 -0.8166604655136172 0 1740.0 -0.8166604655136172 1
gene  1 26 40 -0.6528519945025903 0 1741.0 -0.6528519945025903 1
gene  1 28 40 -0.8532660986178107 0 1743.0 -0.8532660986178107 1
gene  1 30 40 0.6562900168221006 0 1745.0 0.6562900168221006 1
gene  1 33 40 -0.44434284800973367 0 1748.0 -0.44434284800973367 1
gene  1 36 40 -0.3735209323699269 0 1751.0 -0.3735209323699269 1
gene  1 37 40 0.003870118437929837 0 1752.0 0.003870118437929837 1
gene  1 40 40 -0.6153785918666921 1 1755.0 -0.6153785918666921 1
gene  1 41 40 -0.1473725493615129 1 1756.0 -0.1473725493615129 1
gene  1 1 41 -0.7146438285700625 0 1760.0 -0.7146438285700625 1
gene  1 2 41 -0.6558920432744542 0 1761.0 -0.6558920432744542 1
gene  1 3 41 -0.9085302425712583 0 1762.0 -0.9085302425712583 1
gene  1 10 41 0.2559570055052508 0 1769.0 0.2559570055052508 1
gene  1 12 41 -0.7705982448224176 0 1771.0 -0.7705982448224176 1
gene  1 13 41 0.5140860346467196 0 1772.0 0.5140860346467196 1
gene  1 14 41 -0.11294908117244029 0 1773.0 -0.11294908117244029 1
gene  1 16 41 -0.5043045046128403 0 1775.0 -0.5043045046128403 1
gene  1 18 41 0.10615154146095396 0 1777.0 0.10615154146095396 1
gene  1 20 41 0.5188248588330676 0 1779.0 0.5188248588330676 1
gene  1 22 41 0.7417561392331672 0 1781.0 0.7417561392331672 1
gene  1 23 41 0.9540373791383964 0 1782.0 0.9540373791383964 1
gene  1 26 41 -0.7876989928917495 0 1785.0 -0.7876989928917495 1
gene  1 27 41 -0.026539458818363282 0 1786.0 -0.026539458818363282 1
gene  1 29 41 0.35040162176768697 0 1788.0 0.35040162176768697 1
gene  1 31 41 0.4825170069454232 0 1790.0 0.4825170069454232 1
gene  1 32 41 -0.7339189102605451 0 1791.0 -0.7339189102605451 1
gene  1 35 41 0.2995982355499833 0 1794.0 0.2995982355499833 1
gene  1 39 41 -0.8156354574356015 0 1798.0 -0.8156354574356015 1
gene  1 40 41 -0.8208193257631742 0 1799.0 -0.8208193257631742 1
gene  1 41 41 -0.8116755622362066 1 1800.0 -0.8116755622362066 1
gene  1 43 41 0.2010336369959148 1 1802.0 0.2010336369959148 1
gene  1 44 41 -0.03815544691863937 1 1803.0 -0.03815544691863937 1
gene  1 2 42 -0.3534887298739189 0 1805.0 -0.3534887298739189 1
gene  1 4 42 0.29579880754199384 0 1807.0 0.29579880754199384 1
gene  1 6 42 0.24935387711678003 0 1809.0 0.24935387711678003 1
gene  1 9 42 -0.10327462175349855 0 1812.0 -0.10327462175349855 1
gene  1 10 42 -0.1124482325753765 0 1813.0 -0.1124482325753765 1
gene  1 11 42 -0.8991271817607402 0 1814.0 -0.8991271817607402 1
gene  1 14 42 -0.3734958932348348 0 1817.0 -0.3734958932348348 1
gene  1 15 42 -0.3274621356634627 0 1818.0 -0.3274621356634627 1
gene  1 16 42 -0.017778044374959667 0 1819.0 -0.017778044374959667 1
gene  1 17 42 -0.2699237967151321 0 1820.0 -0.2699237967151321 1
gene  1 18 42 -0.967196088522758 0 1821.0 -0.967196088522758 1
gene  1 19 42 0.6663605409406725 0 1822.0 0.6663605409406725 1
gene  1 20 42 -0.3925962801765802 0 1823.0 -0.3925962801765802 1
gene  1 21 42 0.3398475013532406 0 1824.0 0.3398475013532406 1
gene  1 22 42 -0.4969659193100978 0 1825.0 -0.4969659193100978 1
gene  1 23 42 -0.8151869991400214 0 1826.0 -0.8151869991400214 1
gene  1 24 42 0.858961100640825 0 1827.0 0.858961100640825 1
gene  1 25 42 0.11384112709350236 0 1828.0 0.11384112709350236 1
gene  1 26 42 0.7116259221852268 0 1829.0 0.7116259221852268 1
gene  1 29 42 -0.5079822458804959 0 1832.0 -0.5079822458804959 1
gene  1 30 42 0.7044133672662555 0 1833.0 0.7044133672662555 1
gene  1 32 42 -0.834717651615429 0 1835.0 -0.834717651615429 1
gene  1 33 42 -0.8490113655122941 0 1836.0 -0.8490113655122941 1
gene  1 34 42 0.1400489407878739 0 1837.0 0.1400489407878739 1
gene  1 35 42 -0.7892214787100473 0 1838.0 -0.7892214787100473 1
gene  1 36 42 -0.07539223664321193 0 1839.0 -0.07539223664321193 1
gene  1 37 42 0.4739314910797454 0 1840.0 0.4739314910797454 1
gene  1 40 42 0.8795663757221507 0 1843.0 0.8795663757221507 1
gene  1 41 42 -0.6841751190671187 0 1844.0 -0.6841751190671187 1
gene  1 42 42 0.34050479364683306 1 1845.0 0.34050479364683306 1
gene  1 43 42 -0.21952890223334598 1 1846.0 -0.21952890223334598 1
gene  1 44 42 -0.990600498871578 1 1847.0 -0.990600498871578 1
gene  1 1 43 -0.4263797823185608 0 1848.0 -0.4263797823185608 1
gene  1 2 43 0.5608635357541979 0 1849.0 0.5608635357541979 1
gene  1 5 43 0.6725128286750509 0 1852.0 0.6725128286750509 1
gene  1 6 43 0.6107438439068464 0 1853.0 0.6107438439068464 1
gene  1 7 43 -0.541280262417681 0 1854.0 -0.541280262417681 1
gene  1 9 43 0.2873460579149769 0 1856.0 0.2873460579149769 1
gene  1 15 43 0.5438666148915744 0 1862.0 0.5438666148915744 1
gene  1 16 43 0.7719879650487734 0 1863.0 0.7719879650487734 1
gene  1 17 43 -0.585316492056268 0 1864.0 -0.585316492056268 1
gene  1 19 43 -0.018629468358044354 0 1866.0 -0.018629468358044354 1
gene  1 21 43 0.6249709841483618 0 1868.0 0.6249709841483618 1
gene  1 22 43 0.942097393375308 0 1869.0 0.942097393375308 1
gene  1 23 43 -0.7442880459789031 0 1870.0 -0.7442880459789031 1
gene  1 24 43 -0.49676834161940664 0 1871.0 -0.49676834161940664 1
gene  1 25 43 -0.5409292233184854 0 1872.0 -0.5409292233184854 1
gene  1 27 43 0.8240393725325541 0 1874.0 0.8240393725325541 1
gene  1 29 43 -0.10365460292952333 0 1876.0 -0.10365460292952333 1
gene  1 31 43 -0.7779548890387005 0 1878.0 -0.7779548890387005 1
gene  1 33 43 0.09639288600381879 0 1880.0 0.09639288600381879 1
gene  1 34 43 -0.9706231909394667 0 1881.0 -0.9706231909394667 1
gene  1 35 43 -0.26147666032077754 0 1882.0 -0.26147666032077754 1
gene  1 40 43 -0.7189144916385873 0 1887.0 -0.7189144916385873 1
gene  1 41 43 0.8544046827986739 0 1888.0 0.8544046827986739 1
gene  1 42 43 0.9474854190466053 0 1889.0 0.9474854190466053 1
gene  1 44 43 0.45223337067894387 1 1891.0 0.45223337067894387 1
gene  1 1 44 0.2328184973971298 0 1892.0 0.2328184973971298 1
gene  1 2 44 -0.20761494906690103 0 1893.0 -0.20761494906690103 1
gene  1 4 44 -0.16637165590603675 0 1895.0 -0.16637165590603675 1
gene  1 6 44 0.30694123982649757 0 1897.0 0.30694123982649757 1
gene  1 7 44 -0.2672167199974218 0 1898.0 -0.2672167199974218 1
gene  1 10 44 -0.4774771562582538 0 1901.0 -0.4774771562582538 1
gene  1 12 44 0.07812689588862609 0 1903.0 0.07812689588862609 1
gene  1 15 44 0.605318123969354 0 1906.0 0.605318123969354 1
gene  1 17 44 0.1795651607505745 0 1908.0 0.1795651607505745 1
gene  1 18 44 -0.8163497071016151 0 1909.0 -0.8163497071016151 1
gene  1 19 44 -0.48611613917351726 0 1910.0 -0.48611613917351726 1
gene  1 23 44 0.7395403260911969 0 1914.0 0.7395403260911969 1
gene  1 27 44 -0.7570790682393563 0 1918.0 -0.7570790682393563 1
gene  1 29 44 0.8673679950024157 0 1920.0 0.8673679950024157 1
gene  1 30 44 0.25051937200293684 0 1921.0 0.25051937200293684 1
gene  1 31 44 0.26365521988342566 0 1922.0 0.26365521988342566 1
gene  1 36 44 0.004889289126739471 0 1927.0 0.004889289126739471 1
gene  1 37 44 -0.15691186476825314 0 1928.0 -0.15691186476825314 1
gene  1 39 44 0.39603046710015966 0 1930.0 0.39603046710015966 1
gene  1 41 44 -0.5520378873286308 0 1932.0 -0.5520378873286308 1
gene  1 43 44 -0.45219973352637555 0 1934.0 -0.45219973352637555 1
genomeend 1
genomestart  2
trait 1 0.0 0.0 0.0 0.0 0.0 0.0 0.0 0.0 
node 1 1 1 1
node 2 1 1 1
node 3 1 1 1
node 4 1 1 1
node 5 1 1 1
node 6 1 1 1
node 7 1 1 1
node 8 1 1 1
node 9 1 1 1
node 10 1 1 1
node 11 1 1 1
node 12 1 1 1
node 13 1 1 1
node 14 1 1 1
node 15 1 1 1
node 16 1 1 1
node 17 1 1 1
node 18 1 1 1
node 19 1 1 1
node 20 1 1 1
node 21 1 1 1
node 22 1 1 1
node 23 1 1 1
node 24 1 1 1
node 25 1 1 1
node 26 1 1 1
node 27 1 1 1
node 28 1 1 3
node 29 1 0 0
node 30 1 0 0
node 39 1 0 2
node 40 1 0 2
node 41 1 0 2
node 42 1 0 2
node 43 1 0 2
node 44 1 0 2
gene  1 6 29 0.8171478027544669 0 1237.0 0.8171478027544669 1
gene  1 7 29 -0.02699789141216269 0 1238.0 -0.02699789141216269 1
gene  1 11 29 -0.056057332961407136 0 1242.0 -0.056057332961407136 1
gene  1 12 29 -0.8729742148073519 0 1243.0 -0.8729742148073519 1
gene  1 13 29 -0.6235112436287493 0 1244.0 -0.6235112436287493 1
gene  1 15 29 0.12380784393511912 0 1246.0 0.12380784393511912 1
gene  1 17 29 -0.9604356615089029 0 1248.0 -0.9604356615089029 1
gene  1 18 29 -0.5340181995715467 0 1249.0 -0.5340181995715467 1
gene  1 19 29 0.10090362776391648 0 1250.0 0.10090362776391648 1
gene  1 21 29 0.8558755422709343 0 1252.0 0.8558755422709343 1
gene  1 39 29 -0.31846121302274444 1 1270.0 -0.31846121302274444 1
gene  1 40 29 -0.7841246107072455 1 1271.0 -0.7841246107072455 1
gene  1 44 29 -0.5870957560305111 1 1275.0 -0.5870957560305111 1
gene  1 3 30 0.9819492542948615 0 1278.0 0.9819492542948615 1
gene  1 6 30 -0.8008394374291969 0 1281.0 -0.8008394374291969 1
gene  1 8 30 -0.9092848005326314 0 1283.0 -0.9092848005326314 1
gene  1 11 30 -0.4599050249024792 0 1286.0 -0.4599050249024792 1
gene  1 12 30 0.32124070330923604 0 1287.0 0.32124070330923604 1
gene  1 13 30 0.6180455633878867 0 1288.0 0.6180455633878867 1
gene  1 14 30 0.8834235566509545 0 1289.0 0.8834235566509545 1
gene  1 21 30 0.551971210985715 0 1296.0 0.551971210985715 1
gene  1 23 30 0.6209102930612104 0 1298.0 0.6209102930612104 1
gene  1 27 30 -0.8471842238173705 0 1302.0 -0.8471842238173705 1
gene  1 28 30 -0.8283501478647753 0 1303.0 -0.8283501478647753 1
gene  1 29 30 -0.9967931753028074 0 1304.0 -0.9967931753028074 1
gene  1 30 30 -0.652950429568284 1 1305.0 -0.652950429568284 1
gene  1 39 30 0.34869755702903693 1 1314.0 0.34869755702903693 1
gene  1 40 30 -0.8190012157903149 1 1315.0 -0.8190012157903149 1
gene  1 41 30 0.4976145153763084 1 1316.0 0.4976145153763084 1
gene  1 42 30 0.2989654385233278 1 1317.0 0.2989654385233278 1
gene  1 43 30 -0.1731119897465988 1 1318.0 -0.1731119897465988 1
gene  1 44 30 -0.5013450200111161 1 1319.0 -0.5013450200111161 1
gene  1 3 39 -0.8286671659065643 0 1674.0 -0.8286671659065643 1
gene  1 4 39 -0.9132707463484099 0 1675.0 -0.9132707463484099 1
gene  1 5 39 0.01538123406564229 0 1676.0 0.01538123406564229 1
gene  1 6 39 0.5559028486470207 0 1677.0 0.5559028486470207 1
gene  1 8 39 -0.09702085743908251 0 1679.0 -0.09702085743908251 1
gene  1 9 39 0.27219483003640776 0 1680.0 0.27219483003640776 1
gene  1 11 39 0.0010264276322706767 0 1682.0 0.0010264276322706767 1
gene  1 12 39 0.08168731674715601 0 1683.0 0.08168731674715601 1
gene  1 14 39 -0.9020997823693472 0 1685.0 -0.9020997823693472 1
gene  1 16 39 -0.9761250381057605 0 1687.0 -0.9761250381057605 1
gene  1 18 39 0.9593860086234527 0 1689.0 0.9593860086234527 1
gene  1 19 39 -0.10380862633151822 0 1690.0 -0.10380862633151822 1
gene  1 22 39 -0.5024515984505368 0 1693.0 -0.5024515984505368 1
gene  1 23 39 0.9982357655516118 0 1694.0 0.9982357655516118 1
gene  1 24 39 0.0394425843999312 0 1695.0 0.0394425843999312 1
gene  1 30 39 -0.5302884858362371 0 1701.0 -0.5302884858362371 1
gene  1 39 39 0.6435919028208681 1 1710.0 0.6435919028208681 1
gene  1 43 39 0.81938503068408 1 1714.0 0.81938503068408 1
gene  1 1 40 0.5968321914694138 0 1716.0 0.5968321914694138 1
gene  1 4 40 -0.4538457163752171 0 1719.0 -0.4538457163752171 1
gene  1 10 40 0.009086228253682993 0 1725.0 0.009086228253682993 1
gene  1 11 40 0.07365471309400196 0 1726.0 0.07365471309400196 1
gene  1 12 40 -0.38008706264653924 0 1727.0 -0.38008706264653924 1
gene  1 14 40 0.963555971016927 0 1729.0 0.963555971016927 1
gene  1 15 40 -0.7562263399746812 0 1730.0 -0.7562263399746812 1
gene  1 16 40 -0.09660458754752344 0 1731.0 -0.09660458754752344 1
gene  1 17 40 -0.1826101654813237 0 1732.0 -0.1826101654813237 1
gene  1 18 40 -0.8971914271339125 0 1733.0 -0.8971914271339125 1
gene  1 19 40 0.19884260973638068 0 1734.0 0.19884260973638068 1
gene  1 21 40 0.1335471675360459 0 1736.0 0.1335471675360459 1
gene  1 22 40 0.9263977920356665 0 1737.0 0.9263977920356665 1
gene  1 26 40 0.8224416908866043 0 1741.0 0.8224416908866043 1
gene  1 39 40 0.048476519646306726 0 1754.0 0.048476519646306726 1
gene  1 44 40 -0.0649480812507085 1 1759.0 -0.0649480812507085 1
gene  1 1 41 -0.08556235991457428 0 1760.0 -0.08556235991457428 1
gene  1 2 41 -0.12570538292613886 0 1761.0 -0.12570538292613886 1
gene  1 6 41 0.3512003124019001 0 1765.0 0.3512003124019001 1
gene  1 9 41 0.34919912563151023 0 1768.0 0.34919912563151023 1
gene  1 13 41 -0.03308087914695823 0 1772.0 -0.03308087914695823 1
gene  1 14 41 -0.3492000811168554 0 1773.0 -0.3492000811168554 1
gene  1 16 41 0.22507146051973526 0 1775.0 0.22507146051973526 1
gene  1 18 41 0.9001663583647564 0 1777.0 0.9001663583647564 1
gene  1 19 41 0.25310017519228456 0 1778.0 0.25310017519228456 1
gene  1 20 41 -0.8361182044600245 0 1779.0 -0.8361182044600245 1
gene  1 21 41 0.06118200181856348 0 1780.0 0.06118200181856348 1
gene  1 22 41 -0.9106203859755563 0 1781.0 -0.9106203859755563 1
gene  1 24 41 -0.9631385379947871 0 1783.0 -0.9631385379947871 1
gene  1 28 41 0.6016837643956351 0 1787.0 0.6016837643956351 1
gene  1 29 41 -0.08251318257011087 0 1788.0 -0.08251318257011087 1
gene  1 30 41 0.22732548156578425 0 1789.0 0.22732548156578425 1
gene  1 40 41 -0.9545810357325544 0 1799.0 -0.9545810357325544 1
gene  1 42 41 -0.9743422591413757 1 1801.0 -0.9743422591413757 1
gene  1 44 41 -0.12671826564760846 1 1803.0 -0.12671826564760846 1
gene  1 2 42 0.9754866192659929 0 1805.0 0.9754866192659929 1
gene  1 4 42 -0.9142913965156485 0 1807.0 -0.9142913965156485 1
gene  1 5 42 0.5719187548061125 0 1808.0 0.5719187548061125 1
gene  1 7 42 -0.533288631916205 0 1810.0 -0.533288631916205 1
gene  1 12 42 0.33759434591681614 0 1815.0 0.33759434591681614 1
gene  1 13 42 0.022652914968914528 0 1816.0 0.022652914968914528 1
gene  1 14 42 -0.26526049353797865 0 1817.0 -0.26526049353797865 1
gene  1 16 42 -0.8584415455978336 0 1819.0 -0.8584415455978336 1
gene  1 17 42 0.004503467801028838 0 1820.0 0.004503467801028838 1
gene  1 18 42 -0.7309752467839115 0 1821.0 -0.7309752467839115 1
gene  1 20 42 -0.9063651649935608 0 1823.0 -0.9063651649935608 1
gene  1 21 42 -0.3330129646450424 0 1824.0 -0.3330129646450424 1
gene  1 22 42 0.046749386226992984 0 1825.0 0.046749386226992984 1
gene  1 23 42 -0.6604073833042697 0 1826.0 -0.6604073833042697 1
gene  1 24 42 -0.2758866968743031 0 1827.0 -0.2758866968743031 1
gene  1 26 42 -0.02452509744907505 0 1829.0 -0.02452509744907505 1
gene  1 29 42 0.18543301365339115 0 1832.0 0.18543301365339115 1
gene  1 30 42 0.0011006116669045607 0 1833.0 0.0011006116669045607 1
gene  1 40 42 0.24968350152677898 0 1843.0 0.24968350152677898 1
gene  1 41 42 -0.3036865035725024 0 1844.0 -0.3036865035725024 1
gene  1 43 42 -0.48015556436978546 1 1846.0 -0.48015556436978546 1
gene  1 2 43 0.4495642427127581 0 1849.0 0.4495642427127581 1
gene  1 3 43 -0.9560814605683108 0 1850.0 -0.9560814605683108 1
gene  1 4 43 -0.6715033268403915 0 1851.0 -0.6715033268403915 1
gene  1 5 43 0.7739986715432958 0 1852.0 0.7739986715432958 1
gene  1 6 43 0.03852098368950474 0 1853.0 0.03852098368950474 1
gene  1 7 43 -0.35199068712007087 0 1854.0 -0.35199068712007087 1
gene  1 9 43 -0.23394328883262427 0 1856.0 -0.23394328883262427 1
gene  1 12 43 0.24183507847395314 0 1859.0 0.24183507847395314 1
gene  1 15 43 -0.4810440069920744 0 1862.0 -0.4810440069920744 1
gene  1 17 43 0.39104553134748776 0 1864.0 0.39104553134748776 1
gene  1 18 43 -0.05907996999584719 0 1865.0 -0.05907996999584719 1
gene  1 20 43 0.6496121635465972 0 1867.0 0.6496121635465972 1
gene  1 24 43 -0.2726639666789551 0 1871.0 -0.2726639666789551 1
gene  1 25 43 0.7915040123515442 0 1872.0 0.7915040123515442 1
gene  1 26 43 0.4936140362584883 0 1873.0 0.4936140362584883 1
gene  1 28 43 0.4418363112756283 0 1875.0 0.4418363112756283 1
gene  1 40 43 0.5341673741548281 0 1887.0 0.5341673741548281 1
gene  1 41 43 0.38360255228922835 0 1888.0 0.38360255228922835 1
gene  1 2 44 0.9127511510190267 0 1893.0 0.9127511510190267 1
gene  1 6 44 0.19734187391993574 0 1897.0 0.19734187391993574 1
gene  1 8 44 0.806036492721412 0 1899.0 0.806036492721412 1
gene  1 10 44 -0.47013524948996843 0 1901.0 -0.47013524948996843 1
gene  1 13 44 -0.7251218527346093 0 1904.0 -0.7251218527346093 1
gene  1 17 44 -0.9164669674567477 0 1908.0 -0.9164669674567477 1
gene  1 19 44 -0.9543533724279302 0 1910.0 -0.9543533724279302 1
gene  1 20 44 0.46182129572762853 0 1911.0 0.46182129572762853 1
gene  1 21 44 -0.132640516361879 0 1912.0 -0.132640516361879 1
gene  1 22 44 -0.784768767251484 0 1913.0 -0.784768767251484 1
gene  1 24 44 -0.3583240296346961 0 1915.0 -0.3583240296346961 1
gene  1 25 44 -0.9390112166302653 0 1916.0 -0.9390112166302653 1
gene  1 26 44 -0.7681743260939239 0 1917.0 -0.7681743260939239 1
gene  1 27 44 0.6800577504417189 0 1918.0 0.6800577504417189 1
gene  1 29 44 0.3215708484665383 0 1920.0 0.3215708484665383 1
gene  1 39 44 0.9788173482611724 0 1930.0 0.9788173482611724 1
gene  1 41 44 -2.638546978304124E-4 0 1932.0 -2.638546978304124E-4 1
gene  1 42 44 0.6033532579819859 0 1933.0 0.6033532579819859 1
gene  1 44 44 -0.4925608549833018 1 1935.0 -0.4925608549833018 1
genomeend 2
genomestart  3
trait 1 0.0 0.0 0.0 0.0 0.0 0.0 0.0 0.0 
node 1 1 1 1
node 2 1 1 1
node 3 1 1 1
node 4 1 1 1
node 5 1 1 1
node 6 1 1 1
node 7 1 1 1
node 8 1 1 1
node 9 1 1 1
node 10 1 1 1
node 11 1 1 1
node 12 1 1 1
node 13 1 1 1
node 14 1 1 1
node 15 1 1 1
node 16 1 1 1
node 17 1 1 1
node 18 1 1 1
node 19 1 1 1
node 20 1 1 1
node 21 1 1 1
node 22 1 1 1
node 23 1 1 1
node 24 1 1 1
node 25 1 1 1
node 26 1 1 1
node 27 1 1 1
node 28 1 1 3
node 29 1 0 0
node 30 1 0 0
node 39 1 0 2
node 40 1 0 2
node 41 1 0 2
node 42 1 0 2
node 43 1 0 2
node 44 1 0 2
gene  1 3 29 -0.3679202194418659 0 1234.0 -0.3679202194418659 1
gene  1 4 29 -0.6839207643458303 0 1235.0 -0.6839207643458303 1
gene  1 5 29 -0.26381883711355747 0 1236.0 -0.26381883711355747 1
gene  1 6 29 -0.6403113445187665 0 1237.0 -0.6403113445187665 1
gene  1 10 29 -0.6436941353377404 0 1241.0 -0.6436941353377404 1
gene  1 11 29 -0.9803170196365326 0 1242.0 -0.9803170196365326 1
gene  1 12 29 -0.6311912593107827 0 1243.0 -0.6311912593107827 1
gene  1 14 29 -0.7478894470025023 0 1245.0 -0.7478894470025023 1
gene  1 15 29 -0.8076174698189048 0 1246.0 -0.8076174698189048 1
gene  1 20 29 -0.37041068056320103 0 1251.0 -0.37041068056320103 1
gene  1 24 29 -0.6769921277967413 0 1255.0 -0.6769921277967413 1
gene  1 27 29 -0.36696661040325085 0 1258.0 -0.36696661040325085 1
gene  1 28 29 0.9135477056572742 0 1259.0 0.9135477056572742 1
gene  1 30 29 -0.8541477963809982 1 1261.0 -0.8541477963809982 1
gene  1 40 29 -0.03150732931320355 1 1271.0 -0.03150732931320355 1
gene  1 42 29 -0.060099404046741856 1 1273.0 -0.060099404046741856 1
gene  1 43 29 0.1749616371084063 1 1274.0 0.1749616371084063 1
gene  1 1 30 0.9889674228898103 0 1276.0 0.9889674228898103 1
gene  1 6 30 -0.930312900513429 0 1281.0 -0.930312900513429 1
gene  1 11 30 -0.16250494498850931 0 1286.0 -0.16250494498850931 1
gene  1 14 30 -0.16935503807501817 0 1289.0 -0.16935503807501817 1
gene  1 17 30 0.8036176411191783 0 1292.0 0.8036176411191783 1
gene  1 19 30 0.7375382575005459 0 1294.0 0.7375382575005459 1
gene  1 21 30 0.8107157872142916 0 1296.0 0.8107157872142916 1
gene  1 22 30 -0.1493122745248583 0 1297.0 -0.1493122745248583 1
gene  1 24 30 -0.6942190220500205 0 1299.0 -0.6942190220500205 1
gene  1 27 30 -0.3845805719857234 0 1302.0 -0.3845805719857234 1
gene  1 29 30 -0.47407366988524746 0 1304.0 -0.47407366988524746 1
gene  1 39 30 0.6229404645125357 1 1314.0 0.6229404645125357 1
gene  1 40 30 0.712961314626564 1 1315.0 0.712961314626564 1
gene  1 2 39 -0.9931218368796224 0 1673.0 -0.9931218368796224 1
gene  1 4 39 -0.4127481277692967 0 1675.0 -0.4127481277692967 1
gene  1 7 39 -0.46770020404286394 0 1678.0 -0.46770020404286394 1
gene  1 8 39 -0.2089257061219092 0 1679.0 -0.2089257061219092 1
gene  1 9 39 0.8122514329119404 0 1680.0 0.8122514329119404 1
gene  1 11 39 -0.8687819531502156 0 1682.0 -0.8687819531502156 1
gene  1 13 39 -0.8228245432035768 0 1684.0 -0.8228245432035768 1
gene  1 14 39 0.5148736060918695 0 1685.0 0.5148736060918695 1
gene  1 17 39 -0.6766942740130514 0 1688.0 -0.6766942740130514 1
gene  1 18 39 0.757790094035271 0 1689.0 0.757790094035271 1
gene  1 19 39 -0.8479433459644907 0 1690.0 -0.8479433459644907 1
gene  1 22 39 -0.9350340039738524 0 1693.0 -0.9350340039738524 1
gene  1 25 39 0.6164741222493293 0 1696.0 0.6164741222493293 1
gene  1 26 39 0.6771600207005753 0 1697.0 0.6771600207005753 1
gene  1 27 39 -0.23004478687923302 0 1698.0 -0.23004478687923302 1
gene  1 29 39 -0.11543331147307023 0 1700.0 -0.11543331147307023 1
gene  1 30 39 -0.382056693766894 0 1701.0 -0.382056693766894 1
gene  1 39 39 0.1125844896042183 1 1710.0 0.1125844896042183 1
gene  1 41 39 0.5177016309965954 1 1712.0 0.5177016309965954 1
gene  1 42 39 0.45549403440020697 1 1713.0 0.45549403440020697 1
gene  1 43 39 -0.3417561855218926 1 1714.0 -0.3417561855218926 1
gene  1 3 40 0.4110409710886723 0 1718.0 0.4110409710886723 1
gene  1 5 40 -0.02013922503005172 0 1720.0 -0.02013922503005172 1
gene  1 7 40 -0.3297093607384498 0 1722.0 -0.3297093607384498 1
gene  1 8 40 0.04295463008073741 0 1723.0 0.04295463008073741 1
gene  1 9 40 0.919328814356352 0 1724.0 0.919328814356352 1
gene  1 11 40 -0.048170701801124705 0 1726.0 -0.048170701801124705 1
gene  1 12 40 0.8602812959619875 0 1727.0 0.8602812959619875 1
gene  1 13 40 -0.27286124918475463 0 1728.0 -0.27286124918475463 1
gene  1 14 40 0.35927707172411527 0 1729.0 0.35927707172411527 1
gene  1 15 40 -0.7225903903006364 0 1730.0 -0.7225903903006364 1
gene  1 16 40 0.9416658458702012 0 1731.0 0.9416658458702012 1
gene  1 22 40 0.5098869244053644 0 1737.0 0.5098869244053644 1
gene  1 23 40 0.14190327112480405 0 1738.0 0.14190327112480405 1
gene  1 24 40 -0.8209972983532765 0 1739.0 -0.8209972983532765 1
gene  1 44 40 -0.33885301403773305 1 1759.0 -0.33885301403773305 1
gene  1 2 41 0.5093583677112206 0 1761.0 0.5093583677112206 1
gene  1 3 41 -0.703179078367734 0 1762.0 -0.703179078367734 1
gene  1 5 41 -0.17328546988974136 0 1764.0 -0.17328546988974136 1
gene  1 6 41 -0.43264733684426904 0 1765.0 -0.43264733684426904 1
gene  1 7 41 0.4377561544456353 0 1766.0 0.4377561544456353 1
gene  1 9 41 -0.7855540062479849 0 1768.0 -0.7855540062479849 1
gene  1 10 41 -0.8056316688785105 0 1769.0 -0.8056316688785105 1
gene  1 11 41 -0.5838086510113923 0 1770.0 -0.5838086510113923 1
gene  1 13 41 -0.46281382549313355 0 1772.0 -0.46281382549313355 1
gene  1 14 41 0.7757933732120709 0 1773.0 0.7757933732120709 1
gene  1 15 41 -0.3385554235332676 0 1774.0 -0.3385554235332676 1
gene  1 16 41 -0.9471391330384797 0 1775.0 -0.9471391330384797 1
gene  1 17 41 0.2619180457066388 0 1776.0 0.2619180457066388 1
gene  1 21 41 0.04666602225292282 0 1780.0 0.04666602225292282 1
gene  1 23 41 0.3917158437790573 0 1782.0 0.3917158437790573 1
gene  1 26 41 0.7468124865077872 0 1785.0 0.7468124865077872 1
gene  1 27 41 0.25193703252154687 0 1786.0 0.25193703252154687 1
gene  1 29 41 -0.7151086329891513 0 1788.0 -0.7151086329891513 1
gene  1 30 41 -0.8711143734363032 0 1789.0 -0.8711143734363032 1
gene  1 41 41 -0.6826619032891842 1 1800.0 -0.6826619032891842 1
gene  1 42 41 -0.9278824558834943 1 1801.0 -0.9278824558834943 1
gene  1 44 41 -0.22211208886649192 1 1803.0 -0.22211208886649192 1
gene  1 1 42 0.8072384864959405 0 1804.0 0.8072384864959405 1
gene  1 3 42 -0.9778761030561279 0 1806.0 -0.9778761030561279 1
gene  1 4 42 -0.9680619241144442 0 1807.0 -0.9680619241144442 1
gene  1 6 42 0.7310101699189708 0 1809.0 0.7310101699189708 1
gene  1 7 42 0.7787281789111051 0 1810.0 0.7787281789111051 1
gene  1 8 42 -0.10257361338818605 0 1811.0 -0.10257361338818605 1
gene  1 10 42 0.39636403360352446 0 1813.0 0.39636403360352446 1
gene  1 11 42 -0.024264927266208547 0 1814.0 -0.024264927266208547 1
gene  1 14 42 -0.15807064544486094 0 1817.0 -0.15807064544486094 1
gene  1 16 42 -0.9628869349662054 0 1819.0 -0.9628869349662054 1
gene  1 20 42 0.24916596407636082 0 1823.0 0.24916596407636082 1
gene  1 22 42 -0.5192764819662633 0 1825.0 -0.5192764819662633 1
gene  1 23 42 0.3256985049241099 0 1826.0 0.3256985049241099 1
gene  1 28 42 0.17621633288987826 0 1831.0 0.17621633288987826 1
gene  1 29 42 -0.7705758231681284 0 1832.0 -0.7705758231681284 1
gene  1 40 42 -0.3081123510451792 0 1843.0 -0.3081123510451792 1
gene  1 1 43 -0.34812909478136567 0 1848.0 -0.34812909478136567 1
gene  1 4 43 0.35180867516783865 0 1851.0 0.35180867516783865 1
gene  1 5 43 0.03519865457076943 0 1852.0 0.03519865457076943 1
gene  1 7 43 -0.01313918793074298 0 1854.0 -0.01313918793074298 1
gene  1 8 43 -0.24525742897745617 0 1855.0 -0.24525742897745617 1
gene  1 11 43 -0.2502589353869923 0 1858.0 -0.2502589353869923 1
gene  1 13 43 -0.18660427337844787 0 1860.0 -0.18660427337844787 1
gene  1 14 43 -0.42101559281787226 0 1861.0 -0.42101559281787226 1
gene  1 20 43 -0.08179703574580577 0 1867.0 -0.08179703574580577 1
gene  1 23 43 0.5412678425014925 0 1870.0 0.5412678425014925 1
gene  1 24 43 -0.780812490624888 0 1871.0 -0.780812490624888 1
gene  1 25 43 -0.6639045414675848 0 1872.0 -0.6639045414675848 1
gene  1 26 43 0.5177242774820179 0 1873.0 0.5177242774820179 1
gene  1 28 43 -0.14825130170264422 0 1875.0 -0.14825130170264422 1
gene  1 39 43 -0.3703998179032988 0 1886.0 -0.3703998179032988 1
gene  1 40 43 -0.4335037510481967 0 1887.0 -0.4335037510481967 1
gene  1 42 43 -0.8113643489036891 0 1889.0 -0.8113643489036891 1
gene  1 43 43 -0.940280544840164 1 1890.0 -0.940280544840164 1
gene  1 44 43 0.7736588654579658 1 1891.0 0.7736588654579658 1
gene  1 4 44 -0.7868604621915432 0 1895.0 -0.7868604621915432 1
gene  1 5 44 -0.36478535176330895 0 1896.0 -0.36478535176330895 1
gene  1 7 44 0.6823192877715206 0 1898.0 0.6823192877715206 1
gene  1 9 44 0.9963623987797308 0 1900.0 0.9963623987797308 1
gene  1 11 44 -0.40109759778355414 0 1902.0 -0.40109759778355414 1
gene  1 14 44 -0.8721330096622123 0 1905.0 -0.8721330096622123 1
gene  1 15 44 -0.6066617641618095 0 1906.0 -0.6066617641618095 1
gene  1 16 44 -0.5472321722336398 0 1907.0 -0.5472321722336398 1
gene  1 17 44 0.1971701588676481 0 1908.0 0.1971701588676481 1
gene  1 18 44 0.7245138757188465 0 1909.0 0.7245138757188465 1
gene  1 22 44 0.9415940227683597 0 1913.0 0.9415940227683597 1
gene  1 23 44 -0.682695809810871 0 1914.0 -0.682695809810871 1
gene  1 25 44 -0.5425088566147939 0 1916.0 -0.5425088566147939 1
gene  1 27 44 0.146465469834828 0 1918.0 0.146465469834828 1
gene  1 41 44 0.9941992440041908 0 1932.0 0.9941992440041908 1
gene  1 42 44 0.6868157384661897 0 1933.0 0.6868157384661897 1
gene  1 43 44 0.3926799525782718 0 1934.0 0.3926799525782718 1
gene  1 44 44 -0.3047566551884028 1 1935.0 -0.3047566551884028 1
genomeend 3
genomestart  4
trait 1 0.0 0.0 0.0 0.0 0.0 0.0 0.0 0.0 
node 1 1 1 1
node 2 1 1 1
node 3 1 1 1
node 4 1 1 1
node 5 1 1 1
node 6 1 1 1
node 7 1 1 1
node 8 1 1 1
node 9 1 1 1
node 10 1 1 1
node 11 1 1 1
node 12 1 1 1
node 13 1 1 1
node 14 1 1 1
node 15 1 1 1
node 16 1 1 1
node 17 1 1 1
node 18 1 1 1
node 19 1 1 1
node 20 1 1 1
node 21 1 1 1
node 22 1 1 1
node 23 1 1 1
node 24 1 1 1
node 25 1 1 1
node 26 1 1 1
node 27 1 1 1
node 28 1 1 3
node 29 1 0 0
node 30 1 0 0
node 31 1 0 0
node 39 1 0 2
node 40 1 0 2
node 41 1 0 2
node 42 1 0 2
node 43 1 0 2
node 44 1 0 2
gene  1 1 29 -0.8693479289807513 0 1232.0 -0.8693479289807513 1
gene  1 13 29 -0.9960519486927367 0 1244.0 -0.9960519486927367 1
gene  1 16 29 -0.8274322753784131 0 1247.0 -0.8274322753784131 1
gene  1 18 29 0.3394992587946212 0 1249.0 0.3394992587946212 1
gene  1 19 29 0.25651349950666846 0 1250.0 0.25651349950666846 1
gene  1 22 29 -0.3948530644425049 0 1253.0 -0.3948530644425049 1
gene  1 23 29 -0.6518140104672188 0 1254.0 -0.6518140104672188 1
gene  1 26 29 0.7100453697655391 0 1257.0 0.7100453697655391 1
gene  1 28 29 0.3556950688768997 0 1259.0 0.3556950688768997 1
gene  1 29 29 0.343649207193895 1 1260.0 0.343649207193895 1
gene  1 30 29 -0.7437141333313861 1 1261.0 -0.7437141333313861 1
gene  1 39 29 0.24879905351477116 1 1270.0 0.24879905351477116 1
gene  1 40 29 -0.7368548379953277 1 1271.0 -0.7368548379953277 1
gene  1 42 29 -0.15173267545765634 1 1273.0 -0.15173267545765634 1
gene  1 43 29 0.38495375230008133 1 1274.0 0.38495375230008133 1
gene  1 1 30 -0.5493572938456187 0 1276.0 -0.5493572938456187 1
gene  1 2 30 -0.24923614646007253 0 1277.0 -0.24923614646007253 1
gene  1 3 30 0.6800054687978284 0 1278.0 0.6800054687978284 1
gene  1 6 30 0.6604452721360938 0 1281.0 0.6604452721360938 1
gene  1 8 30 0.9055019804969308 0 1283.0 0.9055019804969308 1
gene  1 9 30 -0.7000126215105797 0 1284.0 -0.7000126215105797 1
gene  1 10 30 -0.5714331517807979 0 1285.0 -0.5714331517807979 1
gene  1 11 30 0.19070198088877643 0 1286.0 0.19070198088877643 1
gene  1 12 30 -0.558387426244961 0 1287.0 -0.558387426244961 1
gene  1 13 30 0.8726912834838488 0 1288.0 0.8726912834838488 1
gene  1 16 30 -0.9473968102486383 0 1291.0 -0.9473968102486383 1
gene  1 17 30 0.2898110074107585 0 1292.0 0.2898110074107585 1
gene  1 19 30 0.6908947358572183 0 1294.0 0.6908947358572183 1
gene  1 20 30 0.25358422143222803 0 1295.0 0.25358422143222803 1
gene  1 23 30 -0.3772024581231118 0 1298.0 -0.3772024581231118 1
gene  1 24 30 0.17525735493306627 0 1299.0 0.17525735493306627 1
gene  1 29 30 0.04909991029115646 0 1304.0 0.04909991029115646 1
gene  1 31 30 0.6495018098686803 1 1306.0 0.6495018098686803 1
gene  1 39 30 0.24579038100517192 1 1314.0 0.24579038100517192 1
gene  1 40 30 0.9724312575107571 1 1315.0 0.9724312575107571 1
gene  1 41 30 0.322880698713621 1 1316.0 0.322880698713621 1
gene  1 42 30 0.3225272586725553 1 1317.0 0.3225272586725553 1
gene  1 1 31 -0.5441967226070896 0 1320.0 -0.5441967226070896 1
gene  1 2 31 0.3530140599481064 0 1321.0 0.3530140599481064 1
gene  1 5 31 0.4726843747488152 0 1324.0 0.4726843747488152 1
gene  1 6 31 0.22600372383097944 0 1325.0 0.22600372383097944 1
gene  1 7 31 -0.2614062611569705 0 1326.0 -0.2614062611569705 1
gene  1 12 31 0.5088523758263093 0 1331.0 0.5088523758263093 1
gene  1 16 31 -0.33743170047619764 0 1335.0 -0.33743170047619764 1
gene  1 19 31 -0.8967702533473326 0 1338.0 -0.8967702533473326 1
gene  1 22 31 -0.9346272581802366 0 1341.0 -0.9346272581802366 1
gene  1 23 31 0.3119069307036024 0 1342.0 0.3119069307036024 1
gene  1 26 31 0.31135515529459845 0 1345.0 0.31135515529459845 1
gene  1 29 31 -0.8986673843162789 0 1348.0 -0.8986673843162789 1
gene  1 42 31 0.034315160326700234 1 1361.0 0.034315160326700234 1
gene  1 43 31 0.4512794346073501 1 1362.0 0.4512794346073501 1
gene  1 44 31 -0.019053766713846843 1 1363.0 -0.019053766713846843 1
gene  1 1 39 0.8872191250554856 0 1672.0 0.8872191250554856 1
gene  1 4 39 -0.033952600573009084 0 1675.0 -0.033952600573009084 1
gene  1 5 39 0.8094407210472089 0 1676.0 0.8094407210472089 1
gene  1 12 39 -0.5538536734274616 0 1683.0 -0.5538536734274616 1
gene  1 13 39 -0.20037652692489805 0 1684.0 -0.20037652692489805 1
gene  1 14 39 -0.6030055180252376 0 1685.0 -0.6030055180252376 1
gene  1 15 39 -0.5652352498038032 0 1686.0 -0.5652352498038032 1
gene  1 16 39 -0.45223267853820726 0 1687.0 -0.45223267853820726 1
gene  1 17 39 -0.809855047031995 0 1688.0 -0.809855047031995 1
gene  1 18 39 -0.021849004372061165 0 1689.0 -0.021849004372061165 1
gene  1 19 39 -0.4490311230269133 0 1690.0 -0.4490311230269133 1
gene  1 21 39 -0.5560149448756072 0 1692.0 -0.5560149448756072 1
gene  1 24 39 -0.7858531878299077 0 1695.0 -0.7858531878299077 1
gene  1 27 39 -0.8538924736659647 0 1698.0 -0.8538924736659647 1
gene  1 29 39 -0.1679024237760346 0 1700.0 -0.1679024237760346 1
gene  1 30 39 -0.8355533678032259 0 1701.0 -0.8355533678032259 1
gene  1 41 39 -0.5381280090763196 1 1712.0 -0.5381280090763196 1
gene  1 42 39 0.12360802033671026 1 1713.0 0.12360802033671026 1
gene  1 43 39 -0.4427305220356166 1 1714.0 -0.4427305220356166 1
gene  1 1 40 -0.1043608162792552 0 1716.0 -0.1043608162792552 1
gene  1 5 40 0.7612171881093354 0 1720.0 0.7612171881093354 1
gene  1 7 40 -0.7875297278169665 0 1722.0 -0.7875297278169665 1
gene  1 8 40 -0.01572567732218033 0 1723.0 -0.01572567732218033 1
gene  1 12 40 0.013662056506358877 0 1727.0 0.013662056506358877 1
gene  1 13 40 0.603107311613601 0 1728.0 0.603107311613601 1
gene  1 16 40 -0.493273479237451 0 1731.0 -0.493273479237451 1
gene  1 17 40 0.7916069652147009 0 1732.0 0.7916069652147009 1
gene  1 18 40 -0.3610340657733061 0 1733.0 -0.3610340657733061 1
gene  1 20 40 0.3263022003600079 0 1735.0 0.3263022003600079 1
gene  1 21 40 0.3908256312386208 0 1736.0 0.3908256312386208 1
gene  1 22 40 0.3484215836179654 0 1737.0 0.3484215836179654 1
gene  1 25 40 0.3394678446749898 0 1740.0 0.3394678446749898 1
gene  1 26 40 0.9788588665119131 0 1741.0 0.9788588665119131 1
gene  1 39 40 -0.779243726641389 0 1754.0 -0.779243726641389 1
gene  1 40 40 0.008989686415167286 1 1755.0 0.008989686415167286 1
gene  1 43 40 -0.07248956101393 1 1758.0 -0.07248956101393 1
gene  1 1 41 -0.040733048970090446 0 1760.0 -0.040733048970090446 1
gene  1 4 41 -0.3758521613490857 0 1763.0 -0.3758521613490857 1
gene  1 5 41 0.5998629795854848 0 1764.0 0.5998629795854848 1
gene  1 7 41 -0.4799562700497434 0 1766.0 -0.4799562700497434 1
gene  1 8 41 -0.9672763261992426 0 1767.0 -0.9672763261992426 1
gene  1 9 41 0.01623007734995674 0 1768.0 0.01623007734995674 1
gene  1 10 41 0.7744903670491805 0 1769.0 0.7744903670491805 1
gene  1 15 41 -0.9722091908278017 0 1774.0 -0.9722091908278017 1
gene  1 19 41 0.1859015449604876 0 1778.0 0.1859015449604876 1
gene  1 20 41 -0.21087628878888698 0 1779.0 -0.21087628878888698 1
gene  1 22 41 0.1583763513420432 0 1781.0 0.1583763513420432 1
gene  1 24 41 0.6237145597962291 0 1783.0 0.6237145597962291 1
gene  1 28 41 -0.6921013238030844 0 1787.0 -0.6921013238030844 1
gene  1 29 41 -0.5743754176154466 0 1788.0 -0.5743754176154466 1
gene  1 41 41 -0.6381542555264232 1 1800.0 -0.6381542555264232 1
gene  1 43 41 -0.699309880093137 1 1802.0 -0.699309880093137 1
gene  1 1 42 0.5748612579954772 0 1804.0 0.5748612579954772 1
gene  1 3 42 0.1280308941956273 0 1806.0 0.1280308941956273 1
gene  1 4 42 0.39980992593807163 0 1807.0 0.39980992593807163 1
gene  1 6 42 0.7367439784630679 0 1809.0 0.7367439784630679 1
gene  1 7 42 0.8261255910260531 0 1810.0 0.8261255910260531 1
gene  1 10 42 0.5770018352487116 0 1813.0 0.5770018352487116 1
gene  1 11 42 -0.09429073426885781 0 1814.0 -0.09429073426885781 1
gene  1 14 42 -0.7902651748161487 0 1817.0 -0.7902651748161487 1
gene  1 15 42 0.76079425813828 0 1818.0 0.76079425813828 1
gene  1 18 42 -0.14458221666767235 0 1821.0 -0.14458221666767235 1
gene  1 19 42 -0.026301136114767254 0 1822.0 -0.026301136114767254 1
gene  1 20 42 -0.045362289625098584 0 1823.0 -0.045362289625098584 1
gene  1 21 42 -0.5085757236737579 0 1824.0 -0.5085757236737579 1
gene  1 23 42 0.47286968991494005 0 1826.0 0.47286968991494005 1
gene  1 25 42 -0.013478241982052497 0 1828.0 -0.013478241982052497 1
gene  1 26 42 -0.38006215066229765 0 1829.0 -0.38006215066229765 1
gene  1 28 42 0.9120857632457705 0 1831.0 0.9120857632457705 1
gene  1 29 42 0.5810398800638977 0 1832.0 0.5810398800638977 1
gene  1 39 42 0.5219923529255369 0 1842.0 0.5219923529255369 1
gene  1 40 42 -0.8009750466068218 0 1843.0 -0.8009750466068218 1
gene  1 41 42 0.9614394252303792 0 1844.0 0.9614394252303792 1
gene  1 42 42 -0.3169946748556205 1 1845.0 -0.3169946748556205 1
gene  1 1 43 -0.5589336597334909 0 1848.0 -0.5589336597334909 1
gene  1 2 43 -0.17196734948524428 0 1849.0 -0.17196734948524428 1
gene  1 4 43 -0.658175193610598 0 1851.0 -0.658175193610598 1
gene  1 6 43 0.0993939406621982 0 1853.0 0.0993939406621982 1
gene  1 9 43 -0.2840136007938239 0 1856.0 -0.2840136007938239 1
gene  1 10 43 0.6012214439244118 0 1857.0 0.6012214439244118 1
gene  1 11 43 -0.08399895473768926 0 1858.0 -0.08399895473768926 1
gene  1 19 43 0.7759837646413281 0 1866.0 0.7759837646413281 1
gene  1 24 43 -0.31988171007610466 0 1871.0 -0.31988171007610466 1
gene  1 25 43 0.0016770117840639864 0 1872.0 0.0016770117840639864 1
gene  1 27 43 0.965235466254563 0 1874.0 0.965235466254563 1
gene  1 29 43 0.9185534245612633 0 1876.0 0.9185534245612633 1
gene  1 42 43 0.702872198865109 0 1889.0 0.702872198865109 1
gene  1 1 44 -0.10547694787100681 0 1892.0 -0.10547694787100681 1
gene  1 2 44 -0.29409663393944196 0 1893.0 -0.29409663393944196 1
gene  1 3 44 0.9295145674797924 0 1894.0 0.9295145674797924 1
gene  1 4 44 -0.4697552413307817 0 1895.0 -0.4697552413307817 1
gene  1 5 44 0.9319781677203973 0 1896.0 0.9319781677203973 1
gene  1 6 44 -0.5743646094101537 0 1897.0 -0.5743646094101537 1
gene  1 7 44 0.5915990333899043 0 1898.0 0.5915990333899043 1
gene  1 10 44 0.15095832017295463 0 1901.0 0.15095832017295463 1
gene  1 11 44 -0.8899212992320082 0 1902.0 -0.8899212992320082 1
gene  1 12 44 0.09266407044978475 0 1903.0 0.09266407044978475 1
gene  1 13 44 0.5889972038092174 0 1904.0 0.5889972038092174 1
gene  1 16 44 0.3010023549955281 0 1907.0 0.3010023549955281 1
gene  1 17 44 -0.26814890549864834 0 1908.0 -0.26814890549864834 1
gene  1 18 44 0.7273569250521723 0 1909.0 0.7273569250521723 1
gene  1 19 44 0.550752400443731 0 1910.0 0.550752400443731 1
gene  1 20 44 0.49119746707852496 0 1911.0 0.49119746707852496 1
gene  1 21 44 -0.4383573544023689 0 1912.0 -0.4383573544023689 1
gene  1 24 44 0.2548046558586934 0 1915.0 0.2548046558586934 1
gene  1 25 44 -0.09762129943314124 0 1916.0 -0.09762129943314124 1
gene  1 30 44 0.5009720324474671 0 1921.0 0.5009720324474671 1
gene  1 31 44 -0.18217754889140914 0 1922.0 -0.18217754889140914 1
gene  1 41 44 0.81625355824803 0 1932.0 0.81625355824803 1
gene  1 43 44 0.541002689783111 0 1934.0 0.541002689783111 1
genomeend 4
genomestart  5
trait 1 0.0 0.0 0.0 0.0 0.0 0.0 0.0 0.0 
node 1 1 1 1
node 2 1 1 1
node 3 1 1 1
node 4 1 1 1
node 5 1 1 1
node 6 1 1 1
node 7 1 1 1
node 8 1 1 1
node 9 1 1 1
node 10 1 1 1
node 11 1 1 1
node 12 1 1 1
node 13 1 1 1
node 14 1 1 1
node 15 1 1 1
node 16 1 1 1
node 17 1 1 1
node 18 1 1 1
node 19 1 1 1
node 20 1 1 1
node 21 1 1 1
node 22 1 1 1
node 23 1 1 1
node 24 1 1 1
node 25 1 1 1
node 26 1 1 1
node 27 1 1 1
node 28 1 1 3
node 29 1 0 0
node 30 1 0 0
node 31 1 0 0
node 32 1 0 0
node 33 1 0 0
node 34 1 0 0
node 39 1 0 2
node 40 1 0 2
node 41 1 0 2
node 42 1 0 2
node 43 1 0 2
node 44 1 0 2
gene  1 1 29 -0.924800117725703 0 1232.0 -0.924800117725703 1
gene  1 2 29 -0.502367583978674 0 1233.0 -0.502367583978674 1
gene  1 3 29 -0.8738449110035373 0 1234.0 -0.8738449110035373 1
gene  1 4 29 0.8868332005156471 0 1235.0 0.8868332005156471 1
gene  1 8 29 0.5194542240725767 0 1239.0 0.5194542240725767 1
gene  1 10 29 0.4292478701088348 0 1241.0 0.4292478701088348 1
gene  1 12 29 -0.6916301545581752 0 1243.0 -0.6916301545581752 1
gene  1 13 29 -0.5779137046460214 0 1244.0 -0.5779137046460214 1
gene  1 14 29 0.4299486367338632 0 1245.0 0.4299486367338632 1
gene  1 15 29 0.8877758555690758 0 1246.0 0.8877758555690758 1
gene  1 16 29 0.5797911480948434 0 1247.0 0.5797911480948434 1
gene  1 17 29 0.5839695586840385 0 1248.0 0.5839695586840385 1
gene  1 20 29 -0.8602319911913507 0 1251.0 -0.8602319911913507 1
gene  1 21 29 0.05892933825708435 0 1252.0 0.05892933825708435 1
gene  1 24 29 0.4618104300715997 0 1255.0 0.4618104300715997 1
gene  1 25 29 -0.3765646330498029 0 1256.0 -0.3765646330498029 1
gene  1 31 29 -0.7563986376531684 1 1262.0 -0.7563986376531684 1
gene  1 32 29 -0.06285089204103944 1 1263.0 -0.06285089204103944 1
gene  1 34 29 -0.9821502671831007 1 1265.0 -0.9821502671831007 1
gene  1 39 29 0.6311669067413815 1 1270.0 0.6311669067413815 1
gene  1 41 29 0.22311619944002226 1 1272.0 0.22311619944002226 1
gene  1 42 29 -0.1510813389538861 1 1273.0 -0.1510813389538861 1
gene  1 43 29 -0.4152177093265278 1 1274.0 -0.4152177093265278 1
gene  1 1 30 0.6564825648418381 0 1276.0 0.6564825648418381 1
gene  1 10 30 0.029886998328106373 0 1285.0 0.029886998328106373 1
gene  1 11 30 -0.5225303762182615 0 1286.0 -0.5225303762182615 1
gene  1 13 30 -0.581386483967733 0 1288.0 -0.581386483967733 1
gene  1 14 30 -0.21083606813822753 0 1289.0 -0.21083606813822753 1
gene  1 15 30 -0.17914817239480474 0 1290.0 -0.17914817239480474 1
gene  1 17 30 0.9701957111733467 0 1292.0 0.9701957111733467 1
gene  1 23 30 -0.6139923600868497 0 1298.0 -0.6139923600868497 1
gene  1 24 30 0.035321042558553284 0 1299.0 0.035321042558553284 1
gene  1 25 30 0.09314940773656177 0 1300.0 0.09314940773656177 1
gene  1 26 30 0.5988962416663767 0 1301.0 0.5988962416663767 1
gene  1 28 30 0.42824151829555956 0 1303.0 0.42824151829555956 1
gene  1 29 30 0.5834905012331264 0 1304.0 0.5834905012331264 1
gene  1 34 30 0.21644932340121437 1 1309.0 0.21644932340121437 1
gene  1 39 30 -0.12429087272634332 1 1314.0 -0.12429087272634332 1
gene  1 40 30 0.04021644743328012 1 1315.0 0.04021644743328012 1
gene  1 41 30 0.29511087716282713 1 1316.0 0.29511087716282713 1
gene  1 1 31 0.9142198912822249 0 1320.0 0.9142198912822249 1
gene  1 2 31 0.8844782215893937 0 1321.0 0.8844782215893937 1
gene  1 4 31 0.15229539431308026 0 1323.0 0.15229539431308026 1
gene  1 7 31 -0.5471677333009303 0 1326.0 -0.5471677333009303 1
gene  1 10 31 -0.7086903959319141 0 1329.0 -0.7086903959319141 1
gene  1 11 31 0.2661374514754924 0 1330.0 0.2661374514754924 1
gene  1 12 31 0.012857082999607305 0 1331.0 0.012857082999607305 1
gene  1 13 31 -0.9284530171687767 0 1332.0 -0.9284530171687767 1
gene  1 14 31 0.6692308887703713 0 1333.0 0.6692308887703713 1
gene  1 17 31 -0.10049322718416398 0 1336.0 -0.10049322718416398 1
gene  1 20 31 0.7475398783610936 0 1339.0 0.7475398783610936 1
gene  1 21 31 -0.39362824200290647 0 1340.0 -0.39362824200290647 1
gene  1 25 31 -0.23486474069381247 0 1344.0 -0.23486474069381247 1
gene  1 26 31 0.03774455998417381 0 1345.0 0.03774455998417381 1
gene  1 27 31 -0.5928470637621627 0 1346.0 -0.5928470637621627 1
gene  1 28 31 -0.9369669327181277 0 1347.0 -0.9369669327181277 1
gene  1 30 31 0.7773930606925178 0 1349.0 0.7773930606925178 1
gene  1 31 31 0.513749757076873 1 1350.0 0.513749757076873 1
gene  1 33 31 0.608708085402304 1 1352.0 0.608708085402304 1
gene  1 39 31 0.822727215557203 1 1358.0 0.822727215557203 1
gene  1 42 31 -0.7316583835464151 1 1361.0 -0.7316583835464151 1
gene  1 43 31 0.7158392602426119 1 1362.0 0.7158392602426119 1
gene  1 3 32 0.04475366630353661 0 1366.0 0.04475366630353661 1
gene  1 4 32 -0.865362164673418 0 1367.0 -0.865362164673418 1
gene  1 5 32 -0.3464987045621225 0 1368.0 -0.3464987045621225 1
gene  1 6 32 -0.7061418940060312 0 1369.0 -0.7061418940060312 1
gene  1 12 32 0.047455714635668556 0 1375.0 0.047455714635668556 1
gene  1 13 32 0.3749870367567003 0 1376.0 0.3749870367567003 1
gene  1 14 32 0.8122486922514489 0 1377.0 0.8122486922514489 1
gene  1 17 32 -0.3256433776384655 0 1380.0 -0.3256433776384655 1
gene  1 18 32 0.455713233776992 0 1381.0 0.455713233776992 1
gene  1 20 32 0.8875090868769018 0 1383.0 0.8875090868769018 1
gene  1 21 32 -0.26170597916121163 0 1384.0 -0.26170597916121163 1
gene  1 22 32 0.6696028902608722 0 1385.0 0.6696028902608722 1
gene  1 24 32 0.09659115533706253 0 1387.0 0.09659115533706253 1
gene  1 26 32 -0.7597816937852012 0 1389.0 -0.7597816937852012 1
gene  1 30 32 -0.5316523880821494 0 1393.0 -0.5316523880821494 1
gene  1 34 32 -0.26857086681050624 1 1397.0 -0.26857086681050624 1
gene  1 41 32 0.9882852856349666 1 1404.0 0.9882852856349666 1
gene  1 42 32 0.8126423718050192 1 1405.0 0.8126423718050192 1
gene  1 43 32 -0.5185258769960537 1 1406.0 -0.5185258769960537 1
gene  1 4 33 0.8370832536836815 0 1411.0 0.8370832536836815 1
gene  1 5 33 0.8334029027407233 0 1412.0 0.8334029027407233 1
gene  1 10 33 -0.9926765214185314 0 1417.0 -0.9926765214185314 1
gene  1 12 33 -0.9187829025129763 0 1419.0 -0.9187829025129763 1
gene  1 15 33 -0.7565400854063893 0 1422.0 -0.7565400854063893 1
gene  1 16 33 0.9636070230881933 0 1423.0 0.9636070230881933 1
gene  1 18 33 -0.15033826841492537 0 1425.0 -0.15033826841492537 1
gene  1 20 33 0.36284746121671885 0 1427.0 0.36284746121671885 1
gene  1 21 33 0.7665641859213037 0 1428.0 0.7665641859213037 1
gene  1 22 33 -0.7197344138234658 0 1429.0 -0.7197344138234658 1
gene  1 23 33 0.5103500293444303 0 1430.0 0.5103500293444303 1
gene  1 26 33 -0.7291660833427922 0 1433.0 -0.7291660833427922 1
gene  1 30 33 -0.5614154807165407 0 1437.0 -0.5614154807165407 1
gene  1 33 33 -0.034705463388480795 1 1440.0 -0.034705463388480795 1
gene  1 34 33 -0.8621651771771079 1 1441.0 -0.8621651771771079 1
gene  1 39 33 -0.35650111067221235 1 1446.0 -0.35650111067221235 1
gene  1 40 33 -0.7703117502744603 1 1447.0 -0.7703117502744603 1
gene  1 42 33 0.5668081181274139 1 1449.0 0.5668081181274139 1
gene  1 43 33 0.4051569491280549 1 1450.0 0.4051569491280549 1
gene  1 1 34 -0.09980226199643838 0 1452.0 -0.09980226199643838 1
gene  1 3 34 -0.772663143338523 0 1454.0 -0.772663143338523 1
gene  1 6 34 -0.11705066902918293 0 1457.0 -0.11705066902918293 1
gene  1 7 34 0.1359143827795608 0 1458.0 0.1359143827795608 1
gene  1 8 34 -0.636273739998779 0 1459.0 -0.636273739998779 1
gene  1 9 34 0.825523431890917 0 1460.0 0.825523431890917 1
gene  1 13 34 0.6869019580708803 0 1464.0 0.6869019580708803 1
gene  1 14 34 0.6137747861255118 0 1465.0 0.6137747861255118 1
gene  1 17 34 0.10895158519187342 0 1468.0 0.10895158519187342 1
gene  1 18 34 0.4096253404107101 0 1469.0 0.4096253404107101 1
gene  1 19 34 -0.4944105528036691 0 1470.0 -0.4944105528036691 1
gene  1 20 34 0.4450756102857806 0 1471.0 0.4450756102857806 1
gene  1 21 34 0.3774536889356056 0 1472.0 0.3774536889356056 1
gene  1 22 34 -0.6152129834826641 0 1473.0 -0.6152129834826641 1
gene  1 24 34 -0.5918332238243594 0 1475.0 -0.5918332238243594 1
gene  1 26 34 0.3055086966969438 0 1477.0 0.3055086966969438 1
gene  1 29 34 0.6586591837222934 0 1480.0 0.6586591837222934 1
gene  1 32 34 0.8568896591745286 0 1483.0 0.8568896591745286 1
gene  1 33 34 0.612794239952669 0 1484.0 0.612794239952669 1
gene  1 34 34 0.3017302460263793 1 1485.0 0.3017302460263793 1
gene  1 41 34 0.8098974134235665 1 1492.0 0.8098974134235665 1
gene  1 42 34 -0.5296256783340014 1 1493.0 -0.5296256783340014 1
gene  1 1 39 -0.23980597210071664 0 1672.0 -0.23980597210071664 1
gene  1 3 39 0.8457126462885118 0 1674.0 0.8457126462885118 1
gene  1 4 39 0.6066249785118881 0 1675.0 0.6066249785118881 1
gene  1 6 39 -0.18204786071007217 0 1677.0 -0.18204786071007217 1
gene  1 8 39 0.5137470437731745 0 1679.0 0.5137470437731745 1
gene  1 9 39 0.47529253731874765 0 1680.0 0.47529253731874765 1
gene  1 10 39 0.06527382995738973 0 1681.0 0.06527382995738973 1
gene  1 11 39 0.9086708918396444 0 1682.0 0.9086708918396444 1
gene  1 17 39 0.31753012513717405 0 1688.0 0.31753012513717405 1
gene  1 18 39 -0.5584170949265318 0 1689.0 -0.5584170949265318 1
gene  1 20 39 0.676562734295849 0 1691.0 0.676562734295849 1
gene  1 26 39 0.4547110183785962 0 1697.0 0.4547110183785962 1
gene  1 27 39 -0.64048748958933 0 1698.0 -0.64048748958933 1
gene  1 29 39 -0.03253682381644518 0 1700.0 -0.03253682381644518 1
gene  1 30 39 0.6585563562225542 0 1701.0 0.6585563562225542 1
gene  1 32 39 -0.7248043297276255 0 1703.0 -0.7248043297276255 1
gene  1 33 39 -0.37362185458633257 0 1704.0 -0.37362185458633257 1
gene  1 34 39 0.0796370640653874 0 1705.0 0.0796370640653874 1
gene  1 39 39 -0.37248148832580075 1 1710.0 -0.37248148832580075 1
gene  1 42 39 -0.2139666148558953 1 1713.0 -0.2139666148558953 1
gene  1 43 39 -0.8763525981730033 1 1714.0 -0.8763525981730033 1
gene  1 3 40 -0.356107215517689 0 1718.0 -0.356107215517689 1
gene  1 6 40 -0.5249970870344713 0 1721.0 -0.5249970870344713 1
gene  1 7 40 0.29348778334718917 0 1722.0 0.29348778334718917 1
gene  1 8 40 -0.7921460798853768 0 1723.0 -0.7921460798853768 1
gene  1 10 40 -0.37896630781563045 0 1725.0 -0.37896630781563045 1
gene  1 13 40 -0.9123618809805354 0 1728.0 -0.9123618809805354 1
gene  1 14 40 0.22853483853019885 0 1729.0 0.22853483853019885 1
gene  1 15 40 0.1447447490772571 0 1730.0 0.1447447490772571 1
gene  1 19 40 -0.31921328536765825 0 1734.0 -0.31921328536765825 1
gene  1 21 40 -0.24573089331151066 0 1736.0 -0.24573089331151066 1
gene  1 23 40 0.45479909606505153 0 1738.0 0.45479909606505153 1
gene  1 25 40 -0.61176386521576 0 1740.0 -0.61176386521576 1
gene  1 27 40 0.5319469143204326 0 1742.0 0.5319469143204326 1
gene  1 28 40 0.08048884106309284 0 1743.0 0.08048884106309284 1
gene  1 29 40 -0.6597003923803567 0 1744.0 -0.6597003923803567 1
gene  1 30 40 0.71324963683439 0 1745.0 0.71324963683439 1
gene  1 31 40 0.03347352314647978 0 1746.0 0.03347352314647978 1
gene  1 33 40 -0.4008218578363454 0 1748.0 -0.4008218578363454 1
gene  1 39 40 0.9949610964722675 0 1754.0 0.9949610964722675 1
gene  1 43 40 0.05629902110947882 1 1758.0 0.05629902110947882 1
gene  1 44 40 -0.049336093720850016 1 1759.0 -0.049336093720850016 1
gene  1 1 41 -0.8752411567376512 0 1760.0 -0.8752411567376512 1
gene  1 3 41 -0.6716672809011826 0 1762.0 -0.6716672809011826 1
gene  1 5 41 -0.5018217178970026 0 1764.0 -0.5018217178970026 1
gene  1 6 41 -0.0448761012345823 0 1765.0 -0.0448761012345823 1
gene  1 7 41 -0.8879785767525797 0 1766.0 -0.8879785767525797 1
gene  1 8 41 -0.8705025688227709 0 1767.0 -0.8705025688227709 1
gene  1 9 41 0.3466394849164547 0 1768.0 0.3466394849164547 1
gene  1 11 41 -0.011774747276284803 0 1770.0 -0.011774747276284803 1
gene  1 16 41 0.9004275146894037 0 1775.0 0.9004275146894037 1
gene  1 17 41 -0.43730441217994254 0 1776.0 -0.43730441217994254 1
gene  1 19 41 0.19590991657160994 0 1778.0 0.19590991657160994 1
gene  1 20 41 -0.5295840958023598 0 1779.0 -0.5295840958023598 1
gene  1 22 41 0.5383282812917377 0 1781.0 0.5383282812917377 1
gene  1 23 41 0.0604607632053612 0 1782.0 0.0604607632053612 1
gene  1 27 41 0.9117410223948699 0 1786.0 0.9117410223948699 1
gene  1 28 41 0.4194951660477585 0 1787.0 0.4194951660477585 1
gene  1 30 41 -0.6132977492880808 0 1789.0 -0.6132977492880808 1
gene  1 32 41 -0.35931908522325073 0 1791.0 -0.35931908522325073 1
gene  1 33 41 0.8101227653526218 0 1792.0 0.8101227653526218 1
gene  1 39 41 -0.9368204936444818 0 1798.0 -0.9368204936444818 1
gene  1 40 41 0.44755473510594757 0 1799.0 0.44755473510594757 1
gene  1 41 41 0.6034792058590566 1 1800.0 0.6034792058590566 1
gene  1 1 42 0.5081018214948096 0 1804.0 0.5081018214948096 1
gene  1 3 42 0.04658856256156174 0 1806.0 0.04658856256156174 1
gene  1 5 42 0.8011468483650077 0 1808.0 0.8011468483650077 1
gene  1 7 42 -0.1677173864878052 0 1810.0 -0.1677173864878052 1
gene  1 8 42 0.5365092844634783 0 1811.0 0.5365092844634783 1
gene  1 9 42 -0.6403256796604118 0 1812.0 -0.6403256796604118 1
gene  1 13 42 -0.12136781781187311 0 1816.0 -0.12136781781187311 1
gene  1 14 42 0.5768507068931817 0 1817.0 0.5768507068931817 1
gene  1 18 42 -0.9924289933587275 0 1821.0 -0.9924289933587275 1
gene  1 20 42 0.6879847704683729 0 1823.0 0.6879847704683729 1
gene  1 21 42 -0.010968740854713666 0 1824.0 -0.010968740854713666 1
gene  1 22 42 -0.3639793679274508 0 1825.0 -0.3639793679274508 1
gene  1 26 42 -0.24375758148180926 0 1829.0 -0.24375758148180926 1
gene  1 27 42 -0.4928882223948333 0 1830.0 -0.4928882223948333 1
gene  1 31 42 -0.8086880107741788 0 1834.0 -0.8086880107741788 1
gene  1 32 42 -0.44350030452096434 0 1835.0 -0.44350030452096434 1
gene  1 33 42 -0.5713182783813732 0 1836.0 -0.5713182783813732 1
gene  1 34 42 -0.004680825746401163 0 1837.0 -0.004680825746401163 1
gene  1 39 42 -0.10290549428434104 0 1842.0 -0.10290549428434104 1
gene  1 40 42 0.2606979712498443 0 1843.0 0.2606979712498443 1
gene  1 42 42 -0.8695908913407356 1 1845.0 -0.8695908913407356 1
gene  1 43 42 0.7302076269146169 1 1846.0 0.7302076269146169 1
gene  1 1 43 -0.26409179899352075 0 1848.0 -0.26409179899352075 1
gene  1 2 43 0.3305983391074119 0 1849.0 0.3305983391074119 1
gene  1 3 43 -0.2746212346354694 0 1850.0 -0.2746212346354694 1
gene  1 5 43 -0.20888642721131356 0 1852.0 -0.20888642721131356 1
gene  1 6 43 0.6382770352544861 0 1853.0 0.6382770352544861 1
gene  1 7 43 0.6125009000370089 0 1854.0 0.6125009000370089 1
gene  1 8 43 0.16836584118958176 0 1855.0 0.16836584118958176 1
gene  1 9 43 0.44085526090919414 0 1856.0 0.44085526090919414 1
gene  1 11 43 -0.6429792553014011 0 1858.0 -0.6429792553014011 1
gene  1 13 43 -0.40993905260148267 0 1860.0 -0.40993905260148267 1
gene  1 16 43 0.16577458706651194 0 1863.0 0.16577458706651194 1
gene  1 17 43 0.5856383350481699 0 1864.0 0.5856383350481699 1
gene  1 18 43 -0.4467651451089174 0 1865.0 -0.4467651451089174 1
gene  1 20 43 0.5498946487740541 0 1867.0 0.5498946487740541 1
gene  1 21 43 0.8393560144241582 0 1868.0 0.8393560144241582 1
gene  1 26 43 -0.8083574773052074 0 1873.0 -0.8083574773052074 1
gene  1 27 43 0.28858799662947643 0 1874.0 0.28858799662947643 1
gene  1 28 43 0.6254158490305955 0 1875.0 0.6254158490305955 1
gene  1 30 43 -0.4127186195320083 0 1877.0 -0.4127186195320083 1
gene  1 31 43 0.3210675820799883 0 1878.0 0.3210675820799883 1
gene  1 32 43 -0.44486503427490165 0 1879.0 -0.44486503427490165 1
gene  1 33 43 -0.21224052501551016 0 1880.0 -0.21224052501551016 1
gene  1 40 43 -0.9684287428403484 0 1887.0 -0.9684287428403484 1
gene  1 41 43 -0.5394334870177259 0 1888.0 -0.5394334870177259 1
gene  1 2 44 0.819392856669389 0 1893.0 0.819392856669389 1
gene  1 5 44 -0.5568689458511202 0 1896.0 -0.5568689458511202 1
gene  1 6 44 0.7971328903040396 0 1897.0 0.7971328903040396 1
gene  1 7 44 0.299886981748576 0 1898.0 0.299886981748576 1
gene  1 9 44 -0.59900631021849 0 1900.0 -0.59900631021849 1
gene  1 11 44 0.12939266011429185 0 1902.0 0.12939266011429185 1
gene  1 13 44 0.9668010169347502 0 1904.0 0.9668010169347502 1
gene  1 16 44 0.3191769474985503 0 1907.0 0.3191769474985503 1
gene  1 17 44 0.16859375793995368 0 1908.0 0.16859375793995368 1
gene  1 18 44 -0.2222769931586206 0 1909.0 -0.2222769931586206 1
gene  1 20 44 -0.5375691136447139 0 1911.0 -0.5375691136447139 1
gene  1 21 44 -0.4457986751608807 0 1912.0 -0.4457986751608807 1
gene  1 24 44 -0.8417846819603385 0 1915.0 -0.8417846819603385 1
gene  1 28 44 0.023598395498868552 0 1919.0 0.023598395498868552 1
gene  1 29 44 0.7852860776522427 0 1920.0 0.7852860776522427 1
gene  1 31 44 -0.7794796822889347 0 1922.0 -0.7794796822889347 1
gene  1 33 44 -0.06430898031143595 0 1924.0 -0.06430898031143595 1
gene  1 34 44 -0.10170969893853421 0 1925.0 -0.10170969893853421 1
gene  1 40 44 -0.4436624625774891 0 1931.0 -0.4436624625774891 1
gene  1 42 44 0.8084046767283294 0 1933.0 0.8084046767283294 1
gene  1 44 44 -0.7585346495097043 1 1935.0 -0.7585346495097043 1
genomeend 5
genomestart  6
trait 1 0.0 0.0 0.0 0.0 0.0 0.0 0.0 0.0 
node 1 1 1 1
node 2 1 1 1
node 3 1 1 1
node 4 1 1 1
node 5 1 1 1
node 6 1 1 1
node 7 1 1 1
node 8 1 1 1
node 9 1 1 1
node 10 1 1 1
node 11 1 1 1
node 12 1 1 1
node 13 1 1 1
node 14 1 1 1
node 15 1 1 1
node 16 1 1 1
node 17 1 1 1
node 18 1 1 1
node 19 1 1 1
node 20 1 1 1
node 21 1 1 1
node 22 1 1 1
node 23 1 1 1
node 24 1 1 1
node 25 1 1 1
node 26 1 1 1
node 27 1 1 1
node 28 1 1 3
node 29 1 0 0
node 30 1 0 0
node 31 1 0 0
node 39 1 0 2
node 40 1 0 2
node 41 1 0 2
node 42 1 0 2
node 43 1 0 2
node 44 1 0 2
gene  1 1 29 -0.40199159650545646 0 1232.0 -0.40199159650545646 1
gene  1 2 29 0.267122551497175 0 1233.0 0.267122551497175 1
gene  1 5 29 0.42190111673776465 0 1236.0 0.42190111673776465 1
gene  1 7 29 -0.5057098392761704 0 1238.0 -0.5057098392761704 1
gene  1 9 29 -0.45255790842308463 0 1240.0 -0.45255790842308463 1
gene  1 13 29 -0.3660538633856335 0 1244.0 -0.3660538633856335 1
gene  1 14 29 0.15019060234914317 0 1245.0 0.15019060234914317 1
gene  1 15 29 0.7058359632289866 0 1246.0 0.7058359632289866 1
gene  1 16 29 0.08791135411530904 0 1247.0 0.08791135411530904 1
gene  1 20 29 0.1095553880934852 0 1251.0 0.1095553880934852 1
gene  1 22 29 0.7388303434480429 0 1253.0 0.7388303434480429 1
gene  1 23 29 -0.044402014666648504 0 1254.0 -0.044402014666648504 1
gene  1 24 29 -0.9391898961639338 0 1255.0 -0.9391898961639338 1
gene  1 25 29 -0.6831421502496878 0 1256.0 -0.6831421502496878 1
gene  1 28 29 0.2649569688200023 0 1259.0 0.2649569688200023 1
gene  1 29 29 -0.6086251336052076 1 1260.0 -0.6086251336052076 1
gene  1 31 29 0.5843858727067528 1 1262.0 0.5843858727067528 1
gene  1 40 29 0.34058722324056856 1 1271.0 0.34058722324056856 1
gene  1 41 29 0.9900844804881629 1 1272.0 0.9900844804881629 1
gene  1 42 29 -0.21045354120051918 1 1273.0 -0.21045354120051918 1
gene  1 44 29 0.5777099355416327 1 1275.0 0.5777099355416327 1
gene  1 1 30 0.6545973440677183 0 1276.0 0.6545973440677183 1
gene  1 3 30 -0.3005976965801359 0 1278.0 -0.3005976965801359 1
gene  1 5 30 0.516242530914924 0 1280.0 0.516242530914924 1
gene  1 7 30 0.605575204709835 0 1282.0 0.605575204709835 1
gene  1 12 30 0.28933826916851724 0 1287.0 0.28933826916851724 1
gene  1 15 30 -0.10775778593818042 0 1290.0 -0.10775778593818042 1
gene  1 17 30 -0.7796166353225191 0 1292.0 -0.7796166353225191 1
gene  1 20 30 -0.5675085271331968 0 1295.0 -0.5675085271331968 1
gene  1 23 30 0.5702190845207936 0 1298.0 0.5702190845207936 1
gene  1 25 30 -0.8451501230715504 0 1300.0 -0.8451501230715504 1
gene  1 27 30 -0.16908530279193734 0 1302.0 -0.16908530279193734 1
gene  1 28 30 0.5339542247967751 0 1303.0 0.5339542247967751 1
gene  1 29 30 -0.47392920838774666 0 1304.0 -0.47392920838774666 1
gene  1 30 30 -0.9774491506869389 1 1305.0 -0.9774491506869389 1
gene  1 31 30 -0.38170536124283994 1 1306.0 -0.38170536124283994 1
gene  1 40 30 0.14039322513498054 1 1315.0 0.14039322513498054 1
gene  1 42 30 -0.8339504990793727 1 1317.0 -0.8339504990793727 1
gene  1 43 30 -0.4087436367599435 1 1318.0 -0.4087436367599435 1
gene  1 44 30 0.5362882403174608 1 1319.0 0.5362882403174608 1
gene  1 2 31 0.5706784715389039 0 1321.0 0.5706784715389039 1
gene  1 4 31 -0.8866516253205031 0 1323.0 -0.8866516253205031 1
gene  1 8 31 -0.6258739742512908 0 1327.0 -0.6258739742512908 1
gene  1 9 31 0.9132765713611929 0 1328.0 0.9132765713611929 1
gene  1 11 31 0.9410919605158237 0 1330.0 0.9410919605158237 1
gene  1 13 31 0.08799086777472287 0 1332.0 0.08799086777472287 1
gene  1 16 31 0.27857046112578177 0 1335.0 0.27857046112578177 1
gene  1 17 31 -0.7317868631329618 0 1336.0 -0.7317868631329618 1
gene  1 19 31 0.49633321108890593 0 1338.0 0.49633321108890593 1
gene  1 21 31 0.9625693129043041 0 1340.0 0.9625693129043041 1
gene  1 22 31 -0.051810390618841184 0 1341.0 -0.051810390618841184 1
gene  1 23 31 0.9651241294640504 0 1342.0 0.9651241294640504 1
gene  1 25 31 -0.4923061825709276 0 1344.0 -0.4923061825709276 1
gene  1 27 31 -0.6414173084331263 0 1346.0 -0.6414173084331263 1
gene  1 28 31 -0.6667727006486902 0 1347.0 -0.6667727006486902 1
gene  1 30 31 0.9413944065904829 0 1349.0 0.9413944065904829 1
gene  1 39 31 0.1879087990365088 1 1358.0 0.1879087990365088 1
gene  1 42 31 -0.47297458844266027 1 1361.0 -0.47297458844266027 1
gene  1 44 31 0.11697553480464362 1 1363.0 0.11697553480464362 1
gene  1 2 39 -0.7621146669674151 0 1673.0 -0.7621146669674151 1
gene  1 3 39 0.7656457004709692 0 1674.0 0.7656457004709692 1
gene  1 4 39 0.40811911534307144 0 1675.0 0.40811911534307144 1
gene  1 5 39 -0.4394232180250609 0 1676.0 -0.4394232180250609 1
gene  1 6 39 0.11476855326701552 0 1677.0 0.11476855326701552 1
gene  1 7 39 -0.812260446337009 0 1678.0 -0.812260446337009 1
gene  1 9 39 0.7540699135785977 0 1680.0 0.7540699135785977 1
gene  1 11 39 0.4925284718319124 0 1682.0 0.4925284718319124 1
gene  1 13 39 0.9302757203221709 0 1684.0 0.9302757203221709 1
gene  1 14 39 -0.8260661636186126 0 1685.0 -0.8260661636186126 1
gene  1 18 39 -0.8371686496919752 0 1689.0 -0.8371686496919752 1
gene  1 20 39 0.09075436232359035 0 1691.0 0.09075436232359035 1
gene  1 22 39 -0.22790149127373094 0 1693.0 -0.22790149127373094 1
gene  1 23 39 -0.9844733452027963 0 1694.0 -0.9844733452027963 1
gene  1 26 39 -0.31893968083940927 0 1697.0 -0.31893968083940927 1
gene  1 27 39 0.07974869640646698 0 1698.0 0.07974869640646698 1
gene  1 28 39 -0.9421799986892596 0 1699.0 -0.9421799986892596 1
gene  1 29 39 0.5574687628693485 0 1700.0 0.5574687628693485 1
gene  1 30 39 0.5658225221892125 0 1701.0 0.5658225221892125 1
gene  1 39 39 0.3465151742447923 1 1710.0 0.3465151742447923 1
gene  1 40 39 0.19227444075284805 1 1711.0 0.19227444075284805 1
gene  1 42 39 0.1414696388568668 1 1713.0 0.1414696388568668 1
gene  1 43 39 0.007322775362687328 1 1714.0 0.007322775362687328 1
gene  1 44 39 -0.5900401906545485 1 1715.0 -0.5900401906545485 1
gene  1 2 40 -0.34655216888350626 0 1717.0 -0.34655216888350626 1
gene  1 3 40 0.6109117073813398 0 1718.0 0.6109117073813398 1
gene  1 5 40 -0.7411677321036437 0 1720.0 -0.7411677321036437 1
gene  1 7 40 0.8438140696782084 0 1722.0 0.8438140696782084 1
gene  1 10 40 -0.9760762108559444 0 1725.0 -0.9760762108559444 1
gene  1 13 40 -0.9368562626329565 0 1728.0 -0.9368562626329565 1
gene  1 18 40 -0.4028919550479163 0 1733.0 -0.4028919550479163 1
gene  1 24 40 0.07976277648016994 0 1739.0 0.07976277648016994 1
gene  1 26 40 -0.861657679337067 0 1741.0 -0.861657679337067 1
gene  1 28 40 0.9444208322567885 0 1743.0 0.9444208322567885 1
gene  1 30 40 0.14099764434706008 0 1745.0 0.14099764434706008 1
gene  1 31 40 0.742031114920535 0 1746.0 0.742031114920535 1
gene  1 39 40 0.21089220344830706 0 1754.0 0.21089220344830706 1
gene  1 40 40 -0.6124279353129523 1 1755.0 -0.6124279353129523 1
gene  1 41 40 -0.2916905896359542 1 1756.0 -0.2916905896359542 1
gene  1 42 40 -0.18949412860973236 1 1757.0 -0.18949412860973236 1
gene  1 1 41 0.10441556945218389 0 1760.0 0.10441556945218389 1
gene  1 3 41 -0.6446769395852469 0 1762.0 -0.6446769395852469 1
gene  1 4 41 -0.37782225683467163 0 1763.0 -0.37782225683467163 1
gene  1 5 41 0.8703598594735915 0 1764.0 0.8703598594735915 1
gene  1 10 41 -0.48402936658058693 0 1769.0 -0.48402936658058693 1
gene  1 11 41 0.04490306847029246 0 1770.0 0.04490306847029246 1
gene  1 12 41 -0.44807388403634085 0 1771.0 -0.44807388403634085 1
gene  1 14 41 0.635177085809676 0 1773.0 0.635177085809676 1
gene  1 15 41 -0.13831026630266607 0 1774.0 -0.13831026630266607 1
gene  1 16 41 -0.13589589336400187 0 1775.0 -0.13589589336400187 1
gene  1 20 41 0.5919888163589614 0 1779.0 0.5919888163589614 1
gene  1 21 41 -0.11226568436994355 0 1780.0 -0.11226568436994355 1
gene  1 22 41 0.662148913621393 0 1781.0 0.662148913621393 1
gene  1 24 41 0.5033843231123268 0 1783.0 0.5033843231123268 1
gene  1 26 41 -0.015945823844195517 0 1785.0 -0.015945823844195517 1
gene  1 27 41 -0.14020885416873363 0 1786.0 -0.14020885416873363 1
gene  1 29 41 -0.15306032704741424 0 1788.0 -0.15306032704741424 1
gene  1 31 41 0.39000653574376964 0 1790.0 0.39000653574376964 1
gene  1 41 41 0.13070775895580267 1 1800.0 0.13070775895580267 1
gene  1 42 41 0.16562423555759864 1 1801.0 0.16562423555759864 1
gene  1 44 41 -0.9561380488112262 1 1803.0 -0.9561380488112262 1
gene  1 2 42 -0.08370030491062108 0 1805.0 -0.08370030491062108 1
gene  1 4 42 -0.20327916196056006 0 1807.0 -0.20327916196056006 1
gene  1 8 42 0.48287996682306367 0 1811.0 0.48287996682306367 1
gene  1 12 42 -0.43763434659088574 0 1815.0 -0.43763434659088574 1
gene  1 13 42 0.3547708999085377 0 1816.0 0.3547708999085377 1
gene  1 15 42 -0.7693505595409039 0 1818.0 -0.7693505595409039 1
gene  1 16 42 -0.5995296685077287 0 1819.0 -0.5995296685077287 1
gene  1 17 42 -0.0201581140834598 0 1820.0 -0.0201581140834598 1
gene  1 19 42 -0.3101978142704257 0 1822.0 -0.3101978142704257 1
gene  1 20 42 -0.9268507151108699 0 1823.0 -0.9268507151108699 1
gene  1 21 42 -0.6626725070526336 0 1824.0 -0.6626725070526336 1
gene  1 23 42 -0.3755877233133218 0 1826.0 -0.3755877233133218 1
gene  1 24 42 0.5127801738849557 0 1827.0 0.5127801738849557 1
gene  1 26 42 0.05970524945092892 0 1829.0 0.05970524945092892 1
gene  1 27 42 -0.25473954750113903 0 1830.0 -0.25473954750113903 1
gene  1 28 42 -0.17956599220822644 0 1831.0 -0.17956599220822644 1
gene  1 30 42 0.5137194171510843 0 1833.0 0.5137194171510843 1
gene  1 31 42 -0.4318196820723593 0 1834.0 -0.4318196820723593 1
gene  1 39 42 -0.36177874376164343 0 1842.0 -0.36177874376164343 1
gene  1 1 43 -0.47782641102246515 0 1848.0 -0.47782641102246515 1
gene  1 2 43 0.27429825577641154 0 1849.0 0.27429825577641154 1
gene  1 6 43 -0.3869465250819366 0 1853.0 -0.3869465250819366 1
gene  1 7 43 0.5044492497388029 0 1854.0 0.5044492497388029 1
gene  1 8 43 0.9029118750518924 0 1855.0 0.9029118750518924 1
gene  1 9 43 -0.30641410853645845 0 1856.0 -0.30641410853645845 1
gene  1 10 43 0.7672220653285161 0 1857.0 0.7672220653285161 1
gene  1 12 43 0.8948027166548033 0 1859.0 0.8948027166548033 1
gene  1 15 43 -0.47278641944477495 0 1862.0 -0.47278641944477495 1
gene  1 16 43 0.7907153059458343 0 1863.0 0.7907153059458343 1
gene  1 17 43 -0.2828972478226157 0 1864.0 -0.2828972478226157 1
gene  1 19 43 -0.7055658407822251 0 1866.0 -0.7055658407822251 1
gene  1 20 43 -0.8724758020890511 0 1867.0 -0.8724758020890511 1
gene  1 22 43 -0.7796934813785217 0 1869.0 -0.7796934813785217 1
gene  1 24 43 0.3236492766439576 0 1871.0 0.3236492766439576 1
gene  1 25 43 -0.6999591730917992 0 1872.0 -0.6999591730917992 1
gene  1 26 43 0.19765143343817815 0 1873.0 0.19765143343817815 1
gene  1 29 43 0.7529108575938841 0 1876.0 0.7529108575938841 1
gene  1 41 43 0.4777284981693456 0 1888.0 0.4777284981693456 1
gene  1 42 43 0.3278772445760625 0 1889.0 0.3278772445760625 1
gene  1 43 43 0.4658116582853362 1 1890.0 0.4658116582853362 1
gene  1 1 44 -0.951059675710022 0 1892.0 -0.951059675710022 1
gene  1 2 44 0.43332482678921247 0 1893.0 0.43332482678921247 1
gene  1 4 44 -0.12918539265024287 0 1895.0 -0.12918539265024287 1
gene  1 10 44 -0.4766125671414213 0 1901.0 -0.4766125671414213 1
gene  1 12 44 -0.8101168720470904 0 1903.0 -0.8101168720470904 1
gene  1 18 44 -0.0755658227553625 0 1909.0 -0.0755658227553625 1
gene  1 20 44 -0.7494900192635818 0 1911.0 -0.7494900192635818 1
gene  1 22 44 0.13752683567441304 0 1913.0 0.13752683567441304 1
gene  1 23 44 -0.4786956426352572 0 1914.0 -0.4786956426352572 1
gene  1 26 44 0.2954878224001821 0 1917.0 0.2954878224001821 1
gene  1 27 44 -0.8424334332770429 0 1918.0 -0.8424334332770429 1
gene  1 39 44 -0.33330812580224745 0 1930.0 -0.33330812580224745 1
gene  1 40 44 -0.40990871964605047 0 1931.0 -0.40990871964605047 1
gene  1 42 44 -0.11153942519009541 0 1933.0 -0.11153942519009541 1
gene  1 43 44 -0.551634652501134 0 1934.0 -0.551634652501134 1
gene  1 44 44 0.08603165484706898 1 1935.0 0.08603165484706898 1
genomeend 6
genomestart  7
trait 1 0.0 0.0 0.0 0.0 0.0 0.0 0.0 0.0 
node 1 1 1 1
node 2 1 1 1
node 3 1 1 1
node 4 1 1 1
node 5 1 1 1
node 6 1 1 1
node 7 1 1 1
node 8 1 1 1
node 9 1 1 1
node 10 1 1 1
node 11 1 1 1
node 12 1 1 1
node 13 1 1 1
node 14 1 1 1
node 15 1 1 1
node 16 1 1 1
node 17 1 1 1
node 18 1 1 1
node 19 1 1 1
node 20 1 1 1
node 21 1 1 1
node 22 1 1 1
node 23 1 1 1
node 24 1 1 1
node 25 1 1 1
node 26 1 1 1
node 27 1 1 1
node 28 1 1 3
node 29 1 0 0
node 30 1 0 0
node 31 1 0 0
node 32 1 0 0
node 33 1 0 0
node 34 1 0 0
node 35 1 0 0
node 36 1 0 0
node 37 1 0 0
node 39 1 0 2
node 40 1 0 2
node 41 1 0 2
node 42 1 0 2
node 43 1 0 2
node 44 1 0 2
gene  1 2 29 0.9210333555748973 0 1233.0 0.9210333555748973 1
gene  1 4 29 -0.9247451355734003 0 1235.0 -0.9247451355734003 1
gene  1 5 29 -0.45948770535646055 0 1236.0 -0.45948770535646055 1
gene  1 7 29 -0.6068569729646613 0 1238.0 -0.6068569729646613 1
gene  1 8 29 -0.5872393798685863 0 1239.0 -0.5872393798685863 1
gene  1 9 29 -0.6609802116223393 0 1240.0 -0.6609802116223393 1
gene  1 11 29 0.05704375096737313 0 1242.0 0.05704375096737313 1
gene  1 12 29 0.0988258362683081 0 1243.0 0.0988258362683081 1
gene  1 14 29 0.4990989603041428 0 1245.0 0.4990989603041428 1
gene  1 15 29 0.609263329950516 0 1246.0 0.609263329950516 1
gene  1 17 29 -0.2698937698258165 0 1248.0 -0.2698937698258165 1
gene  1 18 29 -0.4578001863854807 0 1249.0 -0.4578001863854807 1
gene  1 19 29 0.7950397114815343 0 1250.0 0.7950397114815343 1
gene  1 20 29 0.8310655681255452 0 1251.0 0.8310655681255452 1
gene  1 21 29 -0.3522264713212615 0 1252.0 -0.3522264713212615 1
gene  1 23 29 0.1972312400741716 0 1254.0 0.1972312400741716 1
gene  1 24 29 0.8280341429924942 0 1255.0 0.8280341429924942 1
gene  1 25 29 -0.3265924328722629 0 1256.0 -0.3265924328722629 1
gene  1 27 29 -0.8889761241057335 0 1258.0 -0.8889761241057335 1
gene  1 29 29 0.46963265826498923 1 1260.0 0.46963265826498923 1
gene  1 30 29 0.33452260093587605 1 1261.0 0.33452260093587605 1
gene  1 31 29 0.7178428084343816 1 1262.0 0.7178428084343816 1
gene  1 36 29 0.7037164726618663 1 1267.0 0.7037164726618663 1
gene  1 37 29 0.9417963883999226 1 1268.0 0.9417963883999226 1
gene  1 40 29 -0.7240280538259568 1 1271.0 -0.7240280538259568 1
gene  1 42 29 0.7249101382925301 1 1273.0 0.7249101382925301 1
gene  1 44 29 -0.3758414955964028 1 1275.0 -0.3758414955964028 1
gene  1 1 30 0.8464710097102723 0 1276.0 0.8464710097102723 1
gene  1 6 30 -0.2373401615868106 0 1281.0 -0.2373401615868106 1
gene  1 9 30 -0.8654502223916901 0 1284.0 -0.8654502223916901 1
gene  1 15 30 0.5552340328821378 0 1290.0 0.5552340328821378 1
gene  1 23 30 -0.32554129787577557 0 1298.0 -0.32554129787577557 1
gene  1 26 30 0.692477795854101 0 1301.0 0.692477795854101 1
gene  1 28 30 0.7004632875773378 0 1303.0 0.7004632875773378 1
gene  1 31 30 -0.7836094693633423 1 1306.0 -0.7836094693633423 1
gene  1 35 30 0.9037504325624418 1 1310.0 0.9037504325624418 1
gene  1 37 30 -0.648559550281172 1 1312.0 -0.648559550281172 1
gene  1 39 30 0.04558049472364911 1 1314.0 0.04558049472364911 1
gene  1 40 30 -0.45059283196650646 1 1315.0 -0.45059283196650646 1
gene  1 43 30 0.1112703042986799 1 1318.0 0.1112703042986799 1
gene  1 44 30 -0.5184140705229199 1 1319.0 -0.5184140705229199 1
gene  1 3 31 -0.35125906582462785 0 1322.0 -0.35125906582462785 1
gene  1 4 31 0.6779827900127826 0 1323.0 0.6779827900127826 1
gene  1 5 31 0.5104900693727423 0 1324.0 0.5104900693727423 1
gene  1 6 31 -0.5108182561791338 0 1325.0 -0.5108182561791338 1
gene  1 7 31 -0.7099020686552628 0 1326.0 -0.7099020686552628 1
gene  1 8 31 0.9205779333325056 0 1327.0 0.9205779333325056 1
gene  1 12 31 0.20167130337575578 0 1331.0 0.20167130337575578 1
gene  1 13 31 -0.20160479236723727 0 1332.0 -0.20160479236723727 1
gene  1 14 31 0.002030809190186833 0 1333.0 0.002030809190186833 1
gene  1 15 31 0.4637753778232587 0 1334.0 0.4637753778232587 1
gene  1 16 31 -0.979900702008845 0 1335.0 -0.979900702008845 1
gene  1 17 31 0.04785379199646722 0 1336.0 0.04785379199646722 1
gene  1 18 31 0.6732246647117098 0 1337.0 0.6732246647117098 1
gene  1 20 31 0.5886549075909994 0 1339.0 0.5886549075909994 1
gene  1 21 31 -0.8102204326321572 0 1340.0 -0.8102204326321572 1
gene  1 22 31 0.6586693916432416 0 1341.0 0.6586693916432416 1
gene  1 24 31 -0.7114589058049741 0 1343.0 -0.7114589058049741 1
gene  1 26 31 -0.25056877341827755 0 1345.0 -0.25056877341827755 1
gene  1 27 31 -0.968973124474825 0 1346.0 -0.968973124474825 1
gene  1 29 31 -0.11671353925056915 0 1348.0 -0.11671353925056915 1
gene  1 31 31 -0.040440358217383565 1 1350.0 -0.040440358217383565 1
gene  1 34 31 0.6978719228737594 1 1353.0 0.6978719228737594 1
gene  1 40 31 0.779174332197206 1 1359.0 0.779174332197206 1
gene  1 41 31 0.9631694628561539 1 1360.0 0.9631694628561539 1
gene  1 43 31 0.7751657494071581 1 1362.0 0.7751657494071581 1
gene  1 44 31 -0.5482376725846206 1 1363.0 -0.5482376725846206 1
gene  1 2 32 -0.22991239526251928 0 1365.0 -0.22991239526251928 1
gene  1 3 32 0.580957768414134 0 1366.0 0.580957768414134 1
gene  1 4 32 0.4146850133532698 0 1367.0 0.4146850133532698 1
gene  1 5 32 0.6802623729700735 0 1368.0 0.6802623729700735 1
gene  1 6 32 0.22003556032264804 0 1369.0 0.22003556032264804 1
gene  1 7 32 0.9620239293010507 0 1370.0 0.9620239293010507 1
gene  1 8 32 -0.9342936449236189 0 1371.0 -0.9342936449236189 1
gene  1 9 32 -0.6114061375835713 0 1372.0 -0.6114061375835713 1
gene  1 10 32 0.6822592760153549 0 1373.0 0.6822592760153549 1
gene  1 14 32 0.15892683712843758 0 1377.0 0.15892683712843758 1
gene  1 16 32 0.0423293197736081 0 1379.0 0.0423293197736081 1
gene  1 21 32 -0.27775090106801015 0 1384.0 -0.27775090106801015 1
gene  1 23 32 0.32472612404538836 0 1386.0 0.32472612404538836 1
gene  1 24 32 -0.8927301560782228 0 1387.0 -0.8927301560782228 1
gene  1 27 32 -0.28951248204883784 0 1390.0 -0.28951248204883784 1
gene  1 29 32 0.7489658873055582 0 1392.0 0.7489658873055582 1
gene  1 31 32 0.24426708639674344 0 1394.0 0.24426708639674344 1
gene  1 32 32 0.7216516836584329 1 1395.0 0.7216516836584329 1
gene  1 35 32 -0.7623225107845344 1 1398.0 -0.7623225107845344 1
gene  1 39 32 0.08001021978881873 1 1402.0 0.08001021978881873 1
gene  1 42 32 0.712307716330842 1 1405.0 0.712307716330842 1
gene  1 43 32 0.13075489194621448 1 1406.0 0.13075489194621448 1
gene  1 44 32 -0.304093939499809 1 1407.0 -0.304093939499809 1
gene  1 1 33 0.3806086087252144 0 1408.0 0.3806086087252144 1
gene  1 3 33 0.17557873281971992 0 1410.0 0.17557873281971992 1
gene  1 4 33 0.7542440547122491 0 1411.0 0.7542440547122491 1
gene  1 6 33 0.4330761626365103 0 1413.0 0.4330761626365103 1
gene  1 8 33 0.16991271395187424 0 1415.0 0.16991271395187424 1
gene  1 9 33 -0.036437156200862186 0 1416.0 -0.036437156200862186 1
gene  1 11 33 0.4200919694461721 0 1418.0 0.4200919694461721 1
gene  1 13 33 0.7572278596323416 0 1420.0 0.7572278596323416 1
gene  1 14 33 0.05689467675979376 0 1421.0 0.05689467675979376 1
gene  1 15 33 0.34047496502542096 0 1422.0 0.34047496502542096 1
gene  1 20 33 0.6526110012201383 0 1427.0 0.6526110012201383 1
gene  1 21 33 -0.9094893587068327 0 1428.0 -0.9094893587068327 1
gene  1 22 33 -0.8611651495781446 0 1429.0 -0.8611651495781446 1
gene  1 25 33 -0.7828483536799623 0 1432.0 -0.7828483536799623 1
gene  1 33 33 -0.8823661657786045 1 1440.0 -0.8823661657786045 1
gene  1 34 33 -0.08004517926004096 1 1441.0 -0.08004517926004096 1
gene  1 35 33 -0.06270048237746051 1 1442.0 -0.06270048237746051 1
gene  1 40 33 0.8019417840579599 1 1447.0 0.8019417840579599 1
gene  1 41 33 0.7040959399865317 1 1448.0 0.7040959399865317 1
gene  1 5 34 -0.6358804717890212 0 1456.0 -0.6358804717890212 1
gene  1 6 34 -0.275410164386673 0 1457.0 -0.275410164386673 1
gene  1 10 34 0.23400274088578343 0 1461.0 0.23400274088578343 1
gene  1 16 34 0.7609961481646916 0 1467.0 0.7609961481646916 1
gene  1 17 34 0.1718511777815651 0 1468.0 0.1718511777815651 1
gene  1 19 34 0.595957463276714 0 1470.0 0.595957463276714 1
gene  1 20 34 -0.5015313993967891 0 1471.0 -0.5015313993967891 1
gene  1 21 34 -0.9961565348342591 0 1472.0 -0.9961565348342591 1
gene  1 25 34 -0.5075052150891017 0 1476.0 -0.5075052150891017 1
gene  1 30 34 -0.7375244324494188 0 1481.0 -0.7375244324494188 1
gene  1 34 34 0.469652309139427 1 1485.0 0.469652309139427 1
gene  1 35 34 -0.23681116565823646 1 1486.0 -0.23681116565823646 1
gene  1 36 34 -0.5528617054085442 1 1487.0 -0.5528617054085442 1
gene  1 37 34 0.8544159556120111 1 1488.0 0.8544159556120111 1
gene  1 39 34 -0.46846753970028054 1 1490.0 -0.46846753970028054 1
gene  1 42 34 -0.1114469783883083 1 1493.0 -0.1114469783883083 1
gene  1 1 35 -0.8340042308607013 0 1496.0 -0.8340042308607013 1
gene  1 2 35 0.6680373942046132 0 1497.0 0.6680373942046132 1
gene  1 4 35 0.0074105320728224955 0 1499.0 0.0074105320728224955 1
gene  1 6 35 -0.75014999379432 0 1501.0 -0.75014999379432 1
gene  1 7 35 0.5622743317619885 0 1502.0 0.5622743317619885 1
gene  1 10 35 0.6727373460675588 0 1505.0 0.6727373460675588 1
gene  1 11 35 -0.03367273762317313 0 1506.0 -0.03367273762317313 1
gene  1 13 35 -0.30068084744521784 0 1508.0 -0.30068084744521784 1
gene  1 17 35 0.012538053426121243 0 1512.0 0.012538053426121243 1
gene  1 22 35 0.8205408122452129 0 1517.0 0.8205408122452129 1
gene  1 25 35 0.26652833940426035 0 1520.0 0.26652833940426035 1
gene  1 26 35 -0.081852923381038 0 1521.0 -0.081852923381038 1
gene  1 27 35 -0.25679506959596143 0 1522.0 -0.25679506959596143 1
gene  1 28 35 0.6305380752324992 0 1523.0 0.6305380752324992 1
gene  1 30 35 0.9003715404260487 0 1525.0 0.9003715404260487 1
gene  1 32 35 -0.8764076105133917 0 1527.0 -0.8764076105133917 1
gene  1 34 35 0.886530803873579 0 1529.0 0.886530803873579 1
gene  1 40 35 0.3496542937963315 1 1535.0 0.3496542937963315 1
gene  1 6 36 0.4609237283455139 0 1545.0 0.4609237283455139 1
gene  1 8 36 -0.9816904261262401 0 1547.0 -0.9816904261262401 1
gene  1 9 36 0.7047807763147669 0 1548.0 0.7047807763147669 1
gene  1 16 36 -0.7990799134910709 0 1555.0 -0.7990799134910709 1
gene  1 17 36 -0.6426502939633032 0 1556.0 -0.6426502939633032 1
gene  1 24 36 0.8413445873621759 0 1563.0 0.8413445873621759 1
gene  1 25 36 0.7278585927588069 0 1564.0 0.7278585927588069 1
gene  1 26 36 0.30155717521882974 0 1565.0 0.30155717521882974 1
gene  1 28 36 0.7941148873201606 0 1567.0 0.7941148873201606 1
gene  1 31 36 0.3876550657059954 0 1570.0 0.3876550657059954 1
gene  1 35 36 -0.5049459228496577 0 1574.0 -0.5049459228496577 1
gene  1 36 36 -0.5101208113714508 1 1575.0 -0.5101208113714508 1
gene  1 37 36 0.2668307163788507 1 1576.0 0.2668307163788507 1
gene  1 39 36 0.25416318060941323 1 1578.0 0.25416318060941323 1
gene  1 40 36 -0.3359820298933458 1 1579.0 -0.3359820298933458 1
gene  1 42 36 -0.6942926134116353 1 1581.0 -0.6942926134116353 1
